booster[0]:
0:[M2_TLOD<267.100006] yes=1,no=2,missing=2
	1:[Strelka_Score<7.65999985] yes=3,no=4,missing=3
		3:[Consistent_Mates<1] yes=9,no=10,missing=10
			9:[if_MuTect<1] yes=29,no=30,missing=30
				29:leaf=-0.538636386
				30:[T_ALT_REV<1] yes=45,no=46,missing=46
					45:leaf=-0.436363667
					46:leaf=0.163636371
			10:[nBAM_REF_NM<0.0840950981] yes=17,no=18,missing=18
				17:[M2_NLOD<48.8800011] yes=25,no=26,missing=26
					25:leaf=-0.393103451
					26:leaf=0.360000014
				18:leaf=-0.364102602
		4:[tBAM_REF_Concordant<110] yes=5,no=6,missing=6
			5:[M2_TLOD<154.389999] yes=7,no=8,missing=8
				7:[tBAM_ALT_Discordant<5] yes=27,no=28,missing=28
					27:[tBAM_NM_Diff<1.64723003] yes=31,no=32,missing=32
						31:leaf=0.544186056
						32:leaf=-0.360000014
					28:leaf=-0.286956549
				8:leaf=-0.475000024
			6:[VarDict_Score<21.2999992] yes=11,no=12,missing=11
				11:leaf=-0.150000006
				12:[nBAM_REF_Clipped_Reads<17] yes=35,no=36,missing=36
					35:leaf=0.577272713
					36:leaf=-0.120000005
	2:[VarDict_Score<27.7700005] yes=13,no=14,missing=13
		13:[tBAM_Other_Reads<182] yes=23,no=24,missing=24
			23:leaf=-0.595103502
			24:leaf=0.333333373
		14:[tBAM_ALT_BQ<30] yes=15,no=16,missing=16
			15:leaf=-0.564890325
			16:[Strelka_Score<19.9799995] yes=19,no=20,missing=19
				19:[nBAM_MQ0<2] yes=33,no=34,missing=34
					33:[Strelka_Score<15.9499998] yes=41,no=42,missing=42
						41:[tBAM_p_MannWhitneyU_EndPos<0.194658995] yes=43,no=44,missing=44
							43:leaf=-0.465306133
							44:leaf=-0.124528311
						42:leaf=-0.498829067
					34:leaf=0.100000009
				20:[tBAM_NM_Diff<0.961219013] yes=21,no=22,missing=22
					21:[tBAM_REF_Discordant<17] yes=37,no=38,missing=38
						37:leaf=-0.200000018
						38:leaf=0.535714328
					22:[Inconsistent_Mates<1] yes=39,no=40,missing=40
						39:leaf=-0.494117677
						40:leaf=0.360000014
booster[1]:
0:[M2_TLOD<254.419998] yes=1,no=2,missing=2
	1:[Strelka_Score<7.65999985] yes=3,no=4,missing=3
		3:[if_MuTect<1] yes=9,no=10,missing=10
			9:[Consistent_Mates<2] yes=25,no=26,missing=26
				25:leaf=-0.394980878
				26:[nBAM_REF_NM<0.0829562992] yes=27,no=28,missing=28
					27:leaf=0.299496859
					28:leaf=-0.380561084
			10:[tBAM_ALT_Discordant<1] yes=19,no=20,missing=20
				19:[VarDict_Score<14.8699999] yes=21,no=22,missing=21
					21:leaf=-0.288570523
					22:[tBAM_REF_Clipped_Reads<3] yes=33,no=34,missing=34
						33:leaf=0.487276077
						34:leaf=-0.32966423
				20:leaf=-0.268147677
		4:[tBAM_REF_Concordant<98] yes=5,no=6,missing=6
			5:[tBAM_ALT_Discordant<3] yes=13,no=14,missing=14
				13:leaf=0.32090646
				14:leaf=-0.344629288
			6:[VarDict_Score<21.2999992] yes=11,no=12,missing=11
				11:leaf=-0.119295053
				12:[tBAM_ALT_Discordant<9] yes=35,no=36,missing=36
					35:[tBAM_p_MannWhitneyU_EndPos<0.000744874997] yes=45,no=46,missing=46
						45:leaf=-0.12011113
						46:leaf=0.452576846
					36:[tBAM_REF_Discordant<19] yes=37,no=38,missing=38
						37:leaf=-0.366652369
						38:leaf=0.35752809
	2:[VarDict_Score<25.5400009] yes=7,no=8,missing=7
		7:[tBAM_Other_Reads<186] yes=23,no=24,missing=24
			23:[Consistent_Mates<4] yes=31,no=32,missing=32
				31:leaf=-0.460642308
				32:[tBAM_ALT_Concordant<52] yes=43,no=44,missing=44
					43:leaf=0.446062237
					44:leaf=-0.283527553
			24:leaf=0.306965351
		8:[tBAM_ALT_NM<1.02326] yes=15,no=16,missing=16
			15:[Strelka_Score<19.9799995] yes=17,no=18,missing=17
				17:leaf=-0.280183971
				18:[tBAM_ALT_Discordant<17] yes=29,no=30,missing=30
					29:leaf=0.456273854
					30:leaf=-0.252555728
			16:[tBAM_REF_Discordant<31] yes=39,no=40,missing=40
				39:leaf=-0.433488548
				40:[GC2CG<1] yes=41,no=42,missing=42
					41:leaf=-0.327427387
					42:leaf=0.312825561
booster[2]:
0:[M2_TLOD<272.290009] yes=1,no=2,missing=2
	1:[Strelka_Score<7.65999985] yes=3,no=4,missing=3
		3:[VarDict_Score<12.5699997] yes=11,no=12,missing=11
			11:[tBAM_Other_Reads<77] yes=33,no=34,missing=34
				33:leaf=-0.386574656
				34:leaf=0.296614051
			12:[T_ALT_REV<1] yes=23,no=24,missing=24
				23:leaf=-0.333911598
				24:[T_ALT_FOR<1] yes=25,no=26,missing=26
					25:leaf=-0.346647233
					26:[tBAM_REF_Clipped_Reads<4] yes=27,no=28,missing=28
						27:[T_REF_FOR<34] yes=29,no=30,missing=30
							29:leaf=-0.238204986
							30:[tBAM_p_MannWhitneyU_EndPos<0.0763477013] yes=43,no=44,missing=44
								43:leaf=-0.0791931748
								44:leaf=0.378779352
						28:leaf=-0.385928303
		4:[tBAM_REF_Concordant<110] yes=5,no=6,missing=6
			5:[M2_TLOD<154.389999] yes=9,no=10,missing=10
				9:[tBAM_ALT_Discordant<7] yes=41,no=42,missing=42
					41:leaf=0.290068746
					42:leaf=-0.318840951
				10:leaf=-0.325224996
			6:[MSI<8] yes=13,no=14,missing=14
				13:leaf=0.372975558
				14:leaf=-0.0939681381
	2:[VarDict_Score<23.4699993] yes=7,no=8,missing=7
		7:[tBAM_Other_Reads<186] yes=31,no=32,missing=32
			31:[Consistent_Mates<4] yes=45,no=46,missing=46
				45:leaf=-0.399050713
				46:leaf=0.0247337501
			32:leaf=0.253920168
		8:[tBAM_ALT_BQ<30] yes=15,no=16,missing=16
			15:leaf=-0.376643777
			16:[Strelka_Score<2.41000009] yes=17,no=18,missing=17
				17:[GC2CG<1] yes=21,no=22,missing=22
					21:[tBAM_REF_NM<0.0833332986] yes=35,no=36,missing=36
						35:leaf=-0.11333365
						36:leaf=-0.345103085
					22:leaf=0.285811722
				18:[tBAM_REF_Discordant<21] yes=19,no=20,missing=20
					19:leaf=-0.287930846
					20:[tBAM_ALT_Discordant<12] yes=37,no=38,missing=38
						37:[tBAM_StrandBias_FET<0.200000003] yes=39,no=40,missing=40
							39:leaf=-0.00683967676
							40:leaf=0.481880635
						38:leaf=-0.124153025
booster[3]:
0:[M2_TLOD<282.459991] yes=1,no=2,missing=2
	1:[Strelka_Score<7.44000006] yes=3,no=4,missing=3
		3:[Consistent_Mates<1] yes=13,no=14,missing=14
			13:[tBAM_ALT_Concordant<9] yes=41,no=42,missing=42
				41:leaf=-0.135708496
				42:leaf=-0.348736286
			14:[nBAM_REF_NM<0.0840950981] yes=23,no=24,missing=24
				23:[M2_NLOD<48.8800011] yes=37,no=38,missing=38
					37:leaf=-0.262994081
					38:leaf=0.228081211
				24:leaf=-0.225385055
		4:[tBAM_ALT_Discordant<6] yes=5,no=6,missing=6
			5:[VarDict_Score<31.1399994] yes=11,no=12,missing=11
				11:[tBAM_ALT_NM<1.125] yes=27,no=28,missing=28
					27:leaf=0.219814852
					28:leaf=-0.25426805
				12:leaf=0.336956322
			6:[tBAM_REF_Concordant<130] yes=9,no=10,missing=10
				9:leaf=-0.346016467
				10:leaf=0.234278217
	2:[VarDict_Score<19.2000008] yes=7,no=8,missing=7
		7:[nBAM_Other_Reads<449] yes=25,no=26,missing=26
			25:[nBAM_REF_MQ<12.5944004] yes=43,no=44,missing=44
				43:leaf=0.1279625
				44:leaf=-0.364800334
			26:leaf=0.246996745
		8:[Strelka_Score<10.2299995] yes=15,no=16,missing=16
			15:[Seq_Complexity_Span<14.9238558] yes=21,no=22,missing=22
				21:leaf=-0.249381661
				22:[tBAM_p_MannWhitneyU_EndPos<0.151207998] yes=45,no=46,missing=46
					45:leaf=-0.178615332
					46:leaf=0.188969955
			16:[Inconsistent_Mates<1] yes=17,no=18,missing=18
				17:[tBAM_ALT_NM<1.03999996] yes=29,no=30,missing=30
					29:[nBAM_REF_Discordant<12] yes=31,no=32,missing=32
						31:[tBAM_REF_Discordant<14] yes=33,no=34,missing=34
							33:leaf=-0.30834344
							34:leaf=0.324285626
						32:[tBAM_p_MannWhitneyU_BQ<0.853380024] yes=35,no=36,missing=36
							35:leaf=-0.279476106
							36:[tBAM_NM_Diff<0.934306979] yes=39,no=40,missing=40
								39:leaf=0.397054493
								40:leaf=-0.238417476
					30:leaf=-0.340159863
				18:[Strelka_Score<19.9799995] yes=19,no=20,missing=19
					19:leaf=-0.26709044
					20:leaf=0.402222723
booster[4]:
0:[M2_TLOD<231.770004] yes=1,no=2,missing=2
	1:[Strelka_Score<8.07999992] yes=3,no=4,missing=3
		3:[VarDict_Score<12.5699997] yes=9,no=10,missing=9
			9:[tBAM_REF_Concordant<144] yes=19,no=20,missing=20
				19:leaf=0.104465723
				20:leaf=-0.347132027
			10:[T_ALT_REV<1] yes=31,no=32,missing=32
				31:leaf=-0.26661557
				32:[T_ALT_FOR<2] yes=33,no=34,missing=34
					33:leaf=-0.228902951
					34:[M2_TLOD<77.7200012] yes=35,no=36,missing=36
						35:[tBAM_REF_Clipped_Reads<3] yes=37,no=38,missing=38
							37:leaf=0.302492887
							38:leaf=-0.203321651
						36:leaf=-0.181388855
		4:[tBAM_REF_Concordant<98] yes=13,no=14,missing=14
			13:[tBAM_NM_Diff<0.986119986] yes=17,no=18,missing=18
				17:leaf=0.227890924
				18:leaf=-0.296157598
			14:[VarDict_Score<43.0099983] yes=15,no=16,missing=15
				15:leaf=0.0135128871
				16:leaf=0.330453992
	2:[VarDict_Score<23.4699993] yes=5,no=6,missing=5
		5:[if_VarDict<1] yes=23,no=24,missing=24
			23:[Consistent_Mates<3] yes=27,no=28,missing=28
				27:leaf=-0.345816314
				28:leaf=0.111330532
			24:[Consistent_Mates<1] yes=29,no=30,missing=30
				29:[tBAM_p_MannWhitneyU_BQ<0.561263025] yes=39,no=40,missing=40
					39:leaf=-0.315879643
					40:[VarScan2_Score<14.9799995] yes=41,no=42,missing=42
						41:leaf=-0.266323954
						42:[nBAM_REF_Discordant<40] yes=43,no=44,missing=44
							43:[tBAM_p_MannWhitneyU_EndPos<0.100316003] yes=45,no=46,missing=46
								45:leaf=-0.24996236
								46:leaf=0.186923578
							44:leaf=-0.289972395
				30:leaf=-0.325353503
		6:[tBAM_ALT_BQ<30] yes=7,no=8,missing=8
			7:leaf=-0.306561708
			8:[tBAM_p_MannWhitneyU_EndPos<0.186079994] yes=11,no=12,missing=12
				11:leaf=-0.273003995
				12:[Inconsistent_Mates<1] yes=21,no=22,missing=22
					21:[GC2CG<1] yes=25,no=26,missing=26
						25:leaf=-0.122729518
						26:leaf=0.312345207
					22:leaf=0.324789464
booster[5]:
0:[M2_TLOD<310.730011] yes=1,no=2,missing=2
	1:[Strelka_Score<7.13000011] yes=3,no=4,missing=3
		3:[tBAM_ALT_Concordant<10] yes=21,no=22,missing=22
			21:[if_Caller_0<1] yes=35,no=36,missing=36
				35:[Strelka_Score<1.59000003] yes=45,no=46,missing=45
					45:leaf=-0.287133217
					46:leaf=0.0956283733
				36:leaf=0.126106411
			22:leaf=-0.261414945
		4:[tBAM_ALT_Discordant<7] yes=7,no=8,missing=8
			7:[tBAM_NM_Diff<1.64723003] yes=11,no=12,missing=12
				11:[tBAM_p_MannWhitneyU_EndPos<0.00751302019] yes=15,no=16,missing=16
					15:leaf=-0.224632129
					16:[tBAM_REF_Discordant<9] yes=31,no=32,missing=32
						31:[tBAM_ALT_Discordant<2] yes=33,no=34,missing=34
							33:leaf=0.267111242
							34:leaf=-0.253565043
						32:leaf=0.306573898
				12:leaf=-0.14105311
			8:[T_REF_REV<97] yes=9,no=10,missing=10
				9:leaf=-0.304501235
				10:leaf=0.195732206
	2:[VarDict_Score<19.2000008] yes=5,no=6,missing=5
		5:[if_Caller_0<1] yes=25,no=26,missing=26
			25:leaf=-0.326600313
			26:[tBAM_Other_Reads<41] yes=27,no=28,missing=28
				27:[nBAM_REF_MQ<12.5944004] yes=43,no=44,missing=44
					43:leaf=0.327485323
					44:leaf=-0.279386312
				28:[VarScan2_Score<1.19000006] yes=29,no=30,missing=30
					29:leaf=-0.245850071
					30:leaf=0.710952163
		6:[Strelka_Score<10.2299995] yes=13,no=14,missing=14
			13:[Strelka_Score<9.07999992] yes=23,no=24,missing=24
				23:[tBAM_p_MannWhitneyU_EndPos<0.199398994] yes=41,no=42,missing=42
					41:leaf=-0.25091204
					42:leaf=0.0234079137
				24:leaf=0.457334667
			14:[tBAM_ALT_NM<1.03999996] yes=17,no=18,missing=18
				17:[tBAM_ALT_Concordant<5] yes=19,no=20,missing=20
					19:[nBAM_REF_Discordant<12] yes=37,no=38,missing=38
						37:[VarDict_Score<21.4799995] yes=39,no=40,missing=40
							39:leaf=-0.19386749
							40:leaf=0.549525321
						38:leaf=-0.245620593
					20:leaf=-0.0262167472
				18:leaf=-0.287594944
booster[6]:
0:[VarDict_Score<30.1800003] yes=1,no=2,missing=1
	1:[if_VarDict<1] yes=7,no=8,missing=8
		7:[tBAM_Other_Reads<15] yes=11,no=12,missing=12
			11:leaf=-0.32033807
			12:[VarScan2_Score<43.1599998] yes=15,no=16,missing=16
				15:leaf=-0.219602942
				16:leaf=0.226196215
		8:[tBAM_ALT_Concordant<4] yes=13,no=14,missing=14
			13:leaf=-0.275686711
			14:[GC2CG<1] yes=19,no=20,missing=20
				19:[tBAM_REF_Concordant<378] yes=23,no=24,missing=24
					23:[SiteHomopolymer_Length<4] yes=31,no=32,missing=32
						31:leaf=-0.13028653
						32:[SOR<0.0461663082] yes=33,no=34,missing=34
							33:[tBAM_p_MannWhitneyU_EndPos<0.204232007] yes=39,no=40,missing=40
								39:leaf=-0.0701164231
								40:leaf=0.478471369
							34:leaf=-0.297035784
					24:leaf=-0.235647574
				20:[nBAM_p_MannWhitneyU_MQ<2.00001001] yes=21,no=22,missing=22
					21:leaf=-0.259678662
					22:leaf=0.724344015
	2:[tBAM_ALT_Discordant<5] yes=3,no=4,missing=4
		3:[if_Strelka<1] yes=5,no=6,missing=6
			5:[Seq_Complexity_Span<13.9759922] yes=17,no=18,missing=18
				17:leaf=-0.235975966
				18:[tBAM_REF_Discordant<31] yes=25,no=26,missing=26
					25:leaf=-0.0665529892
					26:[tBAM_ALT_Concordant<10] yes=29,no=30,missing=30
						29:leaf=0.343623221
						30:leaf=-0.13557516
			6:[tBAM_REF_Discordant<10] yes=41,no=42,missing=42
				41:[M2_TLOD<152.350006] yes=43,no=44,missing=44
					43:leaf=0.241128609
					44:leaf=-0.346218586
				42:[tBAM_p_MannWhitneyU_EndPos<0.000744874997] yes=45,no=46,missing=46
					45:leaf=-0.303257495
					46:leaf=0.324513793
		4:[tBAM_ALT_NM<1.02326] yes=9,no=10,missing=10
			9:[tBAM_p_MannWhitneyU_BQ<0.708554029] yes=27,no=28,missing=27
				27:leaf=-0.177543804
				28:leaf=0.239761725
			10:[tBAM_REF_Discordant<24] yes=35,no=36,missing=36
				35:leaf=-0.32093963
				36:[tBAM_ALT_BQ<30] yes=37,no=38,missing=38
					37:leaf=-0.255389392
					38:leaf=0.165329129
booster[7]:
0:[VarDict_Score<25.9300003] yes=1,no=2,missing=1
	1:[if_VarDict<1] yes=5,no=6,missing=6
		5:[if_Caller_0<1] yes=9,no=10,missing=10
			9:leaf=-0.312762678
			10:[Consistent_Mates<1] yes=25,no=26,missing=26
				25:leaf=-0.211899042
				26:leaf=0.186793566
		6:[Consistent_Mates<1] yes=11,no=12,missing=12
			11:[tBAM_ALT_BQ<27.5] yes=13,no=14,missing=14
				13:leaf=-0.293962032
				14:[VarScan2_Score<11.1800003] yes=15,no=16,missing=16
					15:leaf=-0.249986917
					16:[tBAM_StrandBias_FET<0.560000002] yes=17,no=18,missing=18
						17:leaf=-0.0960320756
						18:[tBAM_REF_Concordant<527] yes=19,no=20,missing=20
							19:[tBAM_p_MannWhitneyU_EndPos<0.528011024] yes=21,no=22,missing=22
								21:leaf=0.048726961
								22:[tBAM_NM_Diff<0.972130001] yes=23,no=24,missing=24
									23:[tBAM_p_MannWhitneyU_EndPos<0.98961997] yes=31,no=32,missing=32
										31:leaf=1.07297873
										32:leaf=-0.090196453
									24:leaf=0.109031685
							20:leaf=-0.148928672
			12:[tBAM_ALT_Concordant<5] yes=29,no=30,missing=30
				29:leaf=-0.284441143
				30:[tBAM_REF_NM<0.0736647993] yes=45,no=46,missing=46
					45:leaf=0.297386557
					46:leaf=-0.134801283
	2:[M2_TLOD<179.399994] yes=3,no=4,missing=4
		3:[Strelka_Score<9.97999954] yes=27,no=28,missing=27
			27:leaf=0.0367481746
			28:leaf=0.286357522
		4:[tBAM_ALT_NM<1.02326] yes=7,no=8,missing=8
			7:[tBAM_p_MannWhitneyU_EndPos<0.0144357001] yes=41,no=42,missing=42
				41:leaf=-0.289522469
				42:[T_ALT_REV<1] yes=43,no=44,missing=44
					43:leaf=-0.287629426
					44:leaf=0.1444159
			8:[tBAM_REF_Discordant<15] yes=33,no=34,missing=34
				33:leaf=-0.308844179
				34:[tBAM_ALT_Discordant<12] yes=35,no=36,missing=36
					35:[VarScan2_Score<43.1599998] yes=37,no=38,missing=38
						37:leaf=-0.176030293
						38:[T_REF_FOR<133] yes=39,no=40,missing=40
							39:leaf=-0.0626146793
							40:leaf=0.377451509
					36:leaf=-0.297117591
booster[8]:
0:[VarDict_Score<25.9300003] yes=1,no=2,missing=1
	1:[if_VarDict<1] yes=5,no=6,missing=6
		5:[tBAM_Other_Reads<15] yes=7,no=8,missing=8
			7:[tBAM_REF_Concordant<56] yes=39,no=40,missing=40
				39:leaf=0.106408656
				40:leaf=-0.306019992
			8:[tBAM_p_MannWhitneyU_EndPos<0.151207998] yes=25,no=26,missing=25
				25:leaf=-0.25944069
				26:[tBAM_ALT_NM<2] yes=27,no=28,missing=28
					27:leaf=0.481973946
					28:leaf=-0.143781081
		6:[Consistent_Mates<1] yes=11,no=12,missing=12
			11:[tBAM_ALT_BQ<27.5] yes=15,no=16,missing=16
				15:leaf=-0.281292528
				16:[if_VarScan2<1] yes=17,no=18,missing=18
					17:leaf=-0.204935744
					18:[tBAM_ALT_Concordant<5] yes=19,no=20,missing=20
						19:[tBAM_ALT_NM<1.60000002] yes=21,no=22,missing=22
							21:[tBAM_REF_Discordant<18] yes=35,no=36,missing=36
								35:[nBAM_REF_Discordant<28] yes=37,no=38,missing=38
									37:[tBAM_StrandBias_FET<0.660000026] yes=45,no=46,missing=46
										45:leaf=0.894695103
										46:leaf=0.111898907
									38:leaf=-0.0386306569
								36:[tBAM_ALT_NM<1.02326] yes=43,no=44,missing=44
									43:leaf=0.203162521
									44:leaf=-0.229873344
							22:leaf=-0.201486409
						20:leaf=-0.166504949
			12:[tBAM_ALT_Concordant<5] yes=13,no=14,missing=14
				13:leaf=-0.268368423
				14:leaf=-0.032485906
	2:[M2_TLOD<194.759995] yes=3,no=4,missing=4
		3:[Strelka_Score<9.97999954] yes=23,no=24,missing=23
			23:leaf=0.0267399345
			24:leaf=0.255031794
		4:[tBAM_NM_Diff<0.941175997] yes=9,no=10,missing=10
			9:[tBAM_p_MannWhitneyU_BQ<0.757881999] yes=33,no=34,missing=34
				33:leaf=-0.0518415309
				34:leaf=0.230355501
			10:[T_ALT_FOR<7] yes=29,no=30,missing=30
				29:[nBAM_REF_Discordant<30] yes=31,no=32,missing=32
					31:[tBAM_ALT_NM<1.39999998] yes=41,no=42,missing=42
						41:leaf=0.3418369
						42:leaf=-0.127467945
					32:leaf=-0.193212628
				30:leaf=-0.264840186
booster[9]:
0:[VarDict_Score<18.5] yes=1,no=2,missing=1
	1:[if_Caller_0<1] yes=5,no=6,missing=6
		5:[if_VarDict<1] yes=7,no=8,missing=8
			7:leaf=-0.299957633
			8:[nBAM_REF_NM<0.0380623005] yes=27,no=28,missing=28
				27:[N_REF_FOR<204] yes=29,no=30,missing=30
					29:leaf=0.597801268
					30:leaf=-0.087576732
				28:[GC2CG<1] yes=43,no=44,missing=44
					43:leaf=-0.227672547
					44:leaf=0.240366444
		6:[T_ALT_REV<1] yes=23,no=24,missing=24
			23:leaf=-0.261179626
			24:[T_ALT_FOR<1] yes=25,no=26,missing=26
				25:leaf=-0.190647364
				26:[nBAM_ALT_BQ<29.8717995] yes=35,no=36,missing=36
					35:leaf=-0.248075798
					36:[Seq_Complexity_Adj<13.1983957] yes=41,no=42,missing=42
						41:leaf=-0.0407204665
						42:leaf=0.422580361
	2:[M2_TLOD<179.399994] yes=3,no=4,missing=4
		3:[T_ALT_REV<2] yes=13,no=14,missing=14
			13:leaf=-0.173193097
			14:[T_ALT_FOR<2] yes=15,no=16,missing=16
				15:leaf=-0.183670461
				16:[T_DP<146] yes=17,no=18,missing=18
					17:[tBAM_ALT_Discordant<3] yes=33,no=34,missing=34
						33:leaf=0.202158153
						34:leaf=-0.260471791
					18:[nBAM_REF_Clipped_Reads<12] yes=19,no=20,missing=20
						19:leaf=0.298536271
						20:leaf=-0.325512499
		4:[tBAM_p_MannWhitneyU_EndPos<0.172580004] yes=9,no=10,missing=10
			9:leaf=-0.209632203
			10:[tBAM_NM_Diff<0.986119986] yes=11,no=12,missing=12
				11:[tBAM_REF_NM<0.0827068016] yes=21,no=22,missing=22
					21:[tBAM_p_MannWhitneyU_BQ<0.560217977] yes=31,no=32,missing=32
						31:leaf=-0.148093745
						32:[T_REF_FOR<146] yes=45,no=46,missing=46
							45:leaf=0.051966127
							46:leaf=0.460977793
					22:leaf=-0.0436772667
				12:[Consistent_Mates<1] yes=37,no=38,missing=38
					37:[nBAM_REF_Discordant<30] yes=39,no=40,missing=40
						39:leaf=0.201674372
						40:leaf=-0.193532169
					38:leaf=-0.224790692
booster[10]:
0:[if_VarDict<1] yes=1,no=2,missing=2
	1:[tBAM_Other_Reads<15] yes=5,no=6,missing=6
		5:[tBAM_REF_Concordant<56] yes=19,no=20,missing=20
			19:[tBAM_ALT_NM<1.03999996] yes=41,no=42,missing=42
				41:leaf=0.370078385
				42:leaf=-0.264773905
			20:leaf=-0.294795066
		6:leaf=0.0533303656
	2:[tBAM_ALT_Concordant<4] yes=3,no=4,missing=4
		3:[tBAM_REF_Concordant<137] yes=17,no=18,missing=18
			17:[nBAM_REF_Discordant<7] yes=39,no=40,missing=40
				39:leaf=0.628402233
				40:leaf=-0.0575692244
			18:[Consistent_Mates<1] yes=45,no=46,missing=46
				45:leaf=-0.130920812
				46:leaf=-0.263362497
		4:[tBAM_ALT_BQ<30] yes=7,no=8,missing=8
			7:[T_REF_FOR<165] yes=21,no=22,missing=22
				21:leaf=-0.237974033
				22:[VarDict_Score<30.1800003] yes=23,no=24,missing=24
					23:leaf=-0.151152074
					24:[Seq_Complexity_Adj<13.343174] yes=35,no=36,missing=36
						35:leaf=-0.142378241
						36:leaf=0.371098727
			8:[T_ALT_REV<1] yes=9,no=10,missing=10
				9:leaf=-0.214168891
				10:[T_ALT_FOR<3] yes=11,no=12,missing=12
					11:[T_REF_REV<175] yes=15,no=16,missing=16
						15:[tBAM_REF_BQ<29.7726994] yes=43,no=44,missing=44
							43:leaf=-0.0533597171
							44:leaf=0.265425682
						16:leaf=-0.154173985
					12:[Consistent_Mates<1] yes=13,no=14,missing=14
						13:leaf=0.47573781
						14:[tBAM_REF_Concordant<156] yes=25,no=26,missing=26
							25:[tBAM_NM_Diff<0.949153006] yes=37,no=38,missing=38
								37:leaf=0.14248468
								38:leaf=-0.169100612
							26:[T_ALT_REV<4] yes=27,no=28,missing=28
								27:[N_REF_REV<577] yes=29,no=30,missing=30
									29:[T_REF_REV<174] yes=31,no=32,missing=32
										31:leaf=-0.0944445357
										32:[T_REF_FOR<224] yes=33,no=34,missing=34
											33:leaf=0.650868773
											34:leaf=0.00675323326
									30:leaf=-0.224542752
								28:leaf=0.27569744
booster[11]:
0:[if_VarDict<1] yes=1,no=2,missing=2
	1:[VarScan2_Score<63.8800011] yes=5,no=6,missing=6
		5:[M2_TLOD<4.11999989] yes=23,no=24,missing=24
			23:leaf=0.378289938
			24:[tBAM_Other_Reads<26] yes=41,no=42,missing=42
				41:[VarDict_Score<13.5799999] yes=43,no=44,missing=44
					43:[GC2CG<1] yes=45,no=46,missing=46
						45:leaf=-0.235441104
						46:leaf=0.531374753
					44:leaf=-0.303835601
				42:leaf=-0.00640070392
		6:leaf=0.0535555445
	2:[tBAM_ALT_Concordant<4] yes=3,no=4,missing=4
		3:[nBAM_REF_Discordant<10] yes=19,no=20,missing=20
			19:[nBAM_REF_Clipped_Reads<1] yes=35,no=36,missing=36
				35:[tBAM_NM_Diff<1.16145003] yes=37,no=38,missing=38
					37:leaf=0.49450931
					38:leaf=-0.188827634
				36:leaf=-0.145071104
			20:leaf=-0.196560621
		4:[tBAM_ALT_Discordant<10] yes=7,no=8,missing=8
			7:[tBAM_p_MannWhitneyU_EndPos<0.138775006] yes=9,no=10,missing=10
				9:[Consistent_Mates<2] yes=33,no=34,missing=34
					33:leaf=-0.189297542
					34:leaf=0.0388413258
				10:[tBAM_REF_Clipped_Reads<2] yes=11,no=12,missing=12
					11:[GC2CG<1] yes=15,no=16,missing=16
						15:[Seq_Complexity_Span<15.2538586] yes=17,no=18,missing=18
							17:[T_REF_REV<269] yes=25,no=26,missing=26
								25:[nBAM_REF_NM<0.0414200984] yes=27,no=28,missing=28
									27:leaf=0.372157276
									28:leaf=0.0345148183
								26:leaf=-0.190148443
							18:[tBAM_REF_Concordant<460] yes=21,no=22,missing=22
								21:[tBAM_Other_Reads<1] yes=29,no=30,missing=30
									29:[tBAM_REF_Discordant<10] yes=31,no=32,missing=32
										31:leaf=0.79125607
										32:leaf=0.2908476
									30:leaf=0.0284678992
								22:[nBAM_NM_Diff<0.939043999] yes=39,no=40,missing=39
									39:leaf=-0.166232198
									40:leaf=0.393832803
						16:leaf=0.415582955
					12:[Strelka_Score<9.21000004] yes=13,no=14,missing=13
						13:leaf=-0.193478301
						14:leaf=0.26413402
			8:leaf=-0.209800005
booster[12]:
0:[if_VarDict<1] yes=1,no=2,missing=2
	1:[VarScan2_Score<43.1599998] yes=5,no=6,missing=6
		5:[VarDict_Score<13.5799999] yes=21,no=22,missing=22
			21:[N_REF_REV<29] yes=23,no=24,missing=24
				23:leaf=0.228166163
				24:leaf=-0.215690419
			22:leaf=-0.298896253
		6:leaf=0.00928614195
	2:[if_VarScan2<1] yes=3,no=4,missing=4
		3:[tBAM_ALT_MQ<38] yes=25,no=26,missing=26
			25:[nBAM_p_MannWhitneyU_BQ<0.67574501] yes=41,no=42,missing=42
				41:leaf=-0.216823265
				42:leaf=0.469510227
			26:leaf=-0.230233029
		4:[nBAM_REF_Discordant<37] yes=7,no=8,missing=8
			7:[nBAM_REF_NM<0.0623557009] yes=9,no=10,missing=10
				9:[Seq_Complexity_Adj<13.4929457] yes=11,no=12,missing=12
					11:leaf=-0.0633249357
					12:[T_REF_FOR<98] yes=13,no=14,missing=14
						13:leaf=-0.0743284523
						14:[nBAM_REF_BQ<29.9591007] yes=17,no=18,missing=18
							17:[tBAM_NM_Diff<1.49442005] yes=19,no=20,missing=20
								19:[SiteHomopolymer_Length<4] yes=35,no=36,missing=36
									35:[T_DP<575] yes=37,no=38,missing=38
										37:[Consistent_Mates<1] yes=45,no=46,missing=46
											45:leaf=0.429074794
											46:leaf=0.176690817
										38:leaf=-0.105950102
									36:leaf=0.513148725
								20:leaf=-0.120680958
							18:leaf=-0.0794915333
				10:[M2_TLOD<118.720001] yes=27,no=28,missing=28
					27:[T_ALT_REV<2] yes=39,no=40,missing=40
						39:leaf=-0.198718354
						40:leaf=0.159040391
					28:[nBAM_REF_Discordant<8] yes=29,no=30,missing=30
						29:[Seq_Complexity_Span<15.4886694] yes=31,no=32,missing=32
							31:leaf=-0.0871794149
							32:leaf=0.718995571
						30:leaf=-0.140742749
			8:[tBAM_p_MannWhitneyU_MQ<0.619134009] yes=15,no=16,missing=15
				15:[VarScan2_Score<32.9700012] yes=33,no=34,missing=34
					33:leaf=-0.223509967
					34:[tBAM_StrandBias_FET<0.930000007] yes=43,no=44,missing=44
						43:leaf=-0.0835773945
						44:leaf=0.316875607
				16:leaf=0.372814655
booster[13]:
0:[if_VarDict<1] yes=1,no=2,missing=2
	1:[tBAM_Other_Reads<9] yes=3,no=4,missing=4
		3:[VarDict_Score<13.5799999] yes=11,no=12,missing=12
			11:[T_DP<337] yes=15,no=16,missing=16
				15:[tBAM_p_MannWhitneyU_EndPos<0.309233993] yes=35,no=36,missing=36
					35:leaf=-0.197092235
					36:[nBAM_REF_BQ<29.9223003] yes=37,no=38,missing=37
						37:leaf=-0.115286537
						38:[T_REF_FOR<168] yes=39,no=40,missing=40
							39:leaf=0.0478796773
							40:leaf=0.840916932
				16:[tBAM_p_MannWhitneyU_MQ<0.641261995] yes=27,no=28,missing=27
					27:leaf=-0.263471514
					28:leaf=0.407164603
			12:[VarScan2_Score<85.4599991] yes=13,no=14,missing=14
				13:leaf=-0.299258828
				14:leaf=0.0371214561
		4:[Seq_Complexity_Adj<13.6480675] yes=41,no=42,missing=42
			41:leaf=-0.124969013
			42:leaf=0.220360488
	2:[VarScan2_Score<14.9799995] yes=5,no=6,missing=6
		5:[T_DP<395] yes=33,no=34,missing=34
			33:leaf=-0.0634085536
			34:leaf=-0.232160717
		6:[tBAM_ALT_NM<1.03999996] yes=7,no=8,missing=8
			7:[nBAM_REF_Discordant<39] yes=9,no=10,missing=10
				9:[Seq_Complexity_Adj<13.7277565] yes=29,no=30,missing=30
					29:leaf=0.0165939312
					30:leaf=0.175578058
				10:[VarScan2_Score<63.8800011] yes=45,no=46,missing=46
					45:leaf=-0.13504979
					46:leaf=0.21776934
			8:[M2_TLOD<349.390015] yes=17,no=18,missing=17
				17:[T_ALT_FOR<3] yes=19,no=20,missing=20
					19:[tBAM_REF_NM<0.0534188002] yes=43,no=44,missing=44
						43:leaf=0.198810533
						44:leaf=-0.186833784
					20:[tBAM_REF_Concordant<156] yes=21,no=22,missing=22
						21:[tBAM_REF_NM<0.263157994] yes=25,no=26,missing=25
							25:leaf=-0.252893418
							26:leaf=0.15136677
						22:[T_ALT_REV<1] yes=23,no=24,missing=24
							23:leaf=-0.187167928
							24:[nBAM_REF_Clipped_Reads<4] yes=31,no=32,missing=32
								31:leaf=0.218463644
								32:leaf=-0.166462004
				18:leaf=-0.291418314
booster[14]:
0:[tBAM_ALT_BQ<26.6667004] yes=1,no=2,missing=1
	1:leaf=-0.29257831
	2:[VarScan2_Score<16.5900002] yes=3,no=4,missing=4
		3:[GC2CG<1] yes=7,no=8,missing=8
			7:[T_DP<238] yes=9,no=10,missing=10
				9:[tBAM_p_MannWhitneyU_EndPos<0.0864631981] yes=31,no=32,missing=32
					31:leaf=-0.241354942
					32:[T_DP<226] yes=39,no=40,missing=40
						39:[M2_TLOD<7.32999992] yes=43,no=44,missing=44
							43:leaf=0.392510921
							44:leaf=-0.0663266256
						40:[tBAM_REF_NM<0.0579710007] yes=41,no=42,missing=42
							41:leaf=0.856571257
							42:leaf=0.0224513896
				10:leaf=-0.193251491
			8:[nBAM_REF_BQ<29.9076004] yes=33,no=34,missing=34
				33:leaf=-0.0406271294
				34:leaf=0.646896005
		4:[tBAM_p_MannWhitneyU_EndPos<0.0502724014] yes=5,no=6,missing=5
			5:leaf=-0.157449573
			6:[Inconsistent_Mates<1] yes=11,no=12,missing=12
				11:[tBAM_ALT_Discordant<5] yes=13,no=14,missing=14
					13:[nBAM_REF_Discordant<42] yes=15,no=16,missing=16
						15:[tBAM_ALT_NM<1.75] yes=17,no=18,missing=18
							17:[tBAM_REF_Clipped_Reads<3] yes=21,no=22,missing=22
								21:[MSI<2] yes=23,no=24,missing=24
									23:leaf=0.0329412296
									24:[SHIFT3<1] yes=27,no=28,missing=28
										27:[tBAM_Other_Reads<1] yes=45,no=46,missing=46
											45:leaf=0.180624411
											46:leaf=-0.0706849843
										28:[T_ALT_REV<1] yes=35,no=36,missing=36
											35:leaf=-0.134810284
											36:[T_ALT_FOR<1] yes=37,no=38,missing=38
												37:leaf=-0.06864167
												38:leaf=0.438610464
								22:leaf=-0.141387865
							18:leaf=-0.16760987
						16:[N_REF_FOR<897] yes=25,no=26,missing=26
							25:leaf=-0.222096711
							26:[Seq_Complexity_Span<14.8192015] yes=29,no=30,missing=30
								29:leaf=-0.233128414
								30:leaf=0.282310784
					14:[tBAM_REF_Discordant<30] yes=19,no=20,missing=20
						19:leaf=-0.218893692
						20:leaf=0.102932565
				12:leaf=0.256630659
booster[15]:
0:[tBAM_ALT_BQ<26.6667004] yes=1,no=2,missing=1
	1:leaf=-0.288180798
	2:[tBAM_p_MannWhitneyU_EndPos<0.104152001] yes=3,no=4,missing=3
		3:[Consistent_Mates<2] yes=11,no=12,missing=12
			11:leaf=-0.210099354
			12:leaf=0.044780001
		4:[GC2CG<1] yes=5,no=6,missing=6
			5:[tBAM_ALT_Concordant<4] yes=7,no=8,missing=8
				7:[T_DP<337] yes=9,no=10,missing=10
					9:[tBAM_REF_Concordant<56] yes=31,no=32,missing=32
						31:leaf=0.330187052
						32:[Seq_Complexity_Span<14.8192015] yes=33,no=34,missing=34
							33:leaf=-0.114024386
							34:[tBAM_REF_BQ<29.5981998] yes=35,no=36,missing=36
								35:leaf=0.485917807
								36:[tBAM_p_MannWhitneyU_BQ<0.569379985] yes=37,no=38,missing=38
									37:[nBAM_REF_BQ<29.9461994] yes=39,no=40,missing=40
										39:[tBAM_ALT_NM<1.02326] yes=41,no=42,missing=42
											41:[T_REF_REV<106] yes=43,no=44,missing=44
												43:leaf=-0.0490008332
												44:leaf=0.984166443
											42:leaf=-0.185014635
										40:leaf=-0.219557032
									38:leaf=-0.13134031
					10:leaf=-0.176975146
				8:[tBAM_ALT_Discordant<16] yes=13,no=14,missing=14
					13:[T_ALT_REV<1] yes=15,no=16,missing=16
						15:leaf=-0.164546981
						16:[T_ALT_FOR<1] yes=17,no=18,missing=18
							17:leaf=-0.155088514
							18:[Consistent_Mates<1] yes=19,no=20,missing=20
								19:[tBAM_REF_NM<0.201400995] yes=45,no=46,missing=45
									45:leaf=0.433426797
									46:leaf=-0.00791100413
								20:[tBAM_ALT_Concordant<7] yes=21,no=22,missing=22
									21:[nBAM_REF_Discordant<24] yes=25,no=26,missing=26
										25:[Seq_Complexity_Span<15.6110134] yes=27,no=28,missing=28
											27:leaf=-0.0483739562
											28:leaf=0.430332512
										26:leaf=-0.189958304
									22:[T_REF_FOR<87] yes=23,no=24,missing=24
										23:[T_ALT_FOR<38] yes=29,no=30,missing=30
											29:leaf=0.0798322782
											30:leaf=-0.260653734
										24:leaf=0.209586307
					14:leaf=-0.257456779
			6:leaf=0.253306061
booster[16]:
0:[tBAM_p_MannWhitneyU_BQ<0.000568335003] yes=1,no=2,missing=1
	1:leaf=-0.282112151
	2:[if_VarDict<1] yes=3,no=4,missing=4
		3:[nBAM_REF_Discordant<29] yes=23,no=24,missing=24
			23:[tBAM_p_MannWhitneyU_EndPos<0.104152001] yes=25,no=26,missing=26
				25:leaf=-0.243507043
				26:[N_REF_REV<625] yes=27,no=28,missing=28
					27:leaf=-0.0485075228
					28:[tBAM_NM_Diff<1.20560002] yes=29,no=30,missing=30
						29:leaf=0.654908121
						30:leaf=-0.0812151656
			24:leaf=-0.238894314
		4:[Consistent_Mates<1] yes=5,no=6,missing=6
			5:[tBAM_ALT_Concordant<7] yes=9,no=10,missing=10
				9:[tBAM_ALT_Concordant<3] yes=11,no=12,missing=12
					11:[T_REF_REV<49] yes=45,no=46,missing=46
						45:leaf=0.345243305
						46:leaf=-0.267272204
					12:[T_ALT_REV<1] yes=15,no=16,missing=16
						15:leaf=-0.0207630899
						16:[T_ALT_FOR<1] yes=17,no=18,missing=18
							17:[Seq_Complexity_Span<14.9238558] yes=35,no=36,missing=36
								35:leaf=-0.105661884
								36:[tBAM_ALT_Concordant<5] yes=37,no=38,missing=38
									37:leaf=0.510243118
									38:leaf=-0.112214252
							18:[tBAM_ALT_NM<1.25] yes=31,no=32,missing=32
								31:leaf=0.461000085
								32:leaf=0.0824504793
				10:leaf=-0.139596373
			6:[tBAM_ALT_Concordant<5] yes=7,no=8,missing=8
				7:[nBAM_REF_NM<0.0380623005] yes=19,no=20,missing=20
					19:[tBAM_p_MannWhitneyU_BQ<0.585394025] yes=21,no=22,missing=22
						21:leaf=0.51860249
						22:leaf=-0.222366259
					20:[T_REF_FOR<176] yes=39,no=40,missing=40
						39:[tBAM_REF_BQ<29.9482994] yes=41,no=42,missing=42
							41:[T_ALT_FOR<3] yes=43,no=44,missing=44
								43:leaf=-0.202548236
								44:leaf=0.227388978
							42:leaf=0.166048527
						40:leaf=-0.2725178
				8:[tBAM_ALT_NM<1.02326] yes=13,no=14,missing=14
					13:leaf=0.147750035
					14:[tBAM_REF_Discordant<22] yes=33,no=34,missing=34
						33:leaf=-0.128475964
						34:leaf=0.0754109472
booster[17]:
0:[tBAM_ALT_BQ<26.6667004] yes=1,no=2,missing=1
	1:leaf=-0.277030766
	2:[tBAM_p_MannWhitneyU_EndPos<0.0230455007] yes=3,no=4,missing=3
		3:[T_ALT_REV<4] yes=35,no=36,missing=36
			35:leaf=-0.269689053
			36:leaf=-0.0293431114
		4:[nBAM_REF_Discordant<17] yes=5,no=6,missing=6
			5:[MSI<4] yes=9,no=10,missing=9
				9:[nBAM_REF_Clipped_Reads<2] yes=37,no=38,missing=38
					37:[T_ALT_FOR<34] yes=41,no=42,missing=42
						41:[T_DP<511] yes=43,no=44,missing=44
							43:[tBAM_NM_Diff<1.07806003] yes=45,no=46,missing=45
								45:leaf=0.162096977
								46:leaf=-0.0292761791
							44:leaf=-0.178302914
						42:leaf=-0.123223357
					38:leaf=-0.124297865
				10:[nBAM_REF_BQ<29.8481998] yes=11,no=12,missing=11
					11:leaf=-0.221017942
					12:[Seq_Complexity_Span<13.5698137] yes=27,no=28,missing=28
						27:leaf=0.0205334537
						28:[VarScan2_Score<19.0200005] yes=39,no=40,missing=40
							39:leaf=0.925034046
							40:leaf=0.239158854
			6:[VarScan2_Score<11.2200003] yes=7,no=8,missing=8
				7:leaf=-0.204934642
				8:[nBAM_REF_NM<0.0635837987] yes=13,no=14,missing=14
					13:[tBAM_p_MannWhitneyU_MQ<0.540710986] yes=15,no=16,missing=15
						15:[nBAM_REF_Discordant<37] yes=17,no=18,missing=18
							17:[tBAM_REF_BQ<29.7036991] yes=19,no=20,missing=20
								19:[tBAM_Other_Reads<1] yes=21,no=22,missing=22
									21:[VarDict_Score<16.6200008] yes=23,no=24,missing=24
										23:[T_DP<372] yes=31,no=32,missing=32
											31:leaf=0.935055733
											32:leaf=0.0830653533
										24:leaf=0.198909551
									22:leaf=-0.0100682303
								20:leaf=-0.0149535816
							18:[N_REF_FOR<329] yes=25,no=26,missing=26
								25:leaf=0.225921676
								26:[VarScan2_Score<32.9700012] yes=29,no=30,missing=30
									29:leaf=-0.248234123
									30:leaf=0.0147008458
						16:leaf=0.405702829
					14:[tBAM_NM_Diff<0.65654999] yes=33,no=34,missing=34
						33:leaf=0.154274255
						34:leaf=-0.138530582
booster[18]:
0:[tBAM_p_MannWhitneyU_BQ<1.14041995e-06] yes=1,no=2,missing=2
	1:leaf=-0.28756693
	2:[T_ALT_FOR<1] yes=3,no=4,missing=4
		3:leaf=-0.146369666
		4:[T_ALT_REV<1] yes=5,no=6,missing=6
			5:[T_REF_FOR<99] yes=17,no=18,missing=18
				17:[Seq_Complexity_Adj<13.1983957] yes=45,no=46,missing=46
					45:leaf=0.3593072
					46:leaf=-0.146401808
				18:leaf=-0.172031164
			6:[Consistent_Mates<1] yes=7,no=8,missing=8
				7:[tBAM_p_MannWhitneyU_EndPos<0.397675008] yes=11,no=12,missing=11
					11:leaf=-0.00274116127
					12:[tBAM_NM_Diff<1.19575] yes=13,no=14,missing=13
						13:[Seq_Complexity_Span<12.0207949] yes=19,no=20,missing=20
							19:leaf=-0.225394681
							20:[SHIFT3<1] yes=23,no=24,missing=23
								23:[VarScan2_Score<10.6099997] yes=41,no=42,missing=42
									41:leaf=-0.152711213
									42:leaf=0.35209471
								24:[nBAM_REF_Discordant<40] yes=25,no=26,missing=26
									25:leaf=0.779283941
									26:leaf=-0.036193192
						14:leaf=-0.0557106622
				8:[tBAM_ALT_Concordant<5] yes=9,no=10,missing=10
					9:[T_REF_FOR<176] yes=21,no=22,missing=22
						21:[SiteHomopolymer_Length<4] yes=39,no=40,missing=40
							39:leaf=-0.0989000797
							40:leaf=0.182205677
						22:leaf=-0.242967576
					10:[tBAM_ALT_Discordant<14] yes=15,no=16,missing=16
						15:[tBAM_REF_Discordant<20] yes=27,no=28,missing=28
							27:[VarScan2_Score<568.309998] yes=29,no=30,missing=30
								29:[Strelka_Score<5.88000011] yes=43,no=44,missing=44
									43:leaf=-0.178972408
									44:leaf=0.0907134414
								30:leaf=-0.204609245
							28:[tBAM_REF_Clipped_Reads<5] yes=31,no=32,missing=32
								31:[tBAM_ALT_Concordant<7] yes=33,no=34,missing=34
									33:[tBAM_StrandBias_FET<0.720000029] yes=35,no=36,missing=36
										35:[tBAM_REF_NM<0.0874999985] yes=37,no=38,missing=38
											37:leaf=0.311607361
											38:leaf=-0.0799784362
										36:leaf=-0.292637765
									34:leaf=0.235137388
								32:leaf=-0.178917229
						16:leaf=-0.216930777
booster[19]:
0:[tBAM_p_MannWhitneyU_BQ<3.93358988e-07] yes=1,no=2,missing=2
	1:leaf=-0.286351681
	2:[VarScan2_Score<7.67000008] yes=3,no=4,missing=4
		3:leaf=-0.198343351
		4:[nBAM_REF_Discordant<17] yes=5,no=6,missing=6
			5:[tBAM_REF_Discordant<3] yes=31,no=32,missing=32
				31:leaf=-0.179622844
				32:leaf=0.0744569674
			6:[Seq_Complexity_Adj<13.4174147] yes=7,no=8,missing=8
				7:leaf=-0.123362057
				8:[tBAM_NM_Diff<0.603686988] yes=9,no=10,missing=10
					9:[Seq_Complexity_Adj<15.0310946] yes=27,no=28,missing=28
						27:leaf=0.0898907855
						28:leaf=0.772436321
					10:[T_ALT_FOR<3] yes=11,no=12,missing=12
						11:[Consistent_Mates<1] yes=13,no=14,missing=14
							13:[if_VarDict<1] yes=15,no=16,missing=16
								15:[tBAM_StrandBias_FET<0.620000005] yes=17,no=18,missing=18
									17:leaf=-0.213887379
									18:[tBAM_REF_NM<0.0895522013] yes=19,no=20,missing=20
										19:[tBAM_NM_Diff<0.944862008] yes=33,no=34,missing=34
											33:leaf=0.755615532
											34:leaf=-0.0338713489
										20:leaf=-0.132281587
								16:[tBAM_REF_NM<0.206044003] yes=21,no=22,missing=22
									21:[Strelka_Score<6.9000001] yes=23,no=24,missing=24
										23:leaf=-0.169184148
										24:[tBAM_p_MannWhitneyU_EndPos<0.114855997] yes=25,no=26,missing=26
											25:leaf=-0.242023095
											26:[Seq_Complexity_Adj<15.4886694] yes=29,no=30,missing=30
												29:leaf=0.342716187
												30:leaf=-0.220514014
									22:leaf=-0.253320128
							14:leaf=-0.181675196
						12:[M2_TLOD<450.029999] yes=35,no=36,missing=35
							35:[T_ALT_REV<3] yes=37,no=38,missing=38
								37:[nBAM_REF_NM<0.0578680001] yes=41,no=42,missing=42
									41:[VarScan2_Score<24.8199997] yes=43,no=44,missing=44
										43:[nBAM_REF_BQ<29.9417] yes=45,no=46,missing=46
											45:leaf=0.380130082
											46:leaf=-0.20871906
										44:leaf=-0.047486674
									42:leaf=-0.196025684
								38:[tBAM_REF_Concordant<156] yes=39,no=40,missing=40
									39:leaf=-0.0506117977
									40:leaf=0.262855828
							36:leaf=-0.199797764
booster[20]:
0:[tBAM_p_MannWhitneyU_BQ<3.93358988e-07] yes=1,no=2,missing=2
	1:leaf=-0.279925644
	2:[tBAM_ALT_NM<2] yes=3,no=4,missing=4
		3:[nBAM_p_MannWhitneyU_EndPos<0.0828498974] yes=5,no=6,missing=6
			5:leaf=-0.254292727
			6:[nBAM_p_MannWhitneyU_EndPos<0.204118997] yes=7,no=8,missing=8
				7:[nBAM_StrandBias_FET<0.569999993] yes=9,no=10,missing=10
					9:[MSI<2] yes=11,no=12,missing=11
						11:leaf=0.704634309
						12:leaf=-0.0886267573
					10:leaf=-0.0639691427
				8:[nBAM_StrandBias_FET<1] yes=13,no=14,missing=14
					13:leaf=-0.231952384
					14:[T_ALT_FOR<1] yes=15,no=16,missing=16
						15:[tBAM_REF_NM<0.610108018] yes=17,no=18,missing=18
							17:leaf=-0.130228952
							18:leaf=0.337000489
						16:[T_ALT_REV<1] yes=19,no=20,missing=20
							19:[MSI<4] yes=21,no=22,missing=21
								21:[T_REF_FOR<134] yes=27,no=28,missing=28
									27:[tBAM_p_MannWhitneyU_EndPos<0.694739997] yes=35,no=36,missing=36
										35:leaf=-0.0770650208
										36:[nBAM_REF_Discordant<9] yes=37,no=38,missing=38
											37:leaf=-0.104637139
											38:leaf=0.5151847
									28:[tBAM_REF_Discordant<5] yes=29,no=30,missing=30
										29:leaf=0.334240228
										30:[tBAM_REF_MQ<59.6185989] yes=39,no=40,missing=40
											39:leaf=0.22004737
											40:leaf=-0.232228771
								22:[nBAM_REF_NM<0.0649351031] yes=31,no=32,missing=32
									31:leaf=-0.0714982301
									32:leaf=0.649441302
							20:[Consistent_Mates<1] yes=23,no=24,missing=24
								23:leaf=0.160978392
								24:[Inconsistent_Mates<1] yes=25,no=26,missing=26
									25:[nBAM_p_MannWhitneyU_BQ<0.530236006] yes=33,no=34,missing=34
										33:[nBAM_NM_Diff<0.958405972] yes=41,no=42,missing=42
											41:leaf=0.44244355
											42:leaf=-0.0954328701
										34:[tBAM_StrandBias_FET<0.100000001] yes=43,no=44,missing=44
											43:leaf=0.116454743
											44:leaf=-0.0425341949
									26:leaf=0.280876368
		4:[if_LoFreq<1] yes=45,no=46,missing=46
			45:leaf=-0.191843241
			46:leaf=0.120965756
booster[21]:
0:[tBAM_ALT_BQ<22] yes=1,no=2,missing=1
	1:leaf=-0.29064101
	2:[tBAM_REF_Clipped_Reads<4] yes=3,no=4,missing=4
		3:[tBAM_NM_Diff<1.21539998] yes=5,no=6,missing=6
			5:[SiteHomopolymer_Length<4] yes=9,no=10,missing=10
				9:[N_REF_REV<968] yes=11,no=12,missing=12
					11:[VarScan2_Score<18.2800007] yes=33,no=34,missing=34
						33:[nBAM_REF_NM<0.0593749993] yes=35,no=36,missing=36
							35:[T_DP<363] yes=37,no=38,missing=38
								37:[nBAM_REF_BQ<29.9633007] yes=39,no=40,missing=40
									39:leaf=0.249663889
									40:leaf=-0.150477365
								38:[tBAM_p_MannWhitneyU_BQ<0.631707013] yes=43,no=44,missing=44
									43:leaf=-0.183117583
									44:[N_REF_REV<541] yes=45,no=46,missing=46
										45:leaf=-0.201600328
										46:leaf=0.411400944
							36:leaf=-0.163155943
						34:[VarDict_Score<18.3400002] yes=41,no=42,missing=42
							41:leaf=0.531480193
							42:leaf=0.027618045
					12:leaf=-0.268396735
				10:[N_REF_REV<1094] yes=13,no=14,missing=14
					13:[nBAM_REF_Discordant<34] yes=15,no=16,missing=16
						15:[VarDict_Score<23.7399998] yes=17,no=18,missing=17
							17:[MSI<2] yes=19,no=20,missing=20
								19:leaf=0.0126746045
								20:[tBAM_p_MannWhitneyU_BQ<0.625163972] yes=21,no=22,missing=22
									21:[tBAM_StrandBias_FET<0.25999999] yes=23,no=24,missing=24
										23:leaf=0.813367426
										24:leaf=0.252327085
									22:leaf=-0.0514766909
							18:leaf=0.00521449232
						16:leaf=-0.167266756
					14:leaf=0.465698779
			6:[tBAM_ALT_Concordant<4] yes=7,no=8,missing=8
				7:leaf=-0.196111888
				8:[VarDict_Score<21.1000004] yes=25,no=26,missing=26
					25:[T_REF_REV<170] yes=27,no=28,missing=28
						27:leaf=0.547321379
						28:leaf=-0.213806152
					26:[N_REF_REV<364] yes=29,no=30,missing=30
						29:leaf=-0.210274532
						30:[tBAM_StrandBias_FET<0.189999998] yes=31,no=32,missing=32
							31:leaf=0.306225359
							32:leaf=-0.0565389618
		4:leaf=-0.171642318
booster[22]:
0:[tBAM_ALT_BQ<22] yes=1,no=2,missing=1
	1:leaf=-0.287417114
	2:[tBAM_p_MannWhitneyU_EndPos<0.0230455007] yes=3,no=4,missing=3
		3:[T_ALT_REV<4] yes=31,no=32,missing=32
			31:leaf=-0.244304225
			32:leaf=1.55823545e-06
		4:[GC2CG<1] yes=5,no=6,missing=6
			5:[nBAM_REF_NM<0.0372413993] yes=7,no=8,missing=8
				7:[N_REF_FOR<484] yes=9,no=10,missing=10
					9:[T_REF_FOR<120] yes=11,no=12,missing=12
						11:leaf=0.0355240963
						12:[tBAM_p_MannWhitneyU_EndPos<0.847759008] yes=19,no=20,missing=20
							19:[tBAM_StrandBias_FET<0.50999999] yes=21,no=22,missing=22
								21:leaf=0.128957242
								22:leaf=0.772892892
							20:leaf=-0.0530403815
					10:leaf=-0.18428044
				8:[VarScan2_Score<8.42000008] yes=13,no=14,missing=14
					13:leaf=-0.173341647
					14:[nBAM_NM_Diff<3.95286989] yes=23,no=24,missing=23
						23:[nBAM_REF_Discordant<13] yes=25,no=26,missing=26
							25:[N_DP<701] yes=27,no=28,missing=28
								27:leaf=0.0129586775
								28:[tBAM_StrandBias_FET<0.569999993] yes=45,no=46,missing=46
									45:leaf=0.0846795663
									46:leaf=0.490421802
							26:[nBAM_MQ0<1] yes=29,no=30,missing=30
								29:[tBAM_NM_Diff<0.65654999] yes=33,no=34,missing=34
									33:[Seq_Complexity_Adj<13.9759922] yes=37,no=38,missing=38
										37:leaf=-0.0682388023
										38:[Seq_Complexity_Span<15.1410484] yes=39,no=40,missing=40
											39:leaf=0.562838733
											40:leaf=-0.102644265
									34:[tBAM_p_MannWhitneyU_BQ<0.853380024] yes=35,no=36,missing=36
										35:[Seq_Complexity_Adj<15.1410484] yes=41,no=42,missing=42
											41:[Seq_Complexity_Span<15.8665552] yes=43,no=44,missing=44
												43:leaf=-0.0689012781
												44:leaf=0.074245818
											42:leaf=-0.210728586
										36:leaf=0.140511394
								30:leaf=0.269613475
						24:leaf=0.443010181
			6:[nBAM_p_MannWhitneyU_MQ<2.00001001] yes=15,no=16,missing=16
				15:leaf=-0.216957077
				16:[M2_TLOD<70.1699982] yes=17,no=18,missing=17
					17:leaf=0.379334778
					18:leaf=-0.0583610125
booster[23]:
0:[tBAM_ALT_BQ<22] yes=1,no=2,missing=1
	1:leaf=-0.283316851
	2:[tBAM_p_MannWhitneyU_EndPos<0.00388262002] yes=3,no=4,missing=3
		3:leaf=-0.183000669
		4:[tBAM_Other_Reads<80] yes=5,no=6,missing=6
			5:[tBAM_p_MannWhitneyU_EndPos<0.998939991] yes=7,no=8,missing=8
				7:[nBAM_REF_BQ<29.9591007] yes=9,no=10,missing=10
					9:[nBAM_REF_BQ<29.9211998] yes=13,no=14,missing=14
						13:[Seq_Complexity_Span<14.5195694] yes=21,no=22,missing=22
							21:[tBAM_Concordance_FET<0.889999986] yes=39,no=40,missing=40
								39:leaf=0.0165476929
								40:leaf=-0.138734564
							22:[tBAM_REF_BQ<29.5228996] yes=23,no=24,missing=24
								23:[tBAM_REF_Discordant<7] yes=25,no=26,missing=26
									25:leaf=-0.237987921
									26:[tBAM_ALT_BQ<27.5] yes=33,no=34,missing=34
										33:leaf=-0.177891344
										34:[tBAM_REF_NM<0.213303] yes=35,no=36,missing=36
											35:[T_REF_FOR<307] yes=43,no=44,missing=44
												43:leaf=0.509828568
												44:leaf=-0.0177021977
											36:leaf=-0.0211039204
								24:[nBAM_REF_BQ<29.9102001] yes=45,no=46,missing=46
									45:leaf=0.0224027485
									46:leaf=-0.182748467
						14:[nBAM_NM_Diff<1.92738998] yes=15,no=16,missing=16
							15:leaf=-0.197301194
							16:[nBAM_REF_BQ<29.9242001] yes=17,no=18,missing=18
								17:[N_REF_REV<488] yes=19,no=20,missing=20
									19:leaf=0.631070256
									20:leaf=-0.0892579705
								18:[tBAM_p_MannWhitneyU_EndPos<0.803453982] yes=27,no=28,missing=28
									27:leaf=0.0155615443
									28:[tBAM_REF_Discordant<33] yes=29,no=30,missing=30
										29:[VarDict_Score<11.9200001] yes=31,no=32,missing=31
											31:[T_ALT_FOR<1] yes=37,no=38,missing=38
												37:leaf=-0.00348481559
												38:leaf=0.748473167
											32:[T_REF_FOR<269] yes=41,no=42,missing=42
												41:leaf=0.0538750701
												42:leaf=0.522109807
										30:leaf=-0.0230038371
					10:[tBAM_Concordance_FET<0.870000005] yes=11,no=12,missing=12
						11:leaf=0.126875266
						12:leaf=-0.165694252
				8:leaf=-0.206591845
			6:leaf=0.33588621
booster[24]:
0:[tBAM_p_MannWhitneyU_BQ<1.58043001e-09] yes=1,no=2,missing=2
	1:leaf=-0.277993083
	2:[tBAM_ALT_NM<1.81817997] yes=3,no=4,missing=4
		3:[tBAM_Other_Reads<26] yes=5,no=6,missing=6
			5:[tBAM_Other_Reads<1] yes=7,no=8,missing=8
				7:[T_ALT_REV<3] yes=17,no=18,missing=18
					17:[tBAM_p_MannWhitneyU_EndPos<0.0265542995] yes=25,no=26,missing=26
						25:leaf=-0.252918601
						26:[tBAM_REF_Discordant<16] yes=27,no=28,missing=28
							27:[MSI<2] yes=33,no=34,missing=33
								33:leaf=-0.0396295488
								34:[if_LoFreq<1] yes=35,no=36,missing=36
									35:[N_DP<1088] yes=37,no=38,missing=38
										37:[N_DP<576] yes=39,no=40,missing=40
											39:[Seq_Complexity_Adj<12.3010817] yes=43,no=44,missing=44
												43:leaf=0.353117973
												44:leaf=-0.104851685
											40:[Seq_Complexity_Adj<14.7170095] yes=41,no=42,missing=42
												41:leaf=0.579860151
												42:leaf=-0.100864813
										38:leaf=-0.119620368
									36:leaf=-0.304369837
							28:[VarDict_Score<17.6200008] yes=29,no=30,missing=30
								29:leaf=-0.108501814
								30:[nBAM_REF_NM<0.0368097983] yes=31,no=32,missing=32
									31:leaf=0.448144257
									32:leaf=0.00399865536
					18:[tBAM_REF_Discordant<15] yes=19,no=20,missing=20
						19:[tBAM_ALT_BQ<27.5] yes=21,no=22,missing=22
							21:leaf=0.540792286
							22:[tBAM_NM_Diff<1.42429996] yes=45,no=46,missing=45
								45:leaf=-0.112784617
								46:leaf=0.343804717
						20:[T_REF_REV<344] yes=23,no=24,missing=24
							23:leaf=0.157468334
							24:leaf=-0.141311854
				8:[Seq_Complexity_Adj<13.6480675] yes=9,no=10,missing=10
					9:leaf=-0.191696376
					10:[nBAM_REF_Discordant<70] yes=11,no=12,missing=12
						11:[T_ALT_FOR<2] yes=13,no=14,missing=14
							13:leaf=-0.188490048
							14:[T_REF_FOR<123] yes=15,no=16,missing=16
								15:leaf=-0.195655823
								16:leaf=0.111780472
						12:leaf=0.417434812
			6:leaf=0.263021886
		4:leaf=-0.114031948
booster[25]:
0:[tBAM_ALT_BQ<22] yes=1,no=2,missing=1
	1:leaf=-0.272711605
	2:[VarScan2_Score<812.390015] yes=3,no=4,missing=4
		3:[Strelka_Score<10.3599997] yes=5,no=6,missing=5
			5:[nBAM_p_MannWhitneyU_EndPos<0.0828498974] yes=11,no=12,missing=12
				11:leaf=-0.24962835
				12:[nBAM_p_MannWhitneyU_EndPos<0.204118997] yes=13,no=14,missing=14
					13:[T_REF_FOR<112] yes=21,no=22,missing=22
						21:leaf=-0.173552573
						22:leaf=0.300969511
					14:[nBAM_REF_Discordant<43] yes=15,no=16,missing=16
						15:[T_REF_FOR<138] yes=23,no=24,missing=24
							23:[nBAM_REF_BQ<29.7602005] yes=25,no=26,missing=25
								25:leaf=-0.169230118
								26:[nBAM_REF_BQ<29.9468994] yes=31,no=32,missing=32
									31:[nBAM_REF_Discordant<30] yes=33,no=34,missing=34
										33:[N_REF_FOR<212] yes=35,no=36,missing=36
											35:[N_DP<633] yes=39,no=40,missing=40
												39:leaf=0.108683087
												40:leaf=-0.221692115
											36:[tBAM_REF_NM<0.0827068016] yes=37,no=38,missing=38
												37:leaf=0.512824833
												38:leaf=0.125336573
										34:leaf=-0.0858341902
									32:leaf=-0.0450997986
							24:[N_DP<576] yes=27,no=28,missing=28
								27:[tBAM_REF_NM<0.0337079018] yes=41,no=42,missing=42
									41:leaf=0.17411378
									42:leaf=-0.207427308
								28:[nBAM_REF_Discordant<10] yes=29,no=30,missing=30
									29:leaf=0.2678653
									30:[nBAM_REF_BQ<29.8390007] yes=43,no=44,missing=44
										43:leaf=0.10633681
										44:[nBAM_REF_BQ<29.9062996] yes=45,no=46,missing=46
											45:leaf=-0.155034497
											46:leaf=0.0185944419
						16:[tBAM_p_MannWhitneyU_MQ<0.619134009] yes=17,no=18,missing=18
							17:[nBAM_REF_Concordant<1994] yes=19,no=20,missing=20
								19:leaf=-0.236005574
								20:leaf=0.108244903
							18:leaf=0.3626616
			6:[tBAM_NM_Diff<0.986119986] yes=7,no=8,missing=8
				7:leaf=0.225631341
				8:leaf=-0.0451866537
		4:[M2_NLOD<343.109985] yes=9,no=10,missing=9
			9:leaf=-0.224153563
			10:leaf=0.150792032
booster[26]:
0:[tBAM_p_MannWhitneyU_BQ<3.93358988e-07] yes=1,no=2,missing=2
	1:leaf=-0.230913535
	2:[nBAM_StrandBias_FET<0.409999996] yes=3,no=4,missing=4
		3:leaf=-0.209226638
		4:[nBAM_StrandBias_FET<0.460000008] yes=5,no=6,missing=6
			5:leaf=0.297170103
			6:[nBAM_NM_Diff<0.939043999] yes=7,no=8,missing=8
				7:leaf=-0.183668807
				8:[GC2CG<1] yes=9,no=10,missing=10
					9:[nBAM_NM_Diff<0.944353998] yes=13,no=14,missing=14
						13:leaf=0.226855978
						14:[T_ALT_FOR<3] yes=15,no=16,missing=16
							15:[tBAM_ALT_NM<1.28570998] yes=17,no=18,missing=18
								17:[tBAM_REF_NM<0.359672993] yes=23,no=24,missing=23
									23:[T_DP<578] yes=25,no=26,missing=26
										25:[tBAM_REF_NM<0.0839843974] yes=37,no=38,missing=38
											37:[Seq_Complexity_Span<13.1277771] yes=39,no=40,missing=40
												39:leaf=0.293868572
												40:leaf=0.00143354526
											38:[tBAM_StrandBias_FET<0.230000004] yes=41,no=42,missing=42
												41:leaf=0.109397627
												42:leaf=-0.101577371
										26:leaf=-0.240424529
									24:[N_REF_REV<211] yes=45,no=46,missing=46
										45:leaf=-0.169669881
										46:leaf=0.282599658
								18:[tBAM_REF_BQ<29.6429005] yes=27,no=28,missing=28
									27:[VarDict_Score<17.1900005] yes=29,no=30,missing=30
										29:[N_REF_FOR<360] yes=31,no=32,missing=32
											31:leaf=0.487079263
											32:leaf=-0.0303248409
										30:leaf=-0.154628456
									28:[tBAM_p_MannWhitneyU_EndPos<0.926688015] yes=33,no=34,missing=34
										33:leaf=-0.274088323
										34:[tBAM_StrandBias_FET<0.180000007] yes=35,no=36,missing=36
											35:leaf=0.346823454
											36:leaf=-0.151123568
							16:[T_REF_FOR<14] yes=19,no=20,missing=20
								19:leaf=-0.24761726
								20:[nBAM_REF_Discordant<10] yes=21,no=22,missing=22
									21:[T_ALT_FOR<23] yes=43,no=44,missing=44
										43:leaf=0.259502977
										44:leaf=-0.0521078706
									22:leaf=0.0113882534
					10:[M2_TLOD<61.4199982] yes=11,no=12,missing=11
						11:leaf=0.224891767
						12:leaf=-0.0752584711
booster[27]:
0:[tBAM_p_MannWhitneyU_BQ<1.58043001e-09] yes=1,no=2,missing=2
	1:leaf=-0.25664866
	2:[VarScan2_Score<6.25] yes=3,no=4,missing=4
		3:leaf=-0.177062899
		4:[tBAM_p_MannWhitneyU_EndPos<0.0829802975] yes=5,no=6,missing=5
			5:[if_VarDict<1] yes=7,no=8,missing=8
				7:[M2_TLOD<24.75] yes=15,no=16,missing=15
					15:leaf=-0.256310552
					16:leaf=0.127872795
				8:[Seq_Complexity_Adj<14.3307161] yes=9,no=10,missing=10
					9:leaf=-0.0726937726
					10:[tBAM_REF_NM<0.129032001] yes=11,no=12,missing=12
						11:leaf=-0.0426753983
						12:[tBAM_p_MannWhitneyU_BQ<0.623044014] yes=13,no=14,missing=14
							13:leaf=0.462768078
							14:leaf=-0.0326062888
			6:[nBAM_Concordance_FET<0.0599999987] yes=17,no=18,missing=18
				17:leaf=0.299301177
				18:[tBAM_Other_Reads<78] yes=19,no=20,missing=20
					19:[tBAM_REF_NM<0.0221606996] yes=21,no=22,missing=21
						21:leaf=-0.191435486
						22:[N_DP<285] yes=23,no=24,missing=24
							23:[tBAM_REF_BQ<29.7087002] yes=29,no=30,missing=30
								29:leaf=-0.125181004
								30:[VarDict_Score<46.9900017] yes=31,no=32,missing=32
									31:leaf=0.300559491
									32:[tBAM_REF_Concordant<56] yes=33,no=34,missing=34
										33:leaf=-0.199649394
										34:leaf=0.157990336
							24:[nBAM_REF_BQ<29.9740009] yes=25,no=26,missing=26
								25:[Seq_Complexity_Span<12.0207949] yes=35,no=36,missing=36
									35:leaf=-0.174902141
									36:[Seq_Complexity_Span<12.3010817] yes=37,no=38,missing=38
										37:[nBAM_REF_Concordant<641] yes=39,no=40,missing=40
											39:leaf=0.441872716
											40:leaf=-0.193710342
										38:[Seq_Complexity_Span<12.9898949] yes=41,no=42,missing=42
											41:[SHIFT3<2] yes=45,no=46,missing=45
												45:leaf=-0.211902931
												46:leaf=0.19851388
											42:[tBAM_NM_Diff<0.931312978] yes=43,no=44,missing=44
												43:leaf=0.0604116283
												44:leaf=-0.0248747896
								26:[Strelka_Score<10.2299995] yes=27,no=28,missing=27
									27:leaf=-0.259120107
									28:leaf=0.147523925
					20:leaf=0.300699323
booster[28]:
0:[tBAM_ALT_BQ<22] yes=1,no=2,missing=1
	1:leaf=-0.249605447
	2:[tBAM_ALT_BQ<25] yes=3,no=4,missing=4
		3:[nBAM_REF_Concordant<1189] yes=5,no=6,missing=6
			5:[Seq_Complexity_Span<14.7170095] yes=7,no=8,missing=8
				7:leaf=0.656793416
				8:leaf=-0.0189667307
			6:leaf=-0.180317193
		4:[tBAM_ALT_BQ<26.6667004] yes=9,no=10,missing=10
			9:leaf=-0.214081794
			10:[Seq_Complexity_Span<10.188096] yes=11,no=12,missing=12
				11:leaf=-0.186562389
				12:[Seq_Complexity_Span<10.559514] yes=13,no=14,missing=14
					13:leaf=0.295342594
					14:[tBAM_REF_BQ<29.4932003] yes=15,no=16,missing=16
						15:[Seq_Complexity_Span<14.1497335] yes=17,no=18,missing=18
							17:leaf=-0.13154164
							18:[tBAM_p_MannWhitneyU_BQ<0.642856002] yes=19,no=20,missing=20
								19:[N_DP<1629] yes=21,no=22,missing=22
									21:[Seq_Complexity_Adj<14.5195694] yes=23,no=24,missing=24
										23:leaf=0.668243587
										24:leaf=0.035410393
									22:leaf=-0.110281147
								20:[tBAM_StrandBias_FET<0.230000004] yes=25,no=26,missing=26
									25:leaf=0.258607149
									26:leaf=-0.0452651829
						16:[T_ALT_REV<3] yes=27,no=28,missing=28
							27:[tBAM_REF_Discordant<6] yes=39,no=40,missing=40
								39:[nBAM_REF_NM<0.0660749972] yes=41,no=42,missing=42
									41:[Seq_Complexity_Span<13.9759922] yes=43,no=44,missing=44
										43:leaf=0.496711999
										44:[T_REF_REV<219] yes=45,no=46,missing=46
											45:leaf=-0.110213213
											46:leaf=0.382771641
									42:leaf=-0.0866222903
								40:leaf=-0.0594268069
							28:[tBAM_REF_Discordant<49] yes=29,no=30,missing=30
								29:[tBAM_ALT_Discordant<9] yes=31,no=32,missing=32
									31:[T_ALT_FOR<2] yes=33,no=34,missing=34
										33:leaf=-0.0509944856
										34:[tBAM_ALT_NM<1.03999996] yes=35,no=36,missing=36
											35:[tBAM_REF_BQ<29.9778996] yes=37,no=38,missing=38
												37:leaf=0.260246068
												38:leaf=-0.0810328647
											36:leaf=0.0072560315
									32:leaf=-0.154573157
								30:leaf=0.171965763
booster[29]:
0:[tBAM_p_MannWhitneyU_BQ<1.58043001e-09] yes=1,no=2,missing=2
	1:leaf=-0.236753926
	2:[nBAM_StrandBias_FET<0.409999996] yes=3,no=4,missing=4
		3:leaf=-0.18283236
		4:[nBAM_StrandBias_FET<0.460000008] yes=5,no=6,missing=6
			5:[nBAM_p_MannWhitneyU_EndPos<0.197895005] yes=7,no=8,missing=8
				7:leaf=0.350214601
				8:leaf=-0.0941225439
			6:[nBAM_REF_BQ<29.9211998] yes=9,no=10,missing=9
				9:[nBAM_REF_BQ<29.9141006] yes=13,no=14,missing=14
					13:[nBAM_REF_NM<0.0660749972] yes=15,no=16,missing=16
						15:[nBAM_p_MannWhitneyU_MQ<2.00001001] yes=17,no=18,missing=18
							17:[nBAM_p_MannWhitneyU_EndPos<0.154046997] yes=19,no=20,missing=20
								19:leaf=-0.166954041
								20:[nBAM_REF_Discordant<29] yes=21,no=22,missing=22
									21:leaf=0.0367848314
									22:[Seq_Complexity_Adj<13.7277565] yes=23,no=24,missing=24
										23:leaf=-0.0866637975
										24:leaf=0.441383392
							18:[N_REF_FOR<122] yes=35,no=36,missing=36
								35:leaf=0.201216251
								36:[nBAM_Other_Reads<1] yes=37,no=38,missing=38
									37:[nBAM_REF_NM<0.0547945015] yes=41,no=42,missing=42
										41:[Seq_Complexity_Span<12.3010817] yes=43,no=44,missing=44
											43:leaf=0.349940777
											44:leaf=-0.186728209
										42:[nBAM_REF_NM<0.0561797991] yes=45,no=46,missing=46
											45:leaf=0.286437482
											46:leaf=-0.048330687
									38:[N_REF_REV<443] yes=39,no=40,missing=40
										39:leaf=0.323467165
										40:leaf=-0.0987271219
						16:leaf=-0.0758957788
					14:leaf=-0.218856782
				10:[nBAM_REF_BQ<29.9242001] yes=11,no=12,missing=12
					11:leaf=0.266698688
					12:[nBAM_REF_NM<0.0508711003] yes=25,no=26,missing=26
						25:[nBAM_REF_NM<0.0380623005] yes=27,no=28,missing=28
							27:[SiteHomopolymer_Length<4] yes=29,no=30,missing=30
								29:leaf=-0.0316030905
								30:leaf=0.39015317
							28:leaf=-0.160214901
						26:[nBAM_ALT_Concordant<1] yes=31,no=32,missing=32
							31:[nBAM_REF_BQ<29.9272995] yes=33,no=34,missing=34
								33:leaf=-0.234162271
								34:leaf=0.0877387896
							32:leaf=-0.22635746
booster[30]:
0:[tBAM_ALT_BQ<22] yes=1,no=2,missing=1
	1:leaf=-0.228459999
	2:[Seq_Complexity_Adj<13.4174147] yes=3,no=4,missing=4
		3:[SOR<0.0371835455] yes=5,no=6,missing=5
			5:[N_REF_FOR<360] yes=7,no=8,missing=8
				7:[Seq_Complexity_Span<15.4886694] yes=9,no=10,missing=10
					9:leaf=-0.00312437583
					10:[Seq_Complexity_Adj<12.3010817] yes=11,no=12,missing=12
						11:leaf=0.497923076
						12:[tBAM_StrandBias_FET<0.270000011] yes=25,no=26,missing=26
							25:leaf=0.283775508
							26:leaf=-0.156048536
				8:[tBAM_ALT_Concordant<5] yes=41,no=42,missing=42
					41:leaf=-0.186220914
					42:[tBAM_NM_Diff<0.944862008] yes=43,no=44,missing=44
						43:leaf=0.0981389135
						44:leaf=-0.156633094
			6:leaf=-0.224122509
		4:[Seq_Complexity_Adj<14.0619946] yes=13,no=14,missing=14
			13:[tBAM_ALT_BQ<25] yes=15,no=16,missing=16
				15:leaf=0.517259538
				16:[nBAM_REF_Concordant<388] yes=17,no=18,missing=18
					17:[Consistent_Mates<4] yes=19,no=20,missing=20
						19:leaf=-0.316694468
						20:leaf=0.162392557
					18:[tBAM_p_MannWhitneyU_EndPos<0.0230455007] yes=21,no=22,missing=22
						21:leaf=-0.189119905
						22:[T_ALT_FOR<1] yes=27,no=28,missing=28
							27:[nBAM_REF_NM<0.0466884002] yes=39,no=40,missing=40
								39:leaf=0.184750825
								40:leaf=-0.207135081
							28:[Consistent_Mates<1] yes=29,no=30,missing=30
								29:[tBAM_p_MannWhitneyU_BQ<0.564989984] yes=31,no=32,missing=32
									31:leaf=-0.0208440125
									32:[tBAM_p_MannWhitneyU_BQ<0.612824023] yes=33,no=34,missing=33
										33:[nBAM_REF_NM<0.0496083982] yes=35,no=36,missing=36
											35:leaf=-0.0264480356
											36:leaf=0.57935822
										34:leaf=0.120438665
								30:[tBAM_REF_NM<0.133093998] yes=37,no=38,missing=38
									37:[T_REF_REV<81] yes=45,no=46,missing=46
										45:leaf=-0.185069829
										46:leaf=0.188413501
									38:leaf=-0.0653187409
			14:[Inconsistent_Mates<1] yes=23,no=24,missing=24
				23:leaf=-0.0278324131
				24:leaf=0.215237007
booster[31]:
0:[T_ALT_REV<1] yes=1,no=2,missing=2
	1:[nBAM_REF_Discordant<10] yes=3,no=4,missing=4
		3:[tBAM_ALT_Concordant<3] yes=5,no=6,missing=6
			5:leaf=0.28528586
			6:leaf=-0.0604566932
		4:[SiteHomopolymer_Length<5] yes=7,no=8,missing=8
			7:[tBAM_REF_Discordant<19] yes=9,no=10,missing=10
				9:[tBAM_StrandBias_FET<0.25] yes=11,no=12,missing=12
					11:[nBAM_REF_BQ<29.9279003] yes=13,no=14,missing=14
						13:[tBAM_StrandBias_FET<0.119999997] yes=15,no=16,missing=16
							15:leaf=-0.106495127
							16:[tBAM_NM_Diff<0.897154987] yes=17,no=18,missing=18
								17:leaf=0.61872071
								18:leaf=0.0205322467
						14:leaf=-0.120407082
					12:leaf=-0.175101072
				10:leaf=-0.215423703
			8:[tBAM_p_MannWhitneyU_BQ<0.588367999] yes=19,no=20,missing=20
				19:leaf=0.25835371
				20:leaf=-0.161829233
	2:[VarScan2_Score<7.67000008] yes=21,no=22,missing=22
		21:[N_REF_REV<100] yes=23,no=24,missing=24
			23:leaf=0.0763579309
			24:leaf=-0.255208939
		22:[tBAM_Other_Reads<13] yes=25,no=26,missing=26
			25:[MSI<5] yes=27,no=28,missing=28
				27:[Consistent_Mates<1] yes=31,no=32,missing=32
					31:[tBAM_REF_NM<0.144279003] yes=37,no=38,missing=38
						37:[T_REF_REV<221] yes=39,no=40,missing=40
							39:[nBAM_REF_Concordant<626] yes=41,no=42,missing=42
								41:leaf=-0.094748646
								42:leaf=0.169150829
							40:leaf=-0.124410279
						38:[VarScan2_Score<10.8100004] yes=43,no=44,missing=44
							43:leaf=0.447038263
							44:[T_REF_FOR<175] yes=45,no=46,missing=46
								45:leaf=-0.0395063795
								46:leaf=0.199235514
					32:[M2_TLOD<282.459991] yes=33,no=34,missing=34
						33:[T_REF_REV<83] yes=35,no=36,missing=36
							35:leaf=-0.0245744064
							36:leaf=0.198405132
						34:leaf=-0.0436151177
				28:[MuSE_Tier<0.5] yes=29,no=30,missing=30
					29:leaf=-0.195178777
					30:leaf=0.223770022
			26:leaf=0.149331123
booster[32]:
0:[tBAM_REF_Clipped_Reads<3] yes=1,no=2,missing=2
	1:[GC2CG<1] yes=7,no=8,missing=8
		7:[tBAM_REF_Clipped_Reads<2] yes=9,no=10,missing=10
			9:[nBAM_REF_NM<0.0422077999] yes=15,no=16,missing=16
				15:[N_REF_REV<544] yes=17,no=18,missing=18
					17:[nBAM_REF_BQ<29.9461994] yes=19,no=20,missing=20
						19:[nBAM_REF_BQ<29.9122009] yes=21,no=22,missing=22
							21:[nBAM_REF_BQ<29.8691006] yes=23,no=24,missing=24
								23:[N_REF_REV<299] yes=25,no=26,missing=26
									25:leaf=-0.0296878349
									26:leaf=0.407737851
								24:leaf=-0.173186064
							22:leaf=0.315626591
						20:leaf=-0.0786010548
					18:leaf=-0.138178691
				16:[tBAM_ALT_NM<2] yes=27,no=28,missing=28
					27:[M2_ECNT<2] yes=29,no=30,missing=29
						29:[Seq_Complexity_Span<16.1380768] yes=31,no=32,missing=32
							31:[N_REF_FOR<729] yes=35,no=36,missing=36
								35:[Seq_Complexity_Adj<14.9238558] yes=43,no=44,missing=44
									43:leaf=-0.048604615
									44:[nBAM_p_MannWhitneyU_BQ<1.59684001e-16] yes=45,no=46,missing=45
										45:leaf=0.185916781
										46:leaf=-0.245352373
								36:[nBAM_REF_Discordant<28] yes=37,no=38,missing=38
									37:leaf=0.285960495
									38:[N_DP<1214] yes=39,no=40,missing=40
										39:leaf=0.294004679
										40:[N_REF_FOR<1106] yes=41,no=42,missing=42
											41:leaf=-0.186910585
											42:leaf=0.197773144
							32:[tBAM_REF_NM<0.145956993] yes=33,no=34,missing=34
								33:leaf=0.159905016
								34:leaf=-0.111432754
						30:leaf=0.127596855
					28:leaf=-0.173418999
			10:[N_DP<1012] yes=11,no=12,missing=12
				11:leaf=0.198356226
				12:[N_REF_REV<1094] yes=13,no=14,missing=14
					13:leaf=-0.104712047
					14:leaf=0.288270235
		8:leaf=0.1223967
	2:[M2_TLOD<54.7299995] yes=3,no=4,missing=3
		3:[nBAM_REF_NM<0.0549451001] yes=5,no=6,missing=6
			5:leaf=0.0531609021
			6:leaf=-0.196618989
		4:leaf=0.1530056
booster[33]:
0:[tBAM_p_MannWhitneyU_EndPos<0.998939991] yes=1,no=2,missing=2
	1:[nBAM_REF_Clipped_Reads<22] yes=3,no=4,missing=4
		3:[tBAM_NM_Diff<0.850847006] yes=5,no=6,missing=6
			5:[M2_NLOD<123.059998] yes=7,no=8,missing=7
				7:[SiteHomopolymer_Length<4] yes=9,no=10,missing=10
					9:[nBAM_REF_Concordant<1348] yes=13,no=14,missing=14
						13:leaf=0.0326353237
						14:leaf=-0.177473485
					10:[tBAM_StrandBias_FET<0.289999992] yes=11,no=12,missing=12
						11:leaf=0.36623919
						12:leaf=0.0167998169
				8:leaf=0.239634469
			6:[tBAM_p_MannWhitneyU_EndPos<0.803453982] yes=15,no=16,missing=16
				15:[nBAM_REF_BQ<29.8708992] yes=19,no=20,missing=20
					19:[SHIFT3<1] yes=21,no=22,missing=22
						21:[tBAM_REF_Concordant<176] yes=23,no=24,missing=24
							23:leaf=-0.0755395144
							24:[nBAM_REF_NM<0.0414200984] yes=29,no=30,missing=30
								29:leaf=0.447205871
								30:[tBAM_REF_NM<0.137821004] yes=37,no=38,missing=38
									37:[tBAM_StrandBias_FET<0.600000024] yes=39,no=40,missing=40
										39:leaf=0.301691473
										40:leaf=-0.00252144784
									38:leaf=-0.121989071
						22:leaf=-0.112018056
					20:[tBAM_REF_NM<0.0895522013] yes=25,no=26,missing=26
						25:[tBAM_NM_Diff<0.929700971] yes=31,no=32,missing=32
							31:[tBAM_p_MannWhitneyU_EndPos<0.176995993] yes=33,no=34,missing=34
								33:leaf=-0.129492089
								34:[tBAM_p_MannWhitneyU_BQ<0.598128021] yes=35,no=36,missing=36
									35:[T_REF_FOR<195] yes=43,no=44,missing=44
										43:leaf=0.501109779
										44:leaf=0.0629243627
									36:leaf=-0.0855585635
							32:leaf=-0.0515492447
						26:[T_ALT_FOR<3] yes=27,no=28,missing=28
							27:leaf=-0.218079433
							28:leaf=-0.00973081123
				16:[nBAM_REF_BQ<29.9050007] yes=17,no=18,missing=18
					17:[N_REF_FOR<553] yes=41,no=42,missing=42
						41:leaf=-0.100825682
						42:leaf=0.123314932
					18:[nBAM_REF_NM<0.0550847016] yes=45,no=46,missing=46
						45:leaf=0.0256207157
						46:leaf=0.203614995
		4:leaf=-0.199224338
	2:leaf=-0.146400094
booster[34]:
0:[M2_TLOD<450.029999] yes=1,no=2,missing=1
	1:[T_ALT_REV<4] yes=3,no=4,missing=4
		3:[nBAM_REF_BQ<29.9740009] yes=7,no=8,missing=8
			7:[tBAM_p_MannWhitneyU_EndPos<0.0182632003] yes=17,no=18,missing=17
				17:leaf=-0.196644768
				18:[T_DP<261] yes=21,no=22,missing=22
					21:[tBAM_p_MannWhitneyU_BQ<0.594730973] yes=23,no=24,missing=23
						23:leaf=0.149992019
						24:leaf=-0.0506222583
					22:[N_DP<370] yes=25,no=26,missing=26
						25:[tBAM_NM_Diff<0.924623013] yes=43,no=44,missing=44
							43:leaf=-0.163104206
							44:leaf=0.326548874
						26:[VarScan2_Score<9.27000046] yes=27,no=28,missing=28
							27:leaf=-0.229569763
							28:[tBAM_REF_BQ<29.5153008] yes=29,no=30,missing=29
								29:[nBAM_REF_BQ<29.7877998] yes=33,no=34,missing=34
									33:[N_REF_REV<418] yes=39,no=40,missing=40
										39:leaf=0.654350579
										40:leaf=0.0404045247
									34:[Seq_Complexity_Span<15.6110134] yes=41,no=42,missing=42
										41:leaf=0.121872492
										42:leaf=-0.153374344
								30:[tBAM_REF_Discordant<10] yes=31,no=32,missing=32
									31:[tBAM_REF_BQ<29.6392002] yes=35,no=36,missing=36
										35:leaf=-0.101010755
										36:[nBAM_REF_Concordant<587] yes=37,no=38,missing=38
											37:leaf=-0.0836829543
											38:leaf=0.341370463
									32:[nBAM_REF_BQ<29.9712009] yes=45,no=46,missing=46
										45:leaf=-0.0692281276
										46:leaf=0.291513652
			8:[tBAM_REF_Concordant<56] yes=9,no=10,missing=10
				9:leaf=0.119580202
				10:leaf=-0.267039806
		4:[tBAM_REF_Discordant<13] yes=5,no=6,missing=6
			5:leaf=-0.074502334
			6:[MSI<3] yes=11,no=12,missing=12
				11:[T_REF_FOR<245] yes=13,no=14,missing=14
					13:[tBAM_p_MannWhitneyU_BQ<0.605687022] yes=15,no=16,missing=16
						15:leaf=-0.0442911945
						16:leaf=0.163768649
					14:leaf=0.334429443
				12:[VarScan2_Score<43.1599998] yes=19,no=20,missing=20
					19:leaf=-0.199874595
					20:leaf=0.0554170609
	2:leaf=-0.153958932
booster[35]:
0:[tBAM_ALT_InDel_1bp<23] yes=1,no=2,missing=2
	1:[Seq_Complexity_Adj<13.6480675] yes=3,no=4,missing=4
		3:[tBAM_Other_Reads<1] yes=5,no=6,missing=6
			5:leaf=-0.00163238985
			6:[T_ALT_FOR<13] yes=7,no=8,missing=8
				7:leaf=-0.174528331
				8:leaf=0.0725590885
		4:[nBAM_p_MannWhitneyU_BQ<1.22848001e-17] yes=9,no=10,missing=10
			9:[N_REF_FOR<292] yes=11,no=12,missing=12
				11:leaf=0.434980661
				12:leaf=-6.92930844e-05
			10:[MaxHomopolymer_Length<3] yes=13,no=14,missing=14
				13:[Seq_Complexity_Adj<14.8192015] yes=15,no=16,missing=16
					15:[T_REF_REV<166] yes=17,no=18,missing=18
						17:leaf=0.357217938
						18:leaf=-0.0331953838
					16:leaf=-0.173103482
				14:[N_REF_REV<1094] yes=19,no=20,missing=20
					19:[VarScan2_Score<43.1599998] yes=21,no=22,missing=22
						21:[N_DP<399] yes=23,no=24,missing=24
							23:leaf=-0.216197252
							24:[N_DP<414] yes=25,no=26,missing=26
								25:leaf=0.384674281
								26:[N_DP<594] yes=31,no=32,missing=32
									31:[MSI<4] yes=41,no=42,missing=41
										41:leaf=-0.254873842
										42:leaf=0.15434806
									32:[N_REF_REV<446] yes=33,no=34,missing=34
										33:[nBAM_Other_Reads<1] yes=35,no=36,missing=36
											35:[MaxHomopolymer_Length<4] yes=37,no=38,missing=38
												37:leaf=-0.1984303
												38:leaf=0.1060386
											36:[N_REF_REV<367] yes=39,no=40,missing=40
												39:leaf=0.0113311401
												40:leaf=0.435906589
										34:[nBAM_REF_Discordant<24] yes=43,no=44,missing=44
											43:[N_REF_REV<639] yes=45,no=46,missing=46
												45:leaf=-0.286152869
												46:leaf=0.0427159406
											44:leaf=-0.0195648186
						22:[tBAM_ALT_Discordant<9] yes=27,no=28,missing=28
							27:[tBAM_REF_Concordant<454] yes=29,no=30,missing=30
								29:leaf=0.184084699
								30:leaf=-0.157507271
							28:leaf=-0.0957302451
					20:leaf=0.202244669
	2:leaf=-0.229396865
booster[36]:
0:[VarScan2_Score<568.309998] yes=1,no=2,missing=2
	1:[Strelka_Score<11.1199999] yes=5,no=6,missing=5
		5:[nBAM_REF_Clipped_Reads<20] yes=9,no=10,missing=10
			9:[nBAM_p_MannWhitneyU_EndPos<0.0828498974] yes=13,no=14,missing=14
				13:leaf=-0.201665744
				14:[tBAM_Concordance_FET<0.0199999996] yes=15,no=16,missing=16
					15:leaf=-0.164039135
					16:[nBAM_p_MannWhitneyU_EndPos<0.204118997] yes=17,no=18,missing=18
						17:[nBAM_REF_BQ<29.8736992] yes=29,no=30,missing=30
							29:[Seq_Complexity_Adj<13.9759922] yes=31,no=32,missing=32
								31:leaf=-0.0406419411
								32:leaf=0.383883446
							30:leaf=-0.0190765914
						18:[nBAM_REF_Discordant<43] yes=19,no=20,missing=20
							19:[tBAM_ALT_Concordant<2] yes=33,no=34,missing=34
								33:leaf=0.219660014
								34:[tBAM_REF_MQ<59.9359016] yes=35,no=36,missing=36
									35:[N_REF_FOR<568] yes=37,no=38,missing=38
										37:leaf=-0.25039342
										38:leaf=0.0864785537
									36:[nBAM_StrandBias_FET<0.810000002] yes=39,no=40,missing=40
										39:leaf=-0.180841386
										40:[nBAM_p_MannWhitneyU_BQ<0.534659982] yes=41,no=42,missing=42
											41:[nBAM_REF_Discordant<29] yes=43,no=44,missing=44
												43:leaf=-0.0163623132
												44:leaf=0.390625864
											42:leaf=0.0111275325
							20:[tBAM_p_MannWhitneyU_MQ<0.619134009] yes=21,no=22,missing=21
								21:[N_REF_FOR<1128] yes=23,no=24,missing=24
									23:[nBAM_REF_Clipped_Reads<2] yes=27,no=28,missing=28
										27:leaf=-0.271542519
										28:[nBAM_REF_BQ<29.9477005] yes=45,no=46,missing=46
											45:leaf=-0.143846765
											46:leaf=0.160220355
									24:[nBAM_Other_Reads<2] yes=25,no=26,missing=26
										25:leaf=-0.16641514
										26:leaf=0.408772826
								22:leaf=0.211859271
			10:leaf=-0.23126021
		6:[tBAM_ALT_InDel_3bp<20] yes=7,no=8,missing=8
			7:[tBAM_REF_Concordant<110] yes=11,no=12,missing=12
				11:leaf=0.0245739948
				12:leaf=0.270958275
			8:leaf=-0.186404988
	2:[tBAM_REF_Concordant<213] yes=3,no=4,missing=4
		3:leaf=-0.198362663
		4:leaf=0.135075599
booster[37]:
0:[tBAM_ALT_Discordant<5] yes=1,no=2,missing=2
	1:[if_MuTect<1] yes=5,no=6,missing=6
		5:[VarScan2_Score<5.46999979] yes=11,no=12,missing=12
			11:leaf=-0.222519144
			12:[GC2CG<1] yes=13,no=14,missing=14
				13:[T_REF_FOR<71] yes=19,no=20,missing=20
					19:[VarScan2_Score<10.8100004] yes=21,no=22,missing=22
						21:[tBAM_REF_Discordant<15] yes=29,no=30,missing=30
							29:leaf=0.437969714
							30:leaf=-0.0486346595
						22:leaf=-0.0166826863
					20:[nBAM_REF_Concordant<560] yes=23,no=24,missing=24
						23:[SiteHomopolymer_Length<4] yes=25,no=26,missing=26
							25:[nBAM_REF_BQ<29.8700008] yes=31,no=32,missing=32
								31:[nBAM_REF_BQ<29.8644009] yes=37,no=38,missing=38
									37:leaf=-0.0948722437
									38:leaf=0.228302732
								32:[Seq_Complexity_Adj<12.3010817] yes=33,no=34,missing=34
									33:[Seq_Complexity_Adj<12.0207949] yes=35,no=36,missing=36
										35:leaf=-0.165578842
										36:leaf=0.228483841
									34:leaf=-0.291721433
							26:[VarScan2_Score<14.9799995] yes=27,no=28,missing=28
								27:leaf=-0.120369427
								28:leaf=0.247044623
						24:[tBAM_ALT_NM<1.33333004] yes=39,no=40,missing=40
							39:[tBAM_p_MannWhitneyU_BQ<0.625163972] yes=41,no=42,missing=42
								41:[Seq_Complexity_Adj<13.0582886] yes=43,no=44,missing=44
									43:[tBAM_REF_Concordant<286] yes=45,no=46,missing=46
										45:leaf=0.132952988
										46:leaf=-0.20125185
									44:leaf=0.0954466537
								42:leaf=-0.0562679879
							40:leaf=-0.0689535663
				14:[MSI<5] yes=15,no=16,missing=16
					15:leaf=0.216890618
					16:leaf=-0.0899375901
		6:[tBAM_REF_NM<0.0452488996] yes=7,no=8,missing=7
			7:leaf=-0.092068769
			8:[MaxHomopolymer_Length<6] yes=17,no=18,missing=18
				17:leaf=0.198965758
				18:leaf=-0.0831138715
	2:[tBAM_ALT_BQ<30] yes=3,no=4,missing=4
		3:leaf=-0.20899266
		4:[tBAM_REF_Discordant<16] yes=9,no=10,missing=10
			9:leaf=-0.122372799
			10:leaf=0.101173855
booster[38]:
0:[Seq_Complexity_Span<10.188096] yes=1,no=2,missing=2
	1:leaf=-0.163692117
	2:[N_REF_REV<29] yes=3,no=4,missing=4
		3:[M2_TLOD<60.1100006] yes=19,no=20,missing=19
			19:leaf=0.196655065
			20:leaf=-0.144286737
		4:[T_ALT_REV<1] yes=5,no=6,missing=6
			5:[SiteHomopolymer_Length<4] yes=7,no=8,missing=8
				7:[nBAM_REF_BQ<29.8376007] yes=11,no=12,missing=12
					11:[VarDict_Score<14.0699997] yes=13,no=14,missing=14
						13:[tBAM_StrandBias_FET<0.310000002] yes=15,no=16,missing=16
							15:leaf=0.430517644
							16:leaf=-0.0551924817
						14:leaf=-0.130888164
					12:[if_VarDict<1] yes=17,no=18,missing=18
						17:leaf=-0.255996585
						18:[tBAM_NM_Diff<1.26315999] yes=21,no=22,missing=22
							21:leaf=-0.121185772
							22:leaf=0.182729363
				8:[tBAM_p_MannWhitneyU_BQ<0.607034028] yes=9,no=10,missing=10
					9:[tBAM_REF_BQ<29.9395008] yes=23,no=24,missing=24
						23:[tBAM_StrandBias_FET<0.25999999] yes=25,no=26,missing=26
							25:leaf=0.299857706
							26:leaf=-0.00830992311
						24:leaf=-0.119283818
					10:leaf=-0.210882738
			6:[M2_TLOD<5.80999994] yes=27,no=28,missing=28
				27:leaf=-0.205732286
				28:[MaxHomopolymer_Length<6] yes=29,no=30,missing=30
					29:[nBAM_REF_NM<0.119341999] yes=31,no=32,missing=32
						31:[nBAM_REF_NM<0.0790959969] yes=33,no=34,missing=34
							33:[nBAM_REF_NM<0.0729613975] yes=37,no=38,missing=38
								37:[nBAM_REF_BQ<29.7262993] yes=39,no=40,missing=40
									39:leaf=-0.191402912
									40:leaf=0.0287282746
								38:leaf=-0.170649916
							34:[tBAM_p_MannWhitneyU_EndPos<0.294054002] yes=35,no=36,missing=36
								35:leaf=-0.10020005
								36:[T_REF_FOR<113] yes=45,no=46,missing=46
									45:leaf=0.0630587935
									46:leaf=0.322544545
						32:[nBAM_REF_NM<0.28461501] yes=41,no=42,missing=42
							41:[T_REF_FOR<354] yes=43,no=44,missing=44
								43:leaf=-0.193570808
								44:leaf=0.13500227
							42:leaf=0.0140121598
					30:leaf=-0.0950923935
booster[39]:
0:[tBAM_p_MannWhitneyU_BQ<0.00208601006] yes=1,no=2,missing=2
	1:[VarScan2_Score<20.9400005] yes=3,no=4,missing=4
		3:[tBAM_REF_Discordant<10] yes=7,no=8,missing=8
			7:leaf=0.0696429685
			8:leaf=-0.234789163
		4:[N_REF_FOR<565] yes=5,no=6,missing=6
			5:leaf=0.17590569
			6:leaf=-0.131697789
	2:[tBAM_REF_BQ<29.5153008] yes=9,no=10,missing=10
		9:[tBAM_REF_Discordant<7] yes=11,no=12,missing=12
			11:leaf=-0.178022355
			12:[tBAM_REF_NM<0.213303] yes=13,no=14,missing=14
				13:[tBAM_p_MannWhitneyU_EndPos<0.111051001] yes=15,no=16,missing=16
					15:leaf=-0.0863617137
					16:leaf=0.191513404
				14:[N_REF_FOR<356] yes=37,no=38,missing=38
					37:leaf=0.147825837
					38:leaf=-0.188046023
		10:[tBAM_REF_BQ<29.6268997] yes=17,no=18,missing=18
			17:[Seq_Complexity_Span<15.8665552] yes=19,no=20,missing=20
				19:leaf=-0.171952978
				20:[tBAM_REF_NM<0.162088007] yes=31,no=32,missing=32
					31:leaf=0.224673137
					32:leaf=-0.131411001
			18:[tBAM_NM_Diff<0.863377988] yes=21,no=22,missing=22
				21:[MSI<2] yes=25,no=26,missing=26
					25:[M2_TLOD<15.8000002] yes=29,no=30,missing=30
						29:leaf=0.219201624
						30:leaf=-0.114553876
					26:[nBAM_Other_Reads<2] yes=39,no=40,missing=40
						39:[nBAM_REF_Discordant<29] yes=41,no=42,missing=42
							41:[nBAM_REF_NM<0.0663928986] yes=43,no=44,missing=44
								43:[T_ALT_FOR<2] yes=45,no=46,missing=46
									45:leaf=0.45383811
									46:leaf=0.0633888841
								44:leaf=0.0882131755
							42:leaf=0.0182831604
						40:leaf=-0.141322792
				22:[T_ALT_FOR<1] yes=23,no=24,missing=24
					23:[T_REF_FOR<262] yes=27,no=28,missing=28
						27:[N_REF_FOR<100] yes=33,no=34,missing=34
							33:[N_REF_REV<296] yes=35,no=36,missing=36
								35:leaf=-0.140100792
								36:leaf=0.265725225
							34:leaf=-0.229367122
						28:leaf=0.178414062
					24:leaf=0.00561803114
booster[40]:
0:[nBAM_REF_BQ<29.9211998] yes=1,no=2,missing=1
	1:[nBAM_REF_BQ<29.9141006] yes=5,no=6,missing=6
		5:[T_REF_FOR<251] yes=43,no=44,missing=44
			43:[T_REF_REV<166] yes=45,no=46,missing=46
				45:leaf=-0.0287133884
				46:leaf=0.0582094416
			44:leaf=-0.100700334
		6:leaf=-0.162883699
	2:[nBAM_REF_BQ<29.9242001] yes=3,no=4,missing=4
		3:leaf=0.171995923
		4:[tBAM_p_MannWhitneyU_EndPos<0.996361971] yes=7,no=8,missing=8
			7:[Seq_Complexity_Span<15.2538586] yes=9,no=10,missing=10
				9:[tBAM_NM_Diff<0.986119986] yes=11,no=12,missing=12
					11:[tBAM_p_MannWhitneyU_BQ<0.580639005] yes=19,no=20,missing=20
						19:[nBAM_REF_BQ<29.9396992] yes=35,no=36,missing=36
							35:leaf=-0.156565189
							36:leaf=0.0622856468
						20:[Seq_Complexity_Span<12.9898949] yes=21,no=22,missing=22
							21:leaf=-0.0511998311
							22:[tBAM_p_MannWhitneyU_BQ<0.596846998] yes=23,no=24,missing=24
								23:[T_REF_REV<141] yes=25,no=26,missing=26
									25:leaf=0.0158020444
									26:[tBAM_p_MannWhitneyU_EndPos<0.622044027] yes=27,no=28,missing=28
										27:leaf=0.653077841
										28:leaf=0.0473547503
								24:[tBAM_Other_Reads<1] yes=29,no=30,missing=30
									29:[T_ALT_REV<4] yes=37,no=38,missing=38
										37:[tBAM_p_MannWhitneyU_EndPos<0.932969987] yes=39,no=40,missing=40
											39:leaf=-0.173164368
											40:leaf=0.213717744
										38:leaf=0.171173066
									30:leaf=0.291738749
					12:[tBAM_p_MannWhitneyU_EndPos<0.821614027] yes=13,no=14,missing=14
						13:leaf=-0.149659783
						14:[nBAM_REF_Discordant<12] yes=31,no=32,missing=32
							31:leaf=0.311920702
							32:[N_DP<1234] yes=33,no=34,missing=34
								33:leaf=-0.202414751
								34:leaf=0.218279287
				10:[tBAM_p_MannWhitneyU_EndPos<0.78944701] yes=15,no=16,missing=16
					15:[tBAM_REF_BQ<29.9778996] yes=17,no=18,missing=18
						17:leaf=-0.175748616
						18:leaf=0.139410436
					16:[tBAM_StrandBias_FET<0.0700000003] yes=41,no=42,missing=42
						41:leaf=0.330203146
						42:leaf=-0.0155149437
			8:leaf=-0.212987855
booster[41]:
0:[tBAM_p_MannWhitneyU_EndPos<0.00388262002] yes=1,no=2,missing=1
	1:[M2_ECNT<2] yes=3,no=4,missing=3
		3:leaf=-0.186828673
		4:leaf=0.076460138
	2:[Inconsistent_Mates<1] yes=5,no=6,missing=6
		5:[tBAM_ALT_Discordant<5] yes=9,no=10,missing=10
			9:[VarDict_Score<43.0099983] yes=11,no=12,missing=11
				11:[Seq_Complexity_Span<12.0207949] yes=15,no=16,missing=16
					15:leaf=-0.130881771
					16:[Seq_Complexity_Adj<12.1867867] yes=17,no=18,missing=18
						17:[VarDict_Score<11.3100004] yes=19,no=20,missing=20
							19:[Seq_Complexity_Adj<11.4138165] yes=25,no=26,missing=26
								25:leaf=-0.0485050194
								26:leaf=0.344591171
							20:[VarScan2_Score<17.3500004] yes=21,no=22,missing=22
								21:leaf=-0.172088817
								22:[tBAM_REF_Concordant<257] yes=23,no=24,missing=24
									23:leaf=0.275299162
									24:leaf=-0.0550272055
						18:[Strelka_Score<3.25] yes=27,no=28,missing=28
							27:leaf=-0.124687955
							28:[tBAM_REF_NM<0.0902255997] yes=29,no=30,missing=29
								29:[T_REF_REV<201] yes=31,no=32,missing=32
									31:[nBAM_REF_NM<0.0494589992] yes=35,no=36,missing=36
										35:[VarDict_Score<17.7399998] yes=41,no=42,missing=42
											41:leaf=-0.167724133
											42:leaf=0.127168044
										36:[tBAM_REF_Discordant<29] yes=37,no=38,missing=38
											37:[N_DP<660] yes=39,no=40,missing=40
												39:leaf=0.0883288085
												40:leaf=0.447859734
											38:[N_REF_FOR<507] yes=43,no=44,missing=44
												43:leaf=-0.120087847
												44:leaf=0.177760944
									32:[VarDict_Score<25.9300003] yes=33,no=34,missing=34
										33:leaf=-0.148410812
										34:leaf=0.191619992
								30:[Seq_Complexity_Span<13.8089352] yes=45,no=46,missing=46
									45:leaf=-0.131399184
									46:leaf=-0.00882235728
				12:leaf=0.100135572
			10:[tBAM_REF_Discordant<30] yes=13,no=14,missing=14
				13:leaf=-0.13961032
				14:leaf=0.0519289933
		6:[Strelka_Score<1.70000005] yes=7,no=8,missing=7
			7:leaf=-0.152943313
			8:leaf=0.190947503
booster[42]:
0:[tBAM_ALT_InDel_2bp<22] yes=1,no=2,missing=2
	1:[tBAM_Other_Reads<13] yes=3,no=4,missing=4
		3:[SHIFT3<3] yes=5,no=6,missing=6
			5:[Seq_Complexity_Span<16.7380562] yes=15,no=16,missing=16
				15:[Seq_Complexity_Span<16.5801144] yes=17,no=18,missing=18
					17:[tBAM_Other_Reads<1] yes=21,no=22,missing=22
						21:[T_REF_FOR<359] yes=27,no=28,missing=28
							27:[T_REF_FOR<328] yes=39,no=40,missing=40
								39:[tBAM_p_MannWhitneyU_EndPos<0.0369254984] yes=43,no=44,missing=44
									43:[Seq_Complexity_Span<13.8916607] yes=45,no=46,missing=46
										45:leaf=-0.0613831617
										46:leaf=0.185092032
									44:leaf=0.0075802519
								40:[N_REF_REV<477] yes=41,no=42,missing=42
									41:leaf=-0.0798006803
									42:leaf=0.361970186
							28:leaf=-0.161741361
						22:[nBAM_REF_NM<0.0414200984] yes=23,no=24,missing=24
							23:[tBAM_StrandBias_FET<0.610000014] yes=25,no=26,missing=26
								25:leaf=-0.138304174
								26:leaf=0.290728658
							24:[tBAM_p_MannWhitneyU_MQ<0.540710986] yes=29,no=30,missing=29
								29:[T_REF_FOR<277] yes=31,no=32,missing=32
									31:[SiteHomopolymer_Length<4] yes=35,no=36,missing=36
										35:[nBAM_NM_Diff<0.952955008] yes=37,no=38,missing=38
											37:leaf=0.0586453266
											38:leaf=-0.221493006
										36:leaf=0.0292556509
									32:[nBAM_REF_Discordant<33] yes=33,no=34,missing=34
										33:leaf=0.174981803
										34:leaf=-0.156760767
								30:leaf=0.149484336
					18:leaf=0.183496803
				16:[tBAM_p_MannWhitneyU_BQ<0.658442974] yes=19,no=20,missing=20
					19:leaf=-0.199925452
					20:leaf=0.0686155111
			6:[tBAM_StrandBias_FET<0.310000002] yes=7,no=8,missing=8
				7:[nBAM_REF_Discordant<29] yes=9,no=10,missing=10
					9:[N_REF_REV<625] yes=11,no=12,missing=12
						11:[tBAM_REF_Concordant<156] yes=13,no=14,missing=14
							13:leaf=0.176677495
							14:leaf=-0.180640727
						12:leaf=0.441254109
					10:leaf=-0.192424849
				8:leaf=-0.228812426
		4:leaf=0.141884431
	2:leaf=-0.154385939
booster[43]:
0:[tBAM_REF_Discordant<3] yes=1,no=2,missing=2
	1:[tBAM_p_MannWhitneyU_EndPos<0.868124008] yes=3,no=4,missing=3
		3:leaf=-0.195607096
		4:leaf=0.090246588
	2:[nBAM_REF_Discordant<10] yes=5,no=6,missing=6
		5:[N_REF_FOR<266] yes=7,no=8,missing=8
			7:[T_REF_FOR<55] yes=9,no=10,missing=10
				9:leaf=0.161950856
				10:[Seq_Complexity_Span<12.3593769] yes=11,no=12,missing=12
					11:leaf=0.115919329
					12:[Consistent_Mates<2] yes=13,no=14,missing=14
						13:leaf=-0.245591879
						14:leaf=0.0161700547
			8:[tBAM_REF_BQ<29.9088993] yes=43,no=44,missing=44
				43:[tBAM_REF_Discordant<12] yes=45,no=46,missing=46
					45:leaf=-0.0105134854
					46:leaf=0.319644719
				44:leaf=-0.0794923306
		6:[N_DP<414] yes=15,no=16,missing=16
			15:[tBAM_REF_Discordant<20] yes=21,no=22,missing=22
				21:[T_REF_REV<60] yes=23,no=24,missing=24
					23:[M2_TLOD<50.0800018] yes=25,no=26,missing=26
						25:leaf=0.193383366
						26:leaf=-0.137377188
					24:[tBAM_p_MannWhitneyU_BQ<0.563193023] yes=27,no=28,missing=28
						27:leaf=-0.0186473373
						28:leaf=0.304509044
				22:[nBAM_REF_BQ<29.8708992] yes=35,no=36,missing=36
					35:leaf=0.113682494
					36:leaf=-0.139023915
			16:[T_REF_FOR<79] yes=17,no=18,missing=18
				17:leaf=-0.171572447
				18:[VarScan2_Score<9.39999962] yes=19,no=20,missing=20
					19:leaf=-0.178298801
					20:[if_MuTect<1] yes=29,no=30,missing=30
						29:[VarScan2_Score<9.77000046] yes=33,no=34,missing=34
							33:leaf=0.209779277
							34:[tBAM_NM_Diff<0.049586799] yes=37,no=38,missing=38
								37:leaf=0.237035379
								38:[T_REF_REV<417] yes=39,no=40,missing=40
									39:[T_REF_REV<356] yes=41,no=42,missing=42
										41:leaf=-0.017041903
										42:leaf=0.166847438
									40:leaf=-0.200019315
						30:[T_ALT_FOR<104] yes=31,no=32,missing=32
							31:leaf=0.16863814
							32:leaf=-0.104572497
booster[44]:
0:[tBAM_p_MannWhitneyU_EndPos<0.998939991] yes=1,no=2,missing=2
	1:[T_ALT_FOR<57] yes=5,no=6,missing=6
		5:[VarDict_Score<32.4399986] yes=9,no=10,missing=9
			9:[tBAM_StrandBias_FET<0.430000007] yes=17,no=18,missing=18
				17:[tBAM_p_MannWhitneyU_EndPos<0.0679790005] yes=19,no=20,missing=20
					19:leaf=-0.127842575
					20:[M2_NLOD<173.630005] yes=21,no=22,missing=22
						21:leaf=-0.147257149
						22:leaf=0.0724286735
				18:[nBAM_REF_Discordant<18] yes=23,no=24,missing=24
					23:[tBAM_REF_BQ<29.8675003] yes=29,no=30,missing=30
						29:leaf=-0.0587339774
						30:[nBAM_REF_Discordant<15] yes=31,no=32,missing=32
							31:[Seq_Complexity_Adj<12.3593769] yes=33,no=34,missing=34
								33:leaf=0.156124994
								34:leaf=-0.0980825424
							32:[VarDict_Score<14.0699997] yes=35,no=36,missing=36
								35:leaf=0.0315605551
								36:leaf=0.391444176
					24:[SHIFT3<2] yes=25,no=26,missing=25
						25:[nBAM_REF_NM<0.0372413993] yes=37,no=38,missing=38
							37:[T_REF_REV<181] yes=45,no=46,missing=46
								45:leaf=-0.155731007
								46:leaf=0.217936397
							38:[N_REF_REV<793] yes=39,no=40,missing=40
								39:[N_REF_FOR<231] yes=41,no=42,missing=42
									41:[N_REF_FOR<212] yes=43,no=44,missing=44
										43:leaf=-0.110539518
										44:leaf=0.312221706
									42:leaf=-0.172377646
								40:leaf=0.0431603491
						26:[nBAM_REF_BQ<29.9302998] yes=27,no=28,missing=28
							27:leaf=-0.139072925
							28:leaf=0.318324625
			10:[T_ALT_FOR<2] yes=11,no=12,missing=12
				11:leaf=-0.0977237076
				12:[tBAM_REF_Discordant<18] yes=13,no=14,missing=14
					13:leaf=0.00797283743
					14:[T_ALT_REV<2] yes=15,no=16,missing=16
						15:leaf=-0.0481601395
						16:leaf=0.195997313
		6:[T_REF_FOR<123] yes=7,no=8,missing=8
			7:leaf=-0.219830945
			8:leaf=0.150466144
	2:[M2_TLOD<60.1100006] yes=3,no=4,missing=3
		3:leaf=-0.183142915
		4:leaf=0.0821093246
booster[45]:
0:[tBAM_REF_Clipped_Reads<3] yes=1,no=2,missing=2
	1:[tBAM_NM_Diff<0.818181992] yes=11,no=12,missing=12
		11:[tBAM_p_MannWhitneyU_BQ<0.607034028] yes=13,no=14,missing=14
			13:leaf=0.134280667
			14:[N_DP<1033] yes=15,no=16,missing=16
				15:[nBAM_REF_NM<0.0959206] yes=17,no=18,missing=18
					17:[nBAM_REF_NM<0.0584416017] yes=19,no=20,missing=20
						19:leaf=-0.00752335228
						20:leaf=0.337867945
					18:leaf=-0.0791452304
				16:leaf=-0.138038769
		12:[T_ALT_FOR<4] yes=21,no=22,missing=22
			21:[tBAM_REF_Discordant<19] yes=27,no=28,missing=28
				27:[tBAM_REF_BQ<29.4134007] yes=39,no=40,missing=39
					39:leaf=-0.158607319
					40:leaf=0.0447930843
				28:[T_REF_REV<172] yes=29,no=30,missing=30
					29:[tBAM_REF_Concordant<292] yes=31,no=32,missing=32
						31:[nBAM_REF_NM<0.0435098] yes=41,no=42,missing=42
							41:[tBAM_NM_Diff<0.926173985] yes=43,no=44,missing=43
								43:leaf=-0.157819197
								44:leaf=0.233201668
							42:[nBAM_REF_NM<0.0550847016] yes=45,no=46,missing=46
								45:leaf=-0.196195886
								46:leaf=-0.0121817086
						32:[tBAM_p_MannWhitneyU_BQ<0.550998986] yes=35,no=36,missing=36
							35:leaf=-0.158664539
							36:leaf=0.242002115
					30:[N_REF_REV<658] yes=33,no=34,missing=34
						33:[nBAM_REF_NM<0.0372413993] yes=37,no=38,missing=38
							37:leaf=0.0938723162
							38:leaf=-0.207529858
						34:leaf=0.000583079935
			22:[tBAM_ALT_Discordant<3] yes=23,no=24,missing=24
				23:leaf=0.0898816958
				24:[tBAM_NM_Diff<0.947030008] yes=25,no=26,missing=26
					25:leaf=0.0703399181
					26:leaf=-0.132686183
	2:[T_ALT_REV<2] yes=3,no=4,missing=4
		3:leaf=-0.212208673
		4:[T_REF_FOR<203] yes=5,no=6,missing=6
			5:[T_ALT_FOR<3] yes=7,no=8,missing=8
				7:leaf=-0.196136817
				8:leaf=0.045389384
			6:[N_REF_FOR<746] yes=9,no=10,missing=10
				9:leaf=0.174438134
				10:leaf=-0.0946941003
booster[46]:
0:[T_ALT_REV<1] yes=1,no=2,missing=2
	1:[tBAM_p_MannWhitneyU_EndPos<0.309233993] yes=3,no=4,missing=4
		3:leaf=-0.176515415
		4:[tBAM_p_MannWhitneyU_EndPos<0.386813015] yes=5,no=6,missing=6
			5:leaf=0.262145698
			6:[tBAM_p_MannWhitneyU_BQ<0.612824023] yes=7,no=8,missing=8
				7:[nBAM_REF_BQ<29.8232002] yes=9,no=10,missing=10
					9:leaf=0.204046965
					10:[SiteHomopolymer_Length<4] yes=11,no=12,missing=12
						11:leaf=-0.136246949
						12:leaf=0.0795421004
				8:leaf=-0.169107139
	2:[Consistent_Mates<1] yes=13,no=14,missing=14
		13:[T_ALT_FOR<1] yes=15,no=16,missing=16
			15:[SHIFT3<1] yes=17,no=18,missing=18
				17:[tBAM_ALT_NM<1.25] yes=19,no=20,missing=20
					19:[T_REF_REV<173] yes=39,no=40,missing=40
						39:[N_REF_REV<211] yes=43,no=44,missing=44
							43:leaf=-0.167514086
							44:leaf=0.12411397
						40:[tBAM_StrandBias_FET<0.0599999987] yes=41,no=42,missing=42
							41:leaf=0.0746867657
							42:leaf=-0.223469511
					20:[Seq_Complexity_Span<15.8665552] yes=35,no=36,missing=36
						35:leaf=0.0464047715
						36:leaf=0.386089206
				18:leaf=-0.158216447
			16:[tBAM_p_MannWhitneyU_BQ<0.555110991] yes=29,no=30,missing=30
				29:leaf=-0.03385894
				30:[M2_TLOD<11.7700005] yes=31,no=32,missing=32
					31:leaf=-0.147900954
					32:[tBAM_REF_Discordant<8] yes=33,no=34,missing=34
						33:leaf=-0.0418273658
						34:leaf=0.182796434
		14:[tBAM_ALT_Concordant<5] yes=21,no=22,missing=22
			21:[tBAM_p_MannWhitneyU_EndPos<0.502647996] yes=23,no=24,missing=24
				23:[tBAM_ALT_Discordant<1] yes=25,no=26,missing=26
					25:[Seq_Complexity_Adj<13.5698137] yes=27,no=28,missing=28
						27:leaf=-0.156750694
						28:[MSI<3] yes=45,no=46,missing=46
							45:leaf=-0.031597361
							46:leaf=0.172048837
					26:leaf=0.245231271
				24:[T_ALT_REV<3] yes=37,no=38,missing=38
					37:leaf=-0.252952516
					38:leaf=0.000543642323
			22:leaf=0.0189326368
booster[47]:
0:[nBAM_StrandBias_FET<0.409999996] yes=1,no=2,missing=2
	1:leaf=-0.143743053
	2:[nBAM_StrandBias_FET<0.460000008] yes=3,no=4,missing=4
		3:leaf=0.16330573
		4:[nBAM_NM_Diff<0.94282198] yes=5,no=6,missing=6
			5:[SOR<0.054362949] yes=9,no=10,missing=10
				9:leaf=0.0582720749
				10:leaf=-0.219125777
			6:[nBAM_NM_Diff<0.943603992] yes=7,no=8,missing=8
				7:leaf=0.224712461
				8:[nBAM_REF_Discordant<42] yes=11,no=12,missing=12
					11:[nBAM_REF_BQ<29.8962994] yes=23,no=24,missing=23
						23:[T_DP<261] yes=39,no=40,missing=40
							39:[T_REF_REV<106] yes=43,no=44,missing=44
								43:[tBAM_Concordance_FET<0.779999971] yes=45,no=46,missing=46
									45:leaf=0.0917976126
									46:leaf=-0.117721364
								44:leaf=0.159557283
							40:[T_REF_REV<142] yes=41,no=42,missing=42
								41:leaf=-0.189074799
								42:leaf=-0.0114420708
						24:[N_REF_REV<477] yes=25,no=26,missing=26
							25:[N_REF_REV<389] yes=27,no=28,missing=28
								27:leaf=0.0208155401
								28:[MSI<3] yes=29,no=30,missing=30
									29:leaf=-0.218721792
									30:leaf=0.0967883244
							26:[Seq_Complexity_Span<13.0582886] yes=31,no=32,missing=32
								31:leaf=-0.19918035
								32:[SiteHomopolymer_Length<3] yes=33,no=34,missing=34
									33:leaf=0.149188399
									34:[tBAM_NM_Diff<0.76821202] yes=35,no=36,missing=35
										35:leaf=0.251992524
										36:[nBAM_REF_Discordant<35] yes=37,no=38,missing=38
											37:leaf=-0.114167221
											38:leaf=0.129751667
					12:[N_REF_FOR<1106] yes=13,no=14,missing=14
						13:[nBAM_REF_Discordant<70] yes=15,no=16,missing=16
							15:[Strelka_Score<10.1400003] yes=17,no=18,missing=17
								17:[tBAM_REF_BQ<29.9309998] yes=21,no=22,missing=22
									21:leaf=-0.244376794
									22:leaf=0.0571051165
								18:leaf=0.0845840648
							16:[Seq_Complexity_Span<14.8192015] yes=19,no=20,missing=20
								19:leaf=-0.145582721
								20:leaf=0.198765144
						14:leaf=0.127480194
booster[48]:
0:[tBAM_p_MannWhitneyU_EndPos<0.00388262002] yes=1,no=2,missing=1
	1:leaf=-0.113815047
	2:[nBAM_REF_BQ<29.9740009] yes=3,no=4,missing=4
		3:[tBAM_Concordance_FET<0.0199999996] yes=13,no=14,missing=14
			13:leaf=-0.0991676003
			14:[M2_TLOD<496.040009] yes=15,no=16,missing=15
				15:[if_Caller_0<1] yes=17,no=18,missing=18
					17:[N_REF_FOR<200] yes=25,no=26,missing=26
						25:[Seq_Complexity_Span<15.4886694] yes=31,no=32,missing=32
							31:[N_REF_FOR<122] yes=41,no=42,missing=42
								41:[nBAM_REF_NM<0.0523255989] yes=43,no=44,missing=44
									43:leaf=0.134404331
									44:[MSILEN<2] yes=45,no=46,missing=45
										45:leaf=-0.222313389
										46:leaf=0.174263686
								42:leaf=-0.216616869
							32:[Seq_Complexity_Adj<13.1983957] yes=33,no=34,missing=34
								33:leaf=0.223988622
								34:leaf=-0.0905159488
						26:[N_DP<370] yes=27,no=28,missing=28
							27:[N_REF_REV<93] yes=29,no=30,missing=30
								29:leaf=-0.0633516908
								30:leaf=0.346592426
							28:[tBAM_REF_NM<0.192574993] yes=35,no=36,missing=36
								35:leaf=0.0219237376
								36:[tBAM_p_MannWhitneyU_EndPos<0.248532996] yes=37,no=38,missing=38
									37:[N_REF_FOR<262] yes=39,no=40,missing=40
										39:leaf=0.311037779
										40:leaf=-0.0280300621
									38:leaf=-0.157188341
					18:[T_REF_REV<97] yes=19,no=20,missing=20
						19:[M2_NLOD<95.9800034] yes=23,no=24,missing=23
							23:leaf=0.0831059143
							24:leaf=-0.120180279
						20:[T_ALT_FOR<2] yes=21,no=22,missing=22
							21:leaf=-0.0548774973
							22:leaf=0.177569285
				16:leaf=-0.168877184
		4:[T_REF_FOR<133] yes=5,no=6,missing=6
			5:[tBAM_p_MannWhitneyU_BQ<0.623044014] yes=7,no=8,missing=7
				7:[M2_TLOD<267.100006] yes=9,no=10,missing=10
					9:leaf=0.0561540201
					10:leaf=-0.171910539
				8:[tBAM_StrandBias_FET<0.519999981] yes=11,no=12,missing=12
					11:leaf=0.222227484
					12:leaf=-0.0496479645
			6:leaf=-0.223667577
booster[49]:
0:[tBAM_REF_BQ<29.5153008] yes=1,no=2,missing=2
	1:[Seq_Complexity_Span<14.2392817] yes=3,no=4,missing=4
		3:leaf=-0.0878083855
		4:[SiteHomopolymer_Length<3] yes=5,no=6,missing=6
			5:[tBAM_REF_NM<0.129999995] yes=9,no=10,missing=10
				9:[tBAM_StrandBias_FET<0.50999999] yes=19,no=20,missing=20
					19:leaf=0.247929022
					20:leaf=-0.0691661835
				10:[Seq_Complexity_Span<15.1410484] yes=21,no=22,missing=22
					21:leaf=0.0604501851
					22:leaf=-0.153872162
			6:[tBAM_ALT_Concordant<5] yes=7,no=8,missing=8
				7:[T_REF_REV<174] yes=11,no=12,missing=12
					11:leaf=0.0145939784
					12:[tBAM_p_MannWhitneyU_EndPos<0.684355974] yes=17,no=18,missing=18
						17:leaf=0.413535744
						18:leaf=0.0529199056
				8:leaf=0.00422333507
	2:[tBAM_REF_BQ<29.6268997] yes=13,no=14,missing=14
		13:[Seq_Complexity_Span<15.8665552] yes=15,no=16,missing=16
			15:leaf=-0.153245121
			16:leaf=0.0640209839
		14:[tBAM_p_MannWhitneyU_EndPos<0.936173022] yes=23,no=24,missing=24
			23:[tBAM_p_MannWhitneyU_EndPos<0.803453982] yes=25,no=26,missing=26
				25:[tBAM_NM_Diff<1.68219995] yes=31,no=32,missing=32
					31:[tBAM_p_MannWhitneyU_EndPos<0.704945982] yes=33,no=34,missing=34
						33:[Seq_Complexity_Adj<13.0582886] yes=37,no=38,missing=38
							37:[nBAM_REF_Concordant<379] yes=39,no=40,missing=40
								39:[nBAM_REF_Concordant<256] yes=41,no=42,missing=42
									41:leaf=-0.0601183474
									42:[tBAM_p_MannWhitneyU_EndPos<0.412824005] yes=43,no=44,missing=44
										43:leaf=-0.016350016
										44:leaf=0.321359456
								40:leaf=-0.144977152
							38:leaf=0.0322628245
						34:leaf=-0.124318458
					32:leaf=-0.203352273
				26:[tBAM_REF_BQ<29.9437008] yes=27,no=28,missing=28
					27:[tBAM_REF_NM<0.0757576004] yes=45,no=46,missing=46
						45:leaf=0.252488106
						46:leaf=0.0668440461
					28:leaf=-0.0922684297
			24:[Seq_Complexity_Span<13.9759922] yes=29,no=30,missing=30
				29:leaf=0.039155297
				30:[Seq_Complexity_Span<16.5801144] yes=35,no=36,missing=36
					35:leaf=-0.155934036
					36:leaf=0.140935138
booster[50]:
0:[tBAM_ALT_Concordant<4] yes=1,no=2,missing=2
	1:[nBAM_REF_Clipped_Reads<3] yes=3,no=4,missing=4
		3:[tBAM_REF_Concordant<56] yes=9,no=10,missing=10
			9:leaf=0.133834407
			10:[tBAM_REF_BQ<29.7257004] yes=11,no=12,missing=12
				11:[tBAM_REF_NM<0.105263002] yes=13,no=14,missing=14
					13:[T_REF_FOR<130] yes=15,no=16,missing=16
						15:leaf=-0.115320027
						16:leaf=0.274359643
					14:[nBAM_REF_Discordant<30] yes=39,no=40,missing=40
						39:[nBAM_REF_Discordant<21] yes=41,no=42,missing=42
							41:leaf=-0.125340968
							42:[T_REF_FOR<153] yes=43,no=44,missing=44
								43:leaf=0.262818366
								44:[N_REF_FOR<526] yes=45,no=46,missing=46
									45:leaf=-0.186890721
									46:leaf=0.119273715
						40:leaf=-0.151278794
				12:[tBAM_REF_Concordant<353] yes=17,no=18,missing=18
					17:[tBAM_REF_Concordant<290] yes=19,no=20,missing=20
						19:[T_REF_FOR<147] yes=25,no=26,missing=26
							25:[T_DP<216] yes=27,no=28,missing=28
								27:[MSILEN<2] yes=31,no=32,missing=32
									31:leaf=-0.220017165
									32:leaf=0.0992513672
								28:[tBAM_REF_NM<0.0827068016] yes=29,no=30,missing=30
									29:[N_REF_FOR<238] yes=33,no=34,missing=34
										33:leaf=-0.043279063
										34:[nBAM_REF_NM<0.0550847016] yes=35,no=36,missing=36
											35:leaf=-0.0277427975
											36:leaf=0.318890333
									30:leaf=-0.129026026
							26:leaf=-0.201573595
						20:[Seq_Complexity_Span<13.5698137] yes=21,no=22,missing=22
							21:leaf=0.211199984
							22:[tBAM_REF_Concordant<297] yes=23,no=24,missing=24
								23:leaf=0.242748916
								24:leaf=-0.192398891
					18:leaf=-0.17074047
		4:[nBAM_REF_NM<0.166281998] yes=5,no=6,missing=6
			5:[nBAM_REF_Discordant<27] yes=7,no=8,missing=8
				7:leaf=0.30581212
				8:leaf=-0.0403310731
			6:leaf=-0.14322871
	2:[tBAM_ALT_Discordant<16] yes=37,no=38,missing=38
		37:leaf=0.0190335028
		38:leaf=-0.155450791
booster[51]:
0:[tBAM_NM_Diff<0.818181992] yes=1,no=2,missing=2
	1:[Seq_Complexity_Span<13.5698137] yes=3,no=4,missing=4
		3:[nBAM_REF_NM<0.904007971] yes=5,no=6,missing=6
			5:leaf=-0.165317088
			6:leaf=0.121399969
		4:[Seq_Complexity_Span<15.6110134] yes=7,no=8,missing=8
			7:leaf=0.121793889
			8:leaf=-0.0611913428
	2:[tBAM_p_MannWhitneyU_EndPos<0.104152001] yes=9,no=10,missing=9
		9:[T_ALT_FOR<3] yes=11,no=12,missing=12
			11:[tBAM_NM_Diff<0.972130001] yes=15,no=16,missing=15
				15:[Seq_Complexity_Span<16.1380768] yes=35,no=36,missing=36
					35:leaf=-0.251766503
					36:leaf=0.0302296523
				16:leaf=-0.0175299328
			12:[nBAM_REF_NM<0.129717007] yes=13,no=14,missing=14
				13:[N_REF_FOR<649] yes=33,no=34,missing=34
					33:leaf=0.10557697
					34:leaf=-0.12445838
				14:leaf=-0.194280431
		10:[Seq_Complexity_Adj<15.1410484] yes=17,no=18,missing=18
			17:[Seq_Complexity_Adj<14.9238558] yes=23,no=24,missing=24
