booster[0]:
0:[if_MuTect<1] yes=1,no=2,missing=2
	1:[M2_TLOD<24.9899998] yes=3,no=4,missing=3
		3:[SHIFT3<1] yes=21,no=22,missing=22
			21:[T_ALT_FOR<4] yes=23,no=24,missing=24
				23:leaf=-0.461157054
				24:[MSI<4] yes=37,no=38,missing=38
					37:leaf=0.365217388
					38:leaf=-0.312000006
			22:[tBAM_REF_InDel_1bp<22] yes=31,no=32,missing=32
				31:leaf=-0.575953007
				32:[T_ALT_REV<2] yes=33,no=34,missing=34
					33:leaf=0.300000012
					34:leaf=-0.502040863
		4:[Seq_Complexity_Span<12.6632032] yes=7,no=8,missing=8
			7:[SHIFT3<1] yes=27,no=28,missing=28
				27:leaf=0.0580645166
				28:leaf=-0.523728848
			8:[T_ALT_FOR<3] yes=9,no=10,missing=10
				9:[InDel_Length<-2] yes=41,no=42,missing=42
					41:leaf=0.230769247
					42:leaf=-0.570731699
				10:[Consistent_Mates<1] yes=15,no=16,missing=16
					15:leaf=0.440559477
					16:[InDel_Length<-2] yes=25,no=26,missing=26
						25:leaf=0.355555564
						26:[tBAM_REF_InDel_3bp<14] yes=43,no=44,missing=44
							43:[SHIFT3<4] yes=45,no=46,missing=45
								45:leaf=0.0191489365
								46:leaf=-0.373584926
							44:leaf=-0.376271218
	2:[if_Caller_0<1] yes=5,no=6,missing=6
		5:[tBAM_p_MannWhitneyU_EndPos<1] yes=11,no=12,missing=12
			11:[MSI<7] yes=17,no=18,missing=18
				17:[if_Scalpel<1] yes=19,no=20,missing=20
					19:[M2_TLOD<12.8900003] yes=35,no=36,missing=36
						35:leaf=-0.0153846163
						36:leaf=0.49387756
					20:leaf=-0.266666681
				18:[tBAM_ALT_MQ<59.7804985] yes=29,no=30,missing=30
					29:leaf=0.41538465
					30:leaf=-0.509433985
			12:leaf=-0.470270306
		6:[if_VarDict<1] yes=13,no=14,missing=14
			13:leaf=-0.242553204
			14:[M2_TLOD<7.82999992] yes=39,no=40,missing=40
				39:leaf=0.0400000028
				40:leaf=0.580952406
booster[1]:
0:[if_MuTect<1] yes=1,no=2,missing=2
	1:[M2_TLOD<17.7199993] yes=3,no=4,missing=3
		3:[SHIFT3<3] yes=23,no=24,missing=24
			23:[if_Caller_0<1] yes=25,no=26,missing=26
				25:[InDel_Length<-3] yes=31,no=32,missing=32
					31:[tBAM_REF_NM<0.163700998] yes=33,no=34,missing=34
						33:leaf=0.21669589
						34:leaf=-0.418757617
					32:leaf=-0.422563732
				26:[if_VarDict<1] yes=35,no=36,missing=36
					35:leaf=-0.22379598
					36:[tBAM_REF_InDel_2bp<1] yes=41,no=42,missing=42
						41:leaf=0.501433969
						42:leaf=-0.0589464232
			24:leaf=-0.453003138
		4:[SHIFT3<9] yes=7,no=8,missing=7
			7:[T_ALT_FOR<2] yes=11,no=12,missing=12
				11:[InDel_Length<-2] yes=37,no=38,missing=38
					37:leaf=0.247228101
					38:leaf=-0.460344881
				12:[MaxHomopolymer_Length<9] yes=13,no=14,missing=14
					13:[T_ALT_REV<25] yes=15,no=16,missing=16
						15:[Seq_Complexity_Span<10.188096] yes=17,no=18,missing=18
							17:leaf=-0.403293937
							18:[tBAM_NM_Diff<0.436441004] yes=27,no=28,missing=28
								27:leaf=0.428133875
								28:leaf=-0.167752773
						16:[tBAM_REF_InDel_2bp<4] yes=43,no=44,missing=44
							43:[InDel_Length<1] yes=45,no=46,missing=46
								45:leaf=0.275556654
								46:leaf=-0.0645488873
							44:leaf=-0.226567283
					14:leaf=-0.395651191
			8:leaf=-0.455778927
	2:[if_Caller_0<1] yes=5,no=6,missing=6
		5:[SHIFT3<6] yes=9,no=10,missing=10
			9:[if_Scalpel<1] yes=19,no=20,missing=20
				19:leaf=0.267001301
				20:[tBAM_REF_Discordant<50] yes=39,no=40,missing=40
					39:leaf=-0.35190466
					40:leaf=0.292876899
			10:[tBAM_ALT_MQ<59.7804985] yes=29,no=30,missing=30
				29:leaf=0.265795559
				30:leaf=-0.445525676
		6:[if_VarDict<1] yes=21,no=22,missing=22
			21:leaf=-0.178685635
			22:leaf=0.434939474
booster[2]:
0:[if_MuTect<1] yes=1,no=2,missing=2
	1:[M2_TLOD<17.7199993] yes=3,no=4,missing=3
		3:[SHIFT3<1] yes=25,no=26,missing=26
			25:[tBAM_REF_Discordant<40] yes=27,no=28,missing=28
				27:[tBAM_REF_NM<0.147435993] yes=43,no=44,missing=44
					43:[Consistent_Mates<1] yes=45,no=46,missing=46
						45:leaf=0.434769839
						46:leaf=-0.10616643
					44:leaf=-0.245533317
				28:leaf=-0.303717077
			26:[tBAM_REF_InDel_1bp<22] yes=33,no=34,missing=34
				33:leaf=-0.382389039
				34:[T_ALT_REV<2] yes=35,no=36,missing=36
					35:leaf=0.315836698
					36:leaf=-0.339857459
		4:[SHIFT3<9] yes=7,no=8,missing=7
			7:[T_ALT_FOR<1] yes=13,no=14,missing=14
				13:leaf=-0.369694412
				14:[Seq_Complexity_Adj<11.9668446] yes=15,no=16,missing=16
					15:leaf=-0.235613242
					16:[T_ALT_REV<21] yes=17,no=18,missing=18
						17:[tBAM_Other_Reads<8] yes=21,no=22,missing=22
							21:leaf=0.371279597
							22:leaf=-0.281311929
						18:[tBAM_REF_InDel_3bp<14] yes=31,no=32,missing=32
							31:leaf=0.015943313
							32:leaf=-0.26816085
			8:leaf=-0.386182815
	2:[tBAM_p_MannWhitneyU_EndPos<1] yes=5,no=6,missing=6
		5:[if_VarDict<1] yes=9,no=10,missing=10
			9:[T_ALT_REV<10] yes=29,no=30,missing=30
				29:[tBAM_StrandBias_FET<0.0199999996] yes=39,no=40,missing=40
					39:leaf=0.477727473
					40:leaf=-0.193565086
				30:leaf=-0.440158397
			10:[M2_TLOD<10.0900002] yes=11,no=12,missing=12
				11:[tBAM_REF_Discordant<66] yes=41,no=42,missing=42
					41:leaf=0.104467109
					42:leaf=-0.350780964
				12:[if_Scalpel<1] yes=19,no=20,missing=20
					19:leaf=0.386894375
					20:[tBAM_Concordance_FET<0.0799999982] yes=37,no=38,missing=38
						37:leaf=0.285391301
						38:leaf=-0.280729771
		6:[tBAM_ALT_BQ<30] yes=23,no=24,missing=23
			23:leaf=-0.366173536
			24:leaf=0.20724979
booster[3]:
0:[if_MuTect<1] yes=1,no=2,missing=2
	1:[M2_TLOD<8.76000023] yes=3,no=4,missing=3
		3:[SHIFT3<3] yes=17,no=18,missing=18
			17:[if_Caller_0<1] yes=19,no=20,missing=20
				19:[InDel_Length<-3] yes=31,no=32,missing=32
					31:[Seq_Complexity_Span<15.0310946] yes=35,no=36,missing=36
						35:leaf=-0.212217912
						36:leaf=0.371155202
					32:[T_ALT_REV<27] yes=41,no=42,missing=42
						41:leaf=-0.323197007
						42:leaf=0.413440257
				20:leaf=0.140382111
			18:leaf=-0.355961472
		4:[SHIFT3<8] yes=5,no=6,missing=5
			5:[T_ALT_FOR<4] yes=9,no=10,missing=10
				9:[InDel_Length<-1] yes=27,no=28,missing=28
					27:[if_VarDict<1] yes=39,no=40,missing=40
						39:leaf=-0.314226389
						40:leaf=0.398988545
					28:leaf=-0.340341091
				10:[Seq_Complexity_Span<13.1277771] yes=13,no=14,missing=14
					13:[tBAM_Other_Reads<5] yes=23,no=24,missing=24
						23:leaf=0.0241640527
						24:leaf=-0.308651537
					14:[T_ALT_REV<18] yes=15,no=16,missing=16
						15:[tBAM_NM_Diff<0.393014997] yes=37,no=38,missing=38
							37:leaf=0.348148137
							38:leaf=-0.247234374
						16:[M2_TLOD<17.4300003] yes=29,no=30,missing=30
							29:leaf=0.698151588
							30:[InDel_Length<1] yes=43,no=44,missing=44
								43:[SHIFT3<6] yes=45,no=46,missing=46
									45:leaf=0.31521818
									46:leaf=-0.189003333
								44:leaf=-0.0591192283
			6:leaf=-0.338865757
	2:[if_Caller_0<1] yes=7,no=8,missing=8
		7:[SHIFT3<4] yes=11,no=12,missing=12
			11:[tBAM_REF_Discordant<13] yes=25,no=26,missing=26
				25:leaf=-0.352259964
				26:leaf=0.153549314
			12:leaf=-0.253379673
		8:[if_VarDict<1] yes=21,no=22,missing=22
			21:leaf=-0.0839746669
			22:[M2_TLOD<6.42999983] yes=33,no=34,missing=34
				33:leaf=-0.194133565
				34:leaf=0.34521845
booster[4]:
0:[M2_TLOD<8.01000023] yes=1,no=2,missing=1
	1:[SHIFT3<3] yes=13,no=14,missing=14
		13:[if_Caller_0<1] yes=15,no=16,missing=16
			15:[tBAM_REF_Discordant<48] yes=21,no=22,missing=22
				21:leaf=-0.096390821
				22:[tBAM_REF_InDel_1bp<14] yes=37,no=38,missing=38
					37:leaf=-0.333176613
					38:leaf=0.215863138
			16:leaf=0.088588357
		14:leaf=-0.328475893
	2:[SHIFT3<7] yes=3,no=4,missing=4
		3:[T_ALT_REV<35] yes=5,no=6,missing=6
			5:[tBAM_REF_NM<1.26733005] yes=17,no=18,missing=18
				17:leaf=0.298045397
				18:leaf=-0.191587895
			6:[InDel_Length<1] yes=7,no=8,missing=8
				7:[tBAM_ALT_Discordant<23] yes=11,no=12,missing=12
					11:[tBAM_REF_Discordant<16] yes=33,no=34,missing=34
						33:leaf=-0.272669792
						34:leaf=0.338443607
					12:[tBAM_REF_Discordant<69] yes=19,no=20,missing=20
						19:leaf=-0.355464488
						20:leaf=0.320832551
				8:[T_ALT_FOR<61] yes=25,no=26,missing=26
					25:leaf=-0.402603656
					26:[T_ALT_REV<87] yes=27,no=28,missing=28
						27:[T_REF_REV<97] yes=45,no=46,missing=46
							45:leaf=-0.275566816
							46:leaf=0.396102846
						28:[tBAM_ALT_NM<1.03846002] yes=39,no=40,missing=40
							39:leaf=0.214890316
							40:leaf=-0.351109087
		4:[tBAM_ALT_Clipped_Reads<2] yes=9,no=10,missing=10
			9:[Seq_Complexity_Span<13.5698137] yes=31,no=32,missing=32
				31:[tBAM_REF_InDel_1bp<55] yes=35,no=36,missing=36
					35:leaf=-0.319773406
					36:leaf=0.292131215
				32:[T_ALT_FOR<6] yes=41,no=42,missing=42
					41:leaf=-0.306551963
					42:leaf=-0.0241708439
			10:[tBAM_NM_Diff<0.214286] yes=23,no=24,missing=23
				23:[T_REF_FOR<357] yes=29,no=30,missing=30
					29:[T_REF_REV<253] yes=43,no=44,missing=44
						43:leaf=0.0291625243
						44:leaf=0.422269166
					30:leaf=-0.132742867
				24:leaf=-0.330458641
booster[5]:
0:[M2_TLOD<6.42999983] yes=1,no=2,missing=1
	1:[SHIFT3<3] yes=13,no=14,missing=14
		13:[Consistent_Mates<1] yes=15,no=16,missing=16
			15:[T_ALT_FOR<1] yes=17,no=18,missing=18
				17:leaf=-0.210007742
				18:[tBAM_REF_Discordant<57] yes=27,no=28,missing=28
					27:[Seq_Complexity_Span<12.6007137] yes=29,no=30,missing=30
						29:leaf=-0.215256587
						30:leaf=0.454387605
					28:leaf=-0.106265627
			16:[tBAM_Concordance_FET<0.25] yes=31,no=32,missing=32
				31:leaf=0.275613874
				32:leaf=-0.309827834
		14:leaf=-0.30900389
	2:[SHIFT3<7] yes=3,no=4,missing=4
		3:[T_ALT_REV<49] yes=5,no=6,missing=6
			5:[Seq_Complexity_Adj<12.0754232] yes=23,no=24,missing=24
				23:[MSI<5] yes=25,no=26,missing=26
					25:[T_REF_FOR<21] yes=45,no=46,missing=46
						45:leaf=-0.299277365
						46:leaf=0.245994464
					26:leaf=-0.4345752
				24:leaf=0.248247847
			6:[InDel_Length<1] yes=7,no=8,missing=8
				7:[tBAM_REF_Discordant<38] yes=21,no=22,missing=22
					21:[tBAM_ALT_Discordant<10] yes=41,no=42,missing=42
						41:leaf=0.193116054
						42:leaf=-0.354373753
					22:[tBAM_ALT_Discordant<31] yes=35,no=36,missing=36
						35:leaf=0.342654139
						36:leaf=-0.12576361
				8:[T_ALT_FOR<56] yes=37,no=38,missing=38
					37:leaf=-0.385670245
					38:[T_ALT_REV<81] yes=39,no=40,missing=40
						39:leaf=0.210723519
						40:leaf=-0.193989858
		4:[InDel_Length<1] yes=9,no=10,missing=10
			9:leaf=-0.277256876
			10:[T_ALT_REV<2] yes=11,no=12,missing=12
				11:leaf=0.361206353
				12:[if_Caller_0<1] yes=19,no=20,missing=20
					19:leaf=-0.30695495
					20:[tBAM_REF_InDel_3bp<2] yes=33,no=34,missing=34
						33:[T_REF_REV<385] yes=43,no=44,missing=44
							43:leaf=0.0201936737
							44:leaf=0.406349987
						34:leaf=-0.169928297
booster[6]:
0:[M2_TLOD<935.150024] yes=1,no=2,missing=2
	1:[SHIFT3<8] yes=3,no=4,missing=3
		3:[T_ALT_FOR<4] yes=5,no=6,missing=6
			5:[if_VarDict<1] yes=15,no=16,missing=16
				15:leaf=-0.325583756
				16:[Consistent_Mates<2] yes=23,no=24,missing=24
					23:[Inconsistent_Mates<5] yes=35,no=36,missing=36
						35:[MaxHomopolymer_Length<7] yes=41,no=42,missing=42
							41:leaf=0.219555646
							42:leaf=-0.255766928
						36:leaf=-0.322814703
					24:leaf=-0.384303093
			6:[if_MuTect<1] yes=7,no=8,missing=8
				7:[tBAM_NM_Diff<0.660601974] yes=13,no=14,missing=13
					13:[Seq_Complexity_Span<13.1277771] yes=17,no=18,missing=18
						17:[InDel_Length<1] yes=29,no=30,missing=30
							29:leaf=-0.233691201
							30:[if_Caller_0<1] yes=43,no=44,missing=44
								43:leaf=-0.22729215
								44:leaf=0.129946664
						18:[M2_TLOD<28.2099991] yes=19,no=20,missing=20
							19:[T_REF_FOR<375] yes=21,no=22,missing=22
								21:leaf=0.478860766
								22:leaf=-0.0318161435
							20:leaf=0.06068388
					14:leaf=-0.267233521
				8:[M2_TLOD<10.2799997] yes=25,no=26,missing=26
					25:[Inconsistent_Mates<1] yes=33,no=34,missing=34
						33:leaf=-0.21140489
						34:leaf=0.362739921
					26:[if_Scalpel<1] yes=27,no=28,missing=28
						27:leaf=0.293532223
						28:[SHIFT3<2] yes=31,no=32,missing=32
							31:leaf=0.279928267
							32:leaf=-0.263086945
		4:[tBAM_ALT_NM<12] yes=11,no=12,missing=11
			11:leaf=-0.297167033
			12:leaf=0.470029533
	2:[SHIFT3<1] yes=9,no=10,missing=10
		9:[tBAM_p_MannWhitneyU_BQ<0.580725014] yes=37,no=38,missing=38
			37:leaf=-0.186816961
			38:[tBAM_NM_Diff<0.103563003] yes=39,no=40,missing=40
				39:leaf=0.183002234
				40:leaf=-0.207015142
		10:[tBAM_REF_InDel_1bp<3] yes=45,no=46,missing=46
			45:leaf=-0.286520839
			46:leaf=-0.0950690955
booster[7]:
0:[M2_TLOD<935.150024] yes=1,no=2,missing=2
	1:[MSI<4] yes=3,no=4,missing=4
		3:[tBAM_ALT_Clipped_Reads<4] yes=9,no=10,missing=10
			9:[T_ALT_FOR<1] yes=13,no=14,missing=14
				13:leaf=-0.205245107
				14:[InDel_Length<-22] yes=17,no=18,missing=18
					17:leaf=-0.457775265
					18:[T_REF_FOR<113] yes=19,no=20,missing=20
						19:leaf=-0.0645623356
						20:[tBAM_StrandBias_FET<0.910000026] yes=37,no=38,missing=38
							37:leaf=0.271727443
							38:[if_Caller_0<1] yes=39,no=40,missing=40
								39:leaf=-0.263600111
								40:leaf=0.175262198
			10:[T_ALT_REV<22] yes=33,no=34,missing=34
				33:leaf=0.206002668
				34:[T_ALT_FOR<112] yes=35,no=36,missing=36
					35:leaf=-0.306226075
					36:leaf=0.0975106582
		4:[SHIFT3<8] yes=5,no=6,missing=5
			5:[T_ALT_FOR<4] yes=11,no=12,missing=12
				11:leaf=-0.26087296
				12:[tBAM_NM_Diff<0.436441004] yes=23,no=24,missing=23
					23:[MaxHomopolymer_Length<9] yes=25,no=26,missing=26
						25:[tBAM_REF_InDel_3bp<17] yes=41,no=42,missing=42
							41:[T_ALT_REV<7] yes=43,no=44,missing=44
								43:leaf=-0.144297957
								44:[T_ALT_FOR<104] yes=45,no=46,missing=46
									45:leaf=0.145783931
									46:leaf=-0.13621898
							42:leaf=0.273352146
						26:leaf=-0.229337439
					24:leaf=-0.219097003
			6:leaf=-0.285878241
	2:[SHIFT3<3] yes=7,no=8,missing=8
		7:[InDel_Length<-2] yes=15,no=16,missing=16
			15:[tBAM_NM_Diff<0.393014997] yes=21,no=22,missing=22
				21:[Seq_Complexity_Span<12.9225607] yes=27,no=28,missing=28
					27:leaf=-0.192790702
					28:leaf=0.422184587
				22:leaf=-0.156611577
			16:[if_Caller_0<1] yes=29,no=30,missing=30
				29:[tBAM_StrandBias_FET<0.189999998] yes=31,no=32,missing=32
					31:leaf=-0.00401241984
					32:leaf=-0.246516243
				30:leaf=0.0512018166
		8:leaf=-0.279519916
booster[8]:
0:[M2_TLOD<1052] yes=1,no=2,missing=2
	1:[SHIFT3<8] yes=3,no=4,missing=3
		3:[T_ALT_FOR<1] yes=7,no=8,missing=8
			7:[tBAM_ALT_NM<15] yes=45,no=46,missing=45
				45:leaf=-0.283599168
				46:leaf=0.211913034
			8:[if_MuTect<1] yes=9,no=10,missing=10
				9:[T_ALT_REV<1] yes=41,no=42,missing=42
					41:[Inconsistent_Mates<1] yes=43,no=44,missing=44
						43:leaf=-0.163173214
						44:leaf=0.31453234
					42:leaf=-0.019905746
				10:[M2_TLOD<9.39999962] yes=21,no=22,missing=22
					21:[Seq_Complexity_Adj<13.4174147] yes=29,no=30,missing=30
						29:leaf=0.21741046
						30:leaf=-0.199566409
					22:[T_REF_FOR<148] yes=23,no=24,missing=24
						23:[SHIFT3<2] yes=39,no=40,missing=40
							39:leaf=0.153902277
							40:leaf=-0.238561094
						24:[InDel_Length<-22] yes=27,no=28,missing=28
							27:leaf=-0.280368686
							28:leaf=0.25194487
		4:[tBAM_ALT_NM<5] yes=19,no=20,missing=19
			19:leaf=-0.274205893
			20:[Seq_Complexity_Adj<11.3668652] yes=25,no=26,missing=26
				25:leaf=-0.219662786
				26:leaf=0.467945784
	2:[SHIFT3<3] yes=5,no=6,missing=6
		5:[Consistent_Mates<1] yes=11,no=12,missing=12
			11:[Seq_Complexity_Span<12.6007137] yes=15,no=16,missing=16
				15:leaf=-0.254196227
				16:[tBAM_REF_Discordant<48] yes=17,no=18,missing=18
					17:leaf=0.282375157
					18:leaf=-0.0815960765
			12:[tBAM_Concordance_FET<0.209999993] yes=13,no=14,missing=14
				13:[tBAM_REF_Discordant<38] yes=31,no=32,missing=32
					31:leaf=-0.182522491
					32:leaf=0.339658588
				14:leaf=-0.261121869
		6:[tBAM_REF_InDel_2bp<5] yes=33,no=34,missing=34
			33:leaf=-0.271775037
			34:[tBAM_ALT_NM<2.01009989] yes=35,no=36,missing=36
				35:[MaxHomopolymer_Length<8] yes=37,no=38,missing=38
					37:leaf=0.769715071
					38:leaf=-0.170603409
				36:leaf=-0.231052667
booster[9]:
0:[if_Caller_0<1] yes=1,no=2,missing=2
	1:[SHIFT3<3] yes=7,no=8,missing=8
		7:[tBAM_Concordance_FET<0.270000011] yes=9,no=10,missing=10
			9:[tBAM_REF_InDel_2bp<8] yes=33,no=34,missing=34
				33:leaf=0.204913199
				34:leaf=-0.111032985
			10:[Consistent_Mates<1] yes=13,no=14,missing=14
				13:[tBAM_p_MannWhitneyU_BQ<0.583245993] yes=23,no=24,missing=23
					23:leaf=-0.133515
					24:[tBAM_REF_Clipped_Reads<5] yes=25,no=26,missing=26
						25:leaf=0.307617784
						26:leaf=-0.126097426
				14:leaf=-0.242453605
		8:[T_REF_REV<729] yes=27,no=28,missing=28
			27:leaf=-0.251456261
			28:[T_REF_FOR<260] yes=29,no=30,missing=30
				29:leaf=0.576493919
				30:leaf=-0.105971016
	2:[Seq_Complexity_Adj<11.3204155] yes=3,no=4,missing=4
		3:[SHIFT3<4] yes=39,no=40,missing=40
			39:leaf=0.0281043909
			40:leaf=-0.282958955
		4:[if_VarDict<1] yes=5,no=6,missing=6
			5:[T_ALT_FOR<12] yes=11,no=12,missing=12
				11:[M2_TLOD<34.7999992] yes=43,no=44,missing=44
					43:[tBAM_REF_NM<0.134327993] yes=45,no=46,missing=46
						45:leaf=0.231687933
						46:leaf=-0.267377675
					44:leaf=-0.313550591
				12:[tBAM_StrandBias_FET<0.00999999978] yes=21,no=22,missing=22
					21:[InDel_Length<1] yes=41,no=42,missing=42
						41:leaf=-0.197615892
						42:leaf=0.285797149
					22:leaf=-0.0225043017
			6:[tBAM_ALT_Discordant<1] yes=15,no=16,missing=16
				15:[tBAM_Other_Reads<7] yes=17,no=18,missing=18
					17:[M2_TLOD<864.51001] yes=35,no=36,missing=36
						35:leaf=0.240167782
						36:[tBAM_p_MannWhitneyU_EndPos<0.194104999] yes=37,no=38,missing=38
							37:leaf=-0.0396574773
							38:leaf=0.612537026
					18:leaf=-0.211848617
				16:[if_MuTect<1] yes=19,no=20,missing=20
					19:[T_ALT_FOR<91] yes=31,no=32,missing=32
						31:leaf=-0.133695409
						32:leaf=0.195083112
					20:leaf=0.253160655
booster[10]:
0:[M2_TLOD<935.150024] yes=1,no=2,missing=2
	1:[Seq_Complexity_Span<13.0582886] yes=3,no=4,missing=4
		3:[tBAM_Other_Reads<1] yes=11,no=12,missing=12
			11:leaf=0.0319089666
			12:leaf=-0.16834113
		4:[T_ALT_FOR<5] yes=7,no=8,missing=8
			7:[tBAM_NM_Diff<-0.148438007] yes=37,no=38,missing=37
				37:leaf=-0.265754253
				38:leaf=-0.00317428424
			8:[if_MuTect<1] yes=9,no=10,missing=10
				9:[InDel_Length<-2] yes=33,no=34,missing=34
					33:leaf=0.254559636
					34:[tBAM_Other_Reads<17] yes=43,no=44,missing=44
						43:leaf=-0.00669807196
						44:[tBAM_p_MannWhitneyU_BQ<0.672623992] yes=45,no=46,missing=46
							45:leaf=-0.0561344661
							46:leaf=0.512921035
				10:leaf=0.194859967
	2:[SHIFT3<3] yes=5,no=6,missing=6
		5:[tBAM_NM_Diff<-0.0682594031] yes=13,no=14,missing=13
			13:[tBAM_REF_NM<0.478469014] yes=15,no=16,missing=16
				15:[tBAM_REF_Discordant<28] yes=17,no=18,missing=18
					17:leaf=0.4248707
					18:[tBAM_ALT_NM<1.20000005] yes=19,no=20,missing=19
						19:[tBAM_ALT_Concordant<6] yes=21,no=22,missing=22
							21:leaf=-0.227325842
							22:leaf=0.128805563
						20:leaf=0.271152347
				16:leaf=-0.242054492
			14:leaf=-0.170781851
		6:[tBAM_Other_Reads<2] yes=23,no=24,missing=24
			23:[if_Caller_0<1] yes=25,no=26,missing=26
				25:[T_REF_FOR<89] yes=29,no=30,missing=30
					29:[tBAM_REF_Concordant<217] yes=35,no=36,missing=36
						35:leaf=-0.17052497
						36:leaf=0.581106603
					30:[tBAM_REF_Discordant<36] yes=39,no=40,missing=40
						39:[tBAM_REF_Concordant<769] yes=41,no=42,missing=42
							41:leaf=-0.136280701
							42:leaf=0.309031188
						40:leaf=-0.271972537
				26:[tBAM_NM_Diff<0.0233350005] yes=27,no=28,missing=27
					27:[tBAM_REF_Clipped_Reads<2] yes=31,no=32,missing=32
						31:leaf=-0.0424994119
						32:leaf=0.814423501
					28:leaf=-0.190353051
			24:leaf=-0.280989528
booster[11]:
0:[if_Caller_0<1] yes=1,no=2,missing=2
	1:[MSI<5] yes=5,no=6,missing=6
		5:[T_ALT_REV<4] yes=7,no=8,missing=8
			7:[InDel_Length<1] yes=9,no=10,missing=10
				9:[tBAM_REF_Discordant<25] yes=15,no=16,missing=16
					15:leaf=0.122372419
					16:leaf=-0.242184505
				10:[tBAM_StrandBias_FET<0.579999983] yes=23,no=24,missing=24
					23:leaf=0.310721457
					24:leaf=-0.1439908
			8:[tBAM_ALT_Concordant<54] yes=11,no=12,missing=12
				11:leaf=0.235133663
				12:[tBAM_Concordance_FET<0.209999993] yes=33,no=34,missing=34
					33:leaf=0.0387340896
					34:leaf=-0.236822724
		6:leaf=-0.218353689
	2:[Seq_Complexity_Adj<11.3204155] yes=3,no=4,missing=4
		3:[InDel_Length<1] yes=41,no=42,missing=42
			41:leaf=-0.269152343
			42:leaf=0.0121295238
		4:[if_VarDict<1] yes=13,no=14,missing=14
			13:[T_REF_FOR<350] yes=17,no=18,missing=18
				17:[MSI<2] yes=21,no=22,missing=21
					21:[tBAM_Other_Reads<7] yes=25,no=26,missing=26
						25:[M2_TLOD<42.4399986] yes=27,no=28,missing=27
							27:[T_ALT_REV<38] yes=29,no=30,missing=30
								29:[T_ALT_REV<6] yes=35,no=36,missing=36
									35:leaf=0.312151015
									36:leaf=-0.129049122
								30:leaf=0.700121224
							28:[T_ALT_FOR<34] yes=37,no=38,missing=38
								37:leaf=-0.236467764
								38:leaf=0.119529583
						26:leaf=-0.128489867
					22:leaf=-0.151986107
				18:[M2_TLOD<75.7399979] yes=19,no=20,missing=19
					19:leaf=-0.331253946
					20:leaf=-0.00925595034
			14:[tBAM_ALT_Clipped_Reads<5] yes=31,no=32,missing=32
				31:[tBAM_REF_InDel_3bp<56] yes=39,no=40,missing=40
					39:[SHIFT3<10] yes=43,no=44,missing=44
						43:[M2_TLOD<9.39999962] yes=45,no=46,missing=46
							45:leaf=-0.0369359255
							46:leaf=0.219972
						44:leaf=-0.136525363
					40:leaf=-0.270345002
				32:leaf=-0.113502018
booster[12]:
0:[MaxHomopolymer_Length<9] yes=1,no=2,missing=2
	1:[T_ALT_FOR<4] yes=3,no=4,missing=4
		3:[tBAM_REF_Discordant<46] yes=5,no=6,missing=6
			5:[tBAM_REF_Concordant<769] yes=11,no=12,missing=12
				11:[InDel_Length<-2] yes=41,no=42,missing=42
					41:leaf=0.110173538
					42:[SHIFT3<1] yes=43,no=44,missing=44
						43:leaf=0.133845463
						44:leaf=-0.200956717
				12:[tBAM_REF_Concordant<1017] yes=23,no=24,missing=24
					23:[Seq_Complexity_Adj<12.3593769] yes=27,no=28,missing=28
						27:leaf=-0.175643459
						28:[Consistent_Mates<2] yes=29,no=30,missing=30
							29:leaf=0.563410163
							30:leaf=-0.143392652
					24:leaf=-0.135665014
			6:[T_REF_FOR<89] yes=7,no=8,missing=8
				7:leaf=0.486916572
				8:[tBAM_ALT_NM<12] yes=21,no=22,missing=21
					21:leaf=-0.23235327
					22:leaf=0.159815431
		4:[Seq_Complexity_Span<10.0825939] yes=9,no=10,missing=10
			9:leaf=-0.249801338
			10:[tBAM_NM_Diff<0.416732997] yes=13,no=14,missing=13
				13:[Consistent_Mates<3] yes=15,no=16,missing=16
					15:[T_REF_FOR<358] yes=17,no=18,missing=18
						17:leaf=0.260270745
						18:[M2_TLOD<9.39999962] yes=19,no=20,missing=19
							19:[SHIFT3<3] yes=45,no=46,missing=46
								45:leaf=0.0816558897
								46:leaf=-0.275050461
							20:leaf=0.162029102
					16:[InDel_Length<1] yes=31,no=32,missing=32
						31:[T_ALT_FOR<6] yes=37,no=38,missing=38
							37:leaf=-0.247424543
							38:leaf=0.138455674
						32:[M2_TLOD<7.11000013] yes=33,no=34,missing=33
							33:[T_ALT_REV<34] yes=35,no=36,missing=36
								35:leaf=-0.0804240704
								36:leaf=0.762721419
							34:[T_ALT_FOR<13] yes=39,no=40,missing=40
								39:leaf=-0.347083658
								40:leaf=-0.0276662633
				14:[tBAM_ALT_Discordant<1] yes=25,no=26,missing=26
					25:leaf=0.119908847
					26:leaf=-0.269906819
	2:leaf=-0.253764629
booster[13]:
0:[MaxHomopolymer_Length<9] yes=1,no=2,missing=2
	1:[if_Caller_0<1] yes=3,no=4,missing=4
		3:[tBAM_StrandBias_FET<0.620000005] yes=5,no=6,missing=6
			5:[T_ALT_FOR<1] yes=33,no=34,missing=34
				33:leaf=-0.15782851
				34:[tBAM_ALT_Discordant<1] yes=35,no=36,missing=36
					35:[MSI<4] yes=37,no=38,missing=38
						37:leaf=0.216908321
						38:[Inconsistent_Mates<1] yes=41,no=42,missing=42
							41:[Seq_Complexity_Adj<12.6007137] yes=43,no=44,missing=44
								43:leaf=-0.284717858
								44:[Seq_Complexity_Adj<12.9225607] yes=45,no=46,missing=46
									45:leaf=0.370131314
									46:leaf=-0.0864364877
							42:leaf=0.21690312
					36:[SHIFT3<4] yes=39,no=40,missing=39
						39:leaf=-0.00975270942
						40:leaf=-0.251363218
			6:[tBAM_ALT_NM<8] yes=7,no=8,missing=7
				7:[T_ALT_REV<5] yes=23,no=24,missing=24
					23:leaf=-0.229448631
					24:leaf=-0.0351940691
				8:leaf=0.255448937
		4:[tBAM_NM_Diff<0.175230995] yes=9,no=10,missing=9
			9:[if_VarScan2<1] yes=11,no=12,missing=12
				11:[T_ALT_REV<5] yes=15,no=16,missing=16
					15:[tBAM_REF_InDel_2bp<1] yes=19,no=20,missing=20
						19:[MSI<4] yes=21,no=22,missing=22
							21:leaf=0.2146945
							22:leaf=-0.183955878
						20:leaf=0.305260658
					16:leaf=-0.0259850137
				12:[Seq_Complexity_Span<12.1307478] yes=13,no=14,missing=14
					13:leaf=-0.166746259
					14:[InDel_Length<-18] yes=25,no=26,missing=26
						25:leaf=-0.242775813
						26:[M2_TLOD<40.5200005] yes=29,no=30,missing=30
							29:leaf=0.0835321546
							30:[tBAM_REF_InDel_2bp<7] yes=31,no=32,missing=32
								31:leaf=0.359508723
								32:leaf=-0.0482331552
			10:leaf=-0.122509502
	2:[Seq_Complexity_Span<13.8089352] yes=17,no=18,missing=18
		17:leaf=-0.262735188
		18:[T_ALT_REV<20] yes=27,no=28,missing=28
			27:leaf=-0.174852192
			28:leaf=0.460967422
booster[14]:
0:[MSI<9] yes=1,no=2,missing=1
	1:[Seq_Complexity_Span<9.87898159] yes=3,no=4,missing=4
		3:leaf=-0.226525575
		4:[tBAM_ALT_Concordant<5] yes=5,no=6,missing=6
			5:[tBAM_REF_Discordant<48] yes=7,no=8,missing=8
				7:[tBAM_REF_Concordant<752] yes=23,no=24,missing=24
					23:[tBAM_REF_Discordant<14] yes=35,no=36,missing=36
						35:leaf=0.225085631
						36:leaf=-0.105639108
					24:leaf=0.217045084
				8:[tBAM_REF_Concordant<264] yes=9,no=10,missing=10
					9:leaf=0.197088912
					10:leaf=-0.224195078
			6:[tBAM_REF_NM<0.985074997] yes=11,no=12,missing=11
				11:[Consistent_Mates<2] yes=13,no=14,missing=14
					13:[tBAM_Other_Reads<6] yes=15,no=16,missing=16
						15:[T_ALT_FOR<1] yes=17,no=18,missing=18
							17:[InDel_Length<-1] yes=21,no=22,missing=22
								21:leaf=0.2225869
								22:leaf=-0.243992567
							18:leaf=0.215021834
						16:[T_REF_REV<543] yes=29,no=30,missing=30
							29:leaf=-0.278506696
							30:leaf=0.175255343
					14:[T_ALT_FOR<4] yes=19,no=20,missing=20
						19:leaf=-0.23671864
						20:[tBAM_REF_InDel_1bp<11] yes=25,no=26,missing=26
							25:[tBAM_REF_Clipped_Reads<25] yes=31,no=32,missing=32
								31:[InDel_Length<1] yes=37,no=38,missing=38
									37:[tBAM_ALT_Discordant<29] yes=43,no=44,missing=44
										43:[M2_TLOD<10.0900002] yes=45,no=46,missing=45
											45:leaf=-0.0381173082
											46:leaf=0.199355409
										44:leaf=-0.170450434
									38:[M2_TLOD<13.6400003] yes=39,no=40,missing=39
										39:[T_ALT_REV<29] yes=41,no=42,missing=42
											41:leaf=-0.0289093759
											42:leaf=0.511752427
										40:leaf=-0.0160791874
								32:leaf=-0.190707371
							26:[tBAM_REF_NM<0.104185] yes=27,no=28,missing=28
								27:leaf=0.160861596
								28:leaf=-0.25170967
				12:[tBAM_ALT_Discordant<1] yes=33,no=34,missing=34
					33:leaf=0.0650215298
					34:leaf=-0.319490045
	2:leaf=-0.254989266
booster[15]:
0:[SHIFT3<9] yes=1,no=2,missing=1
	1:[tBAM_NM_Diff<0.756623983] yes=3,no=4,missing=3
		3:[MaxHomopolymer_Length<11] yes=7,no=8,missing=8
			7:[InDel_Length<-1] yes=9,no=10,missing=10
				9:[MSI<7] yes=13,no=14,missing=14
					13:[tBAM_ALT_NM<23] yes=23,no=24,missing=23
						23:[Consistent_Mates<1] yes=27,no=28,missing=28
							27:[InDel_Length<-32] yes=35,no=36,missing=36
								35:leaf=-0.176279634
								36:leaf=0.319471359
							28:[T_ALT_REV<4] yes=29,no=30,missing=30
								29:leaf=-0.237881958
								30:[tBAM_REF_Discordant<38] yes=31,no=32,missing=32
									31:[tBAM_ALT_Discordant<8] yes=33,no=34,missing=34
										33:leaf=0.18030484
										34:leaf=-0.319194317
									32:leaf=0.24751316
						24:[SHIFT3<2] yes=25,no=26,missing=26
							25:leaf=-0.546522558
							26:leaf=0.224065438
					14:leaf=-0.178992271
				10:[T_ALT_FOR<3] yes=11,no=12,missing=12
					11:[T_REF_FOR<89] yes=15,no=16,missing=16
						15:[MaxHomopolymer_Length<6] yes=37,no=38,missing=38
							37:leaf=-0.107686728
							38:leaf=0.430880278
						16:[SHIFT3<1] yes=17,no=18,missing=18
							17:leaf=0.0662455633
							18:[tBAM_ALT_BQ<28.4090996] yes=41,no=42,missing=42
								41:leaf=0.131313607
								42:leaf=-0.223827735
					12:[T_REF_FOR<677] yes=19,no=20,missing=20
						19:[tBAM_REF_Discordant<16] yes=21,no=22,missing=22
							21:leaf=-0.19019486
							22:[tBAM_NM_Diff<-0.104884997] yes=43,no=44,missing=44
								43:[M2_TLOD<24.1599998] yes=45,no=46,missing=45
									45:leaf=0.30091396
									46:leaf=0.032722313
								44:leaf=0.00381591637
						20:leaf=-0.193622276
			8:leaf=-0.212150902
		4:leaf=-0.240428999
	2:[tBAM_REF_NM<0.0409956016] yes=5,no=6,missing=6
		5:[tBAM_ALT_NM<3] yes=39,no=40,missing=39
			39:leaf=-0.157558098
			40:leaf=0.437835276
		6:leaf=-0.24121663
booster[16]:
0:[MSI<9] yes=1,no=2,missing=1
	1:[Seq_Complexity_Span<9.87898159] yes=3,no=4,missing=4
		3:leaf=-0.191083282
		4:[tBAM_NM_Diff<0.756623983] yes=5,no=6,missing=5
			5:[InDel_Length<-2] yes=7,no=8,missing=8
				7:[tBAM_REF_BQ<29.9587994] yes=11,no=12,missing=11
					11:[SHIFT3<10] yes=13,no=14,missing=14
						13:[InDel_Length<-21] yes=33,no=34,missing=34
							33:[SHIFT3<1] yes=39,no=40,missing=40
								39:leaf=-0.444104403
								40:leaf=0.0760117769
							34:[tBAM_ALT_Concordant<184] yes=35,no=36,missing=36
								35:[M2_TLOD<16.6599998] yes=37,no=38,missing=38
									37:leaf=-0.107301615
									38:leaf=0.298071593
								36:leaf=-0.139241964
						14:leaf=-0.239563078
					12:leaf=0.324994445
				8:[T_ALT_FOR<2] yes=9,no=10,missing=10
					9:[InDel_Length<-1] yes=43,no=44,missing=44
						43:leaf=0.155085593
						44:[tBAM_REF_NM<0.120104] yes=45,no=46,missing=46
							45:leaf=-0.0621367097
							46:leaf=-0.266709626
					10:[Consistent_Mates<2] yes=15,no=16,missing=16
						15:[InDel_Length<1] yes=17,no=18,missing=18
							17:[T_ALT_REV<2] yes=19,no=20,missing=20
								19:leaf=-0.184671074
								20:[SHIFT3<3] yes=21,no=22,missing=22
									21:leaf=0.470981002
									22:[SiteHomopolymer_Length<3] yes=27,no=28,missing=28
										27:[tBAM_ALT_NM<1.19379997] yes=29,no=30,missing=30
											29:[Seq_Complexity_Span<13.7277565] yes=41,no=42,missing=42
												41:leaf=-0.0676204935
												42:leaf=0.359362781
											30:leaf=-0.202401802
										28:leaf=-0.283107638
							18:[tBAM_Clipping_FET<0.0399999991] yes=25,no=26,missing=26
								25:leaf=-0.0967318937
								26:leaf=0.330194503
						16:[T_ALT_FOR<4] yes=23,no=24,missing=24
							23:leaf=-0.212175623
							24:[tBAM_REF_InDel_3bp<2] yes=31,no=32,missing=32
								31:leaf=0.0390699394
								32:leaf=-0.0712106675
			6:leaf=-0.192610011
	2:leaf=-0.228041545
booster[17]:
0:[Seq_Complexity_Adj<11.8609133] yes=1,no=2,missing=2
	1:[tBAM_ALT_BQ<29.9029007] yes=3,no=4,missing=3
		3:leaf=-0.259341836
		4:[tBAM_p_MannWhitneyU_BQ<0.53036201] yes=5,no=6,missing=6
			5:leaf=0.199047789
			6:[tBAM_REF_InDel_1bp<1] yes=7,no=8,missing=8
				7:[MaxHomopolymer_Length<5] yes=11,no=12,missing=12
					11:leaf=-0.026013596
					12:leaf=-0.253347695
				8:[tBAM_ALT_NM<1.86206996] yes=9,no=10,missing=10
					9:leaf=0.30319649
					10:leaf=-0.157020494
	2:[MSI<2] yes=13,no=14,missing=14
		13:[tBAM_StrandBias_FET<0.0299999993] yes=15,no=16,missing=16
			15:leaf=-0.167494968
			16:leaf=0.191187784
		14:[InDel_Length<-4] yes=17,no=18,missing=18
			17:[SHIFT3<1] yes=19,no=20,missing=19
				19:[tBAM_ALT_NM<20] yes=21,no=22,missing=22
					21:leaf=0.053908471
					22:leaf=-0.427096069
				20:leaf=0.295242131
			18:[SHIFT3<8] yes=23,no=24,missing=23
				23:[tBAM_NM_Diff<-0.0990099013] yes=27,no=28,missing=27
					27:[MSI<7] yes=37,no=38,missing=37
						37:leaf=0.0241338536
						38:[tBAM_p_MannWhitneyU_BQ<0.641842008] yes=39,no=40,missing=40
							39:leaf=-0.00888459571
							40:leaf=0.633918107
					28:[M2_TLOD<112.089996] yes=29,no=30,missing=30
						29:[T_ALT_REV<74] yes=33,no=34,missing=34
							33:[T_ALT_FOR<58] yes=35,no=36,missing=36
								35:[M2_TLOD<10.71] yes=41,no=42,missing=42
									41:leaf=-0.0864610523
									42:[tBAM_p_MannWhitneyU_EndPos<0.28322801] yes=43,no=44,missing=44
										43:leaf=-0.200769663
										44:[tBAM_REF_InDel_3bp<2] yes=45,no=46,missing=46
											45:leaf=0.225689754
											46:leaf=-0.0510810763
								36:leaf=-0.267844886
							34:leaf=0.368142575
						30:[M2_TLOD<120.949997] yes=31,no=32,missing=32
							31:leaf=-0.457915753
							32:leaf=-0.0643850192
				24:[M2_TLOD<38.6800003] yes=25,no=26,missing=25
					25:leaf=-0.255986184
					26:leaf=0.180520922
booster[18]:
0:[MaxHomopolymer_Length<11] yes=1,no=2,missing=2
	1:[tBAM_REF_NM<1.33884001] yes=3,no=4,missing=3
		3:[T_REF_FOR<743] yes=5,no=6,missing=6
			5:[tBAM_ALT_Concordant<3] yes=7,no=8,missing=8
				7:[tBAM_REF_Concordant<124] yes=9,no=10,missing=10
					9:[tBAM_ALT_NM<2.08332992] yes=37,no=38,missing=38
						37:leaf=0.319756955
						38:leaf=-0.112296142
					10:[Seq_Complexity_Span<15.2538586] yes=11,no=12,missing=12
						11:leaf=-0.18940632
						12:leaf=0.0791753903
				8:[Consistent_Mates<2] yes=13,no=14,missing=14
					13:[tBAM_Other_Reads<2] yes=17,no=18,missing=18
						17:[T_REF_FOR<265] yes=19,no=20,missing=20
							19:[tBAM_REF_Concordant<756] yes=25,no=26,missing=26
								25:[T_ALT_FOR<1] yes=35,no=36,missing=36
									35:leaf=-0.094369173
									36:leaf=0.247360349
								26:leaf=0.587519586
							20:[MSI<4] yes=23,no=24,missing=24
								23:[T_ALT_FOR<1] yes=27,no=28,missing=28
									27:leaf=-0.0637584105
									28:leaf=0.245188653
								24:[SHIFT3<3] yes=45,no=46,missing=46
									45:leaf=0.185557783
									46:leaf=-0.0905158222
						18:leaf=-0.0526155792
					14:[tBAM_ALT_Concordant<8] yes=15,no=16,missing=16
						15:[tBAM_StrandBias_FET<0.460000008] yes=21,no=22,missing=22
							21:[tBAM_p_MannWhitneyU_EndPos<0.370175987] yes=43,no=44,missing=44
								43:leaf=0.251636863
								44:leaf=-0.182962686
							22:leaf=-0.291381925
						16:[tBAM_REF_InDel_2bp<8] yes=29,no=30,missing=30
							29:[T_REF_FOR<434] yes=41,no=42,missing=42
								41:leaf=0.00743598817
								42:leaf=0.127490386
							30:[tBAM_REF_NM<0.104185] yes=31,no=32,missing=32
								31:leaf=0.0773680881
								32:[tBAM_Other_Reads<6] yes=33,no=34,missing=34
									33:leaf=-0.300479531
									34:leaf=0.110503964
			6:leaf=-0.200456977
		4:leaf=-0.228524059
	2:[tBAM_Other_Reads<4] yes=39,no=40,missing=40
		39:leaf=0.101998143
		40:leaf=-0.271632314
booster[19]:
0:[tBAM_Concordance_FET<0.0199999996] yes=1,no=2,missing=2
	1:leaf=0.0490754433
	2:[tBAM_Other_Reads<2] yes=3,no=4,missing=4
		3:[Seq_Complexity_Span<15.6110134] yes=7,no=8,missing=8
			7:[tBAM_NM_Diff<0.660601974] yes=9,no=10,missing=10
				9:[Seq_Complexity_Span<14.6171675] yes=13,no=14,missing=14
					13:[T_DP<480] yes=17,no=18,missing=18
						17:[T_REF_FOR<227] yes=19,no=20,missing=20
							19:leaf=0.0487383902
							20:leaf=0.437764347
						18:[T_REF_FOR<270] yes=21,no=22,missing=22
							21:[T_DP<556] yes=25,no=26,missing=26
								25:leaf=-0.130646467
								26:[tBAM_REF_BQ<29.9200001] yes=31,no=32,missing=32
									31:[T_DP<794] yes=35,no=36,missing=36
										35:leaf=0.128785819
										36:leaf=0.576562464
									32:leaf=0.0049763089
							22:[InDel_Length<2] yes=23,no=24,missing=24
								23:[tBAM_p_MannWhitneyU_BQ<0.612622976] yes=27,no=28,missing=28
									27:leaf=-0.214234546
									28:leaf=-0.00581692252
								24:leaf=0.154755831
					14:[MaxHomopolymer_Length<5] yes=15,no=16,missing=16
						15:[Seq_Complexity_Adj<13.9759922] yes=37,no=38,missing=38
							37:leaf=0.374776244
							38:leaf=0.105833635
						16:leaf=-0.0503734089
				10:leaf=-0.153173313
			8:[tBAM_ALT_NM<2.20000005] yes=11,no=12,missing=11
				11:leaf=-0.199442521
				12:[SHIFT3<2] yes=29,no=30,missing=30
					29:leaf=-0.152575448
					30:leaf=0.220793262
		4:[Seq_Complexity_Span<13.2701817] yes=5,no=6,missing=6
			5:leaf=-0.162179232
			6:[M2_TLOD<622.47998] yes=33,no=34,missing=33
				33:[tBAM_Other_Reads<11] yes=39,no=40,missing=40
					39:[T_REF_FOR<373] yes=43,no=44,missing=44
						43:[T_ALT_REV<3] yes=45,no=46,missing=46
							45:leaf=0.269845039
							46:leaf=-0.0288789514
						44:leaf=-0.131437346
					40:[InDel_Length<1] yes=41,no=42,missing=42
						41:leaf=0.340475738
						42:leaf=-0.157242239
				34:leaf=-0.264606267
booster[20]:
0:[tBAM_REF_Clipped_Reads<70] yes=1,no=2,missing=2
	1:[MSI<8] yes=3,no=4,missing=3
		3:[T_REF_REV<18] yes=9,no=10,missing=10
			9:leaf=-0.229518473
			10:[T_DP<404] yes=11,no=12,missing=12
				11:[tBAM_NM_Diff<-0.0633245036] yes=13,no=14,missing=14
					13:[M2_TLOD<24.1599998] yes=15,no=16,missing=15
						15:[tBAM_StrandBias_FET<0.800000012] yes=17,no=18,missing=18
							17:[tBAM_ALT_NM<3.29167008] yes=19,no=20,missing=20
								19:leaf=0.499107659
								20:leaf=-0.0415255465
							18:leaf=-0.0579613149
						16:leaf=-0.034059681
					14:leaf=-0.020281449
				12:[T_REF_REV<262] yes=21,no=22,missing=22
					21:[tBAM_REF_NM<0.043396201] yes=23,no=24,missing=24
						23:leaf=0.224434137
						24:[M2_TLOD<151.339996] yes=25,no=26,missing=25
							25:leaf=-0.138406098
							26:[T_ALT_REV<87] yes=27,no=28,missing=28
								27:[SHIFT3<3] yes=29,no=30,missing=30
									29:leaf=0.31363517
									30:leaf=-0.0908487737
								28:leaf=-0.108791485
					22:[tBAM_REF_Discordant<24] yes=31,no=32,missing=32
						31:[tBAM_ALT_NM<1.08695996] yes=33,no=34,missing=33
							33:[tBAM_NM_Diff<-0.0696055964] yes=41,no=42,missing=41
								41:leaf=0.532622993
								42:leaf=-0.0155158099
							34:leaf=-0.0246754121
						32:[MSI<5] yes=35,no=36,missing=35
							35:[tBAM_ALT_NM<1.79999995] yes=37,no=38,missing=37
								37:leaf=-0.0246105175
								38:[tBAM_NM_Diff<0.811735988] yes=39,no=40,missing=40
									39:leaf=0.0931782126
									40:leaf=-0.231987163
							36:[SiteHomopolymer_Length<7] yes=43,no=44,missing=44
								43:[MSI<7] yes=45,no=46,missing=46
									45:leaf=-0.186979055
									46:leaf=0.0412571207
								44:leaf=0.213040918
		4:[Seq_Complexity_Span<13.7277565] yes=5,no=6,missing=6
			5:leaf=-0.23871173
			6:[tBAM_Other_Reads<11] yes=7,no=8,missing=8
				7:leaf=-0.129852027
				8:leaf=0.405958802
	2:leaf=-0.232000932
booster[21]:
0:[SHIFT3<9] yes=1,no=2,missing=1
	1:[tBAM_REF_NM<0.241080001] yes=5,no=6,missing=5
		5:[tBAM_p_MannWhitneyU_BQ<0.604993999] yes=15,no=16,missing=15
			15:[tBAM_ALT_NM<1.79999995] yes=29,no=30,missing=29
				29:[tBAM_StrandBias_FET<0.709999979] yes=31,no=32,missing=32
					31:[tBAM_ALT_Concordant<4] yes=37,no=38,missing=38
						37:[tBAM_StrandBias_FET<0.579999983] yes=39,no=40,missing=40
							39:leaf=-0.222497851
							40:leaf=0.212616622
						38:[tBAM_ALT_Discordant<13] yes=41,no=42,missing=42
							41:leaf=0.058244478
							42:leaf=-0.219223008
					32:leaf=-0.178262785
				30:[tBAM_Other_Reads<8] yes=33,no=34,missing=34
					33:[tBAM_ALT_Concordant<3] yes=43,no=44,missing=44
						43:leaf=-0.0991823077
						44:[Consistent_Mates<1] yes=45,no=46,missing=46
							45:leaf=0.28053543
							46:leaf=0.0351533964
					34:leaf=-0.195831791
			16:[M2_ECNT<3] yes=17,no=18,missing=18
				17:[if_MuTect<1] yes=19,no=20,missing=20
					19:[MSI<3] yes=21,no=22,missing=21
						21:leaf=0.00980770867
						22:[T_ALT_FOR<61] yes=23,no=24,missing=24
							23:[MSI<7] yes=35,no=36,missing=36
								35:leaf=-0.363158315
								36:leaf=-0.00637023151
							24:[T_ALT_REV<84] yes=25,no=26,missing=26
								25:leaf=0.315126479
								26:leaf=-0.195289895
					20:leaf=0.116903171
				18:[Seq_Complexity_Adj<11.3204155] yes=27,no=28,missing=28
					27:leaf=-0.118255429
					28:leaf=0.162774548
		6:[tBAM_NM_Diff<0.197277993] yes=7,no=8,missing=8
			7:[T_ALT_REV<30] yes=9,no=10,missing=10
				9:[MSI<5] yes=11,no=12,missing=12
					11:leaf=0.152252436
					12:[tBAM_StrandBias_FET<0.00999999978] yes=13,no=14,missing=14
						13:leaf=0.209417626
						14:leaf=-0.173069224
				10:leaf=-0.100814074
			8:leaf=-0.221966788
	2:[tBAM_REF_BQ<29.9775009] yes=3,no=4,missing=3
		3:leaf=-0.185130447
		4:leaf=0.211432755
booster[22]:
0:[tBAM_REF_NM<1.33884001] yes=1,no=2,missing=1
	1:[M2_ECNT<6] yes=3,no=4,missing=3
		3:[MaxHomopolymer_Length<11] yes=5,no=6,missing=6
			5:[Seq_Complexity_Adj<6.09625101] yes=7,no=8,missing=8
				7:leaf=-0.224713117
				8:[tBAM_Other_Reads<127] yes=9,no=10,missing=10
					9:[T_REF_FOR<677] yes=13,no=14,missing=14
						13:[MSI<2] yes=17,no=18,missing=18
							17:[tBAM_REF_BQ<29.9790001] yes=19,no=20,missing=20
								19:[tBAM_StrandBias_FET<0.639999986] yes=21,no=22,missing=22
									21:[T_ALT_REV<168] yes=25,no=26,missing=26
										25:leaf=0.296131849
										26:leaf=-0.059651874
									22:[Seq_Complexity_Span<14.7170095] yes=23,no=24,missing=24
										23:leaf=-0.172469214
										24:leaf=0.136905983
								20:leaf=-0.22300981
							18:[tBAM_REF_BQ<29.9775009] yes=27,no=28,missing=27
								27:[SHIFT3<10] yes=35,no=36,missing=35
									35:[InDel_Length<-4] yes=39,no=40,missing=40
										39:[MSILEN<2] yes=41,no=42,missing=42
											41:leaf=0.229238987
											42:[tBAM_ALT_NM<8] yes=43,no=44,missing=44
												43:leaf=0.154149845
												44:leaf=-0.311048776
										40:[SHIFT3<8] yes=45,no=46,missing=45
											45:leaf=-0.00822546612
											46:leaf=-0.191828564
									36:leaf=-0.173015341
								28:[T_DP<750] yes=29,no=30,missing=30
									29:[if_Scalpel<1] yes=31,no=32,missing=32
										31:[Inconsistent_Mates<1] yes=33,no=34,missing=34
											33:leaf=0.0382329151
											34:[MSI<3] yes=37,no=38,missing=38
												37:leaf=0.0142277908
												38:leaf=0.458963633
										32:leaf=-0.102441154
									30:leaf=-0.142924026
						14:[tBAM_Other_Reads<1] yes=15,no=16,missing=16
							15:leaf=0.0848580748
							16:leaf=-0.211484954
					10:[tBAM_ALT_NM<3] yes=11,no=12,missing=12
						11:leaf=0.365098119
						12:leaf=-0.202082396
			6:leaf=-0.217014015
		4:leaf=0.276208878
	2:leaf=-0.194095433
booster[23]:
0:[SiteHomopolymer_Length<7] yes=1,no=2,missing=2
	1:[Seq_Complexity_Span<10.8398008] yes=3,no=4,missing=4
		3:[SHIFT3<8] yes=7,no=8,missing=8
			7:leaf=0.0777121484
			8:leaf=-0.238861814
		4:[Seq_Complexity_Span<10.9233217] yes=5,no=6,missing=6
			5:leaf=0.532925189
			6:[T_ALT_FOR<1] yes=9,no=10,missing=10
				9:[Inconsistent_Mates<1] yes=11,no=12,missing=12
					11:leaf=-0.0104974154
					12:leaf=-0.223124355
				10:[Consistent_Mates<1] yes=13,no=14,missing=14
					13:[InDel_Length<1] yes=15,no=16,missing=16
						15:[T_ALT_REV<1] yes=19,no=20,missing=20
							19:[tBAM_REF_Clipped_Reads<1] yes=29,no=30,missing=30
								29:[T_REF_FOR<342] yes=31,no=32,missing=32
									31:leaf=0.261971444
									32:leaf=-0.160464436
								30:leaf=-0.228115052
							20:[tBAM_NM_Diff<-0.104884997] yes=21,no=22,missing=22
								21:[tBAM_StrandBias_FET<0.409999996] yes=27,no=28,missing=28
									27:leaf=0.483445317
									28:leaf=0.0185690261
								22:[MaxHomopolymer_Length<4] yes=23,no=24,missing=24
									23:leaf=0.242757246
									24:leaf=-0.0784971938
						16:[MaxHomopolymer_Length<7] yes=17,no=18,missing=18
							17:[tBAM_Clipping_FET<0.25999999] yes=33,no=34,missing=34
								33:leaf=0.0543839224
								34:leaf=0.340285599
							18:leaf=-0.145195574
					14:[T_ALT_REV<3] yes=25,no=26,missing=26
						25:leaf=-0.149648845
						26:[tBAM_REF_NM<0.144043997] yes=35,no=36,missing=35
							35:[T_REF_FOR<425] yes=37,no=38,missing=38
								37:leaf=-0.00986163784
								38:[MSI<5] yes=39,no=40,missing=40
									39:[Inconsistent_Mates<5] yes=41,no=42,missing=42
										41:[T_DP<1337] yes=43,no=44,missing=44
											43:leaf=0.40477854
											44:leaf=-0.0638923571
										42:leaf=-0.0448502749
									40:[M2_TLOD<5.78000021] yes=45,no=46,missing=45
										45:leaf=-0.2128364
										46:leaf=0.101444997
							36:leaf=-0.0552247874
	2:leaf=0.155200541
booster[24]:
0:[tBAM_REF_NM<0.985074997] yes=1,no=2,missing=1
	1:[tBAM_REF_NM<0.689230978] yes=3,no=4,missing=4
		3:[Seq_Complexity_Adj<8.74720478] yes=7,no=8,missing=8
			7:leaf=-0.175915673
			8:[tBAM_ALT_Concordant<4] yes=9,no=10,missing=10
				9:[Seq_Complexity_Span<15.2538586] yes=41,no=42,missing=42
					41:leaf=-0.11295893
					42:[Seq_Complexity_Adj<12.9225607] yes=43,no=44,missing=44
						43:leaf=0.32212159
						44:leaf=-0.0324116871
				10:[Consistent_Mates<2] yes=11,no=12,missing=12
					11:[if_VarDict<1] yes=13,no=14,missing=14
						13:[T_ALT_FOR<28] yes=15,no=16,missing=16
							15:leaf=-0.190113157
							16:leaf=0.185328811
						14:[M2_TLOD<8.01000023] yes=19,no=20,missing=20
							19:leaf=-0.0971632749
							20:[tBAM_ALT_Discordant<1] yes=21,no=22,missing=22
								21:[tBAM_ALT_NM<23] yes=23,no=24,missing=24
									23:[tBAM_StrandBias_FET<0.159999996] yes=27,no=28,missing=28
										27:[T_ALT_FOR<2] yes=35,no=36,missing=36
											35:[M2_TLOD<54.2299995] yes=39,no=40,missing=40
												39:leaf=0.176004842
												40:leaf=-0.20363763
											36:[tBAM_REF_BQ<29.8864994] yes=37,no=38,missing=38
												37:leaf=-0.00924063567
												38:leaf=0.320478678
										28:[Seq_Complexity_Adj<12.6007137] yes=29,no=30,missing=30
											29:[tBAM_ALT_NM<3.00952005] yes=33,no=34,missing=34
												33:leaf=-0.116868101
												34:leaf=0.302287698
											30:[tBAM_NM_Diff<-0.0389907993] yes=31,no=32,missing=32
												31:leaf=0.455469579
												32:leaf=0.0971036479
									24:leaf=-0.183816776
								22:leaf=-0.0641241744
					12:[tBAM_ALT_Concordant<8] yes=17,no=18,missing=18
						17:[tBAM_REF_Discordant<20] yes=25,no=26,missing=26
							25:leaf=0.155234352
							26:leaf=-0.236305311
						18:[tBAM_p_MannWhitneyU_EndPos<0.46381399] yes=45,no=46,missing=46
							45:leaf=0.0833751187
							46:leaf=-0.0140262078
		4:[M2_ECNT<6] yes=5,no=6,missing=6
			5:leaf=-0.00130310422
			6:leaf=0.360789001
	2:leaf=-0.133087903
booster[25]:
0:[tBAM_Concordance_FET<0.0199999996] yes=1,no=2,missing=2
	1:[if_MuTect<1] yes=3,no=4,missing=4
		3:leaf=0.0172427669
		4:leaf=0.193042934
	2:[M2_TLOD<622.47998] yes=5,no=6,missing=5
		5:[if_VarDict<1] yes=7,no=8,missing=8
			7:[tBAM_ALT_Concordant<75] yes=9,no=10,missing=10
				9:[tBAM_Other_Reads<187] yes=45,no=46,missing=46
					45:leaf=-0.13977845
					46:leaf=0.116050795
				10:[Inconsistent_Mates<3] yes=11,no=12,missing=12
					11:leaf=0.153565615
					12:leaf=-0.0599545799
			8:[MSI<8] yes=13,no=14,missing=14
				13:[tBAM_REF_Discordant<86] yes=15,no=16,missing=16
					15:[tBAM_REF_NM<0.0490956008] yes=17,no=18,missing=18
						17:[tBAM_ALT_Discordant<1] yes=29,no=30,missing=30
							29:leaf=0.290965289
							30:leaf=-0.0342734531
						18:[tBAM_REF_BQ<29.8889008] yes=21,no=22,missing=22
							21:[tBAM_REF_BQ<29.8097992] yes=23,no=24,missing=24
								23:[tBAM_REF_BQ<29.7423] yes=31,no=32,missing=32
									31:[tBAM_REF_BQ<29.7059002] yes=35,no=36,missing=36
										35:[tBAM_REF_Discordant<18] yes=39,no=40,missing=40
											39:leaf=0.196126223
											40:leaf=-0.098022379
										36:leaf=0.252543271
									32:[tBAM_REF_NM<0.0988371968] yes=33,no=34,missing=34
										33:leaf=-0.311487675
										34:[tBAM_NM_Diff<-0.104884997] yes=37,no=38,missing=37
											37:leaf=-0.155729905
											38:leaf=0.222765028
								24:[tBAM_p_MannWhitneyU_BQ<0.569622993] yes=41,no=42,missing=42
									41:leaf=-0.0149165113
									42:leaf=0.228178173
							22:leaf=-0.0500691049
					16:[T_ALT_REV<9] yes=19,no=20,missing=20
						19:[if_Caller_0<1] yes=25,no=26,missing=26
							25:leaf=-0.196965665
							26:[T_ALT_REV<5] yes=27,no=28,missing=28
								27:leaf=0.201032475
								28:leaf=-0.175235391
						20:leaf=0.108167395
				14:[tBAM_REF_Clipped_Reads<10] yes=43,no=44,missing=44
					43:leaf=-0.184228033
					44:leaf=0.135772869
		6:leaf=-0.156156361
booster[26]:
0:[T_REF_REV<44] yes=1,no=2,missing=2
	1:leaf=-0.131768823
	2:[T_DP<404] yes=3,no=4,missing=4
		3:[tBAM_NM_Diff<-0.0397317] yes=13,no=14,missing=14
			13:[M2_TLOD<24.1599998] yes=15,no=16,missing=15
				15:[tBAM_StrandBias_FET<0.74000001] yes=19,no=20,missing=20
					19:leaf=0.285632282
					20:leaf=-0.0419975594
				16:[MSI<2] yes=21,no=22,missing=21
					21:leaf=0.118743598
					22:leaf=-0.149315596
			14:[M2_TLOD<31.5799999] yes=17,no=18,missing=17
				17:leaf=-0.184360102
				18:leaf=0.127751336
		4:[SHIFT3<10] yes=5,no=6,missing=5
			5:[tBAM_p_MannWhitneyU_EndPos<0.0439319015] yes=9,no=10,missing=10
				9:[M2_TLOD<32.7799988] yes=11,no=12,missing=11
					11:leaf=-0.191078365
					12:leaf=0.148072004
				10:[if_VarScan2<1] yes=23,no=24,missing=24
					23:[InDel_Length<-11] yes=35,no=36,missing=36
						35:leaf=0.165727377
						36:leaf=-0.0196173601
					24:[tBAM_REF_Discordant<39] yes=25,no=26,missing=26
						25:[M2_TLOD<34.2599983] yes=27,no=28,missing=27
							27:leaf=0.0900698006
							28:leaf=-0.213433906
						26:[T_REF_REV<253] yes=29,no=30,missing=30
							29:[Seq_Complexity_Span<13.4174147] yes=37,no=38,missing=38
								37:leaf=-0.000120809193
								38:leaf=0.350425839
							30:[tBAM_REF_InDel_2bp<1] yes=31,no=32,missing=32
								31:[M2_TLOD<9.39999962] yes=39,no=40,missing=40
									39:[tBAM_REF_Discordant<71] yes=41,no=42,missing=42
										41:leaf=0.119362608
										42:leaf=-0.269981474
									40:[tBAM_REF_Clipped_Reads<47] yes=45,no=46,missing=46
										45:leaf=0.19431597
										46:leaf=-0.137531057
								32:[tBAM_REF_BQ<29.8848] yes=33,no=34,missing=34
									33:[M2_TLOD<147.669998] yes=43,no=44,missing=44
										43:leaf=-0.115219936
										44:leaf=0.217847154
									34:leaf=-0.181077853
			6:[tBAM_REF_NM<0.0348639004] yes=7,no=8,missing=8
				7:leaf=0.131890848
				8:leaf=-0.21865648
booster[27]:
0:[tBAM_NM_Diff<0.756623983] yes=1,no=2,missing=1
	1:[InDel_Length<-30] yes=5,no=6,missing=6
		5:leaf=-0.193205446
		6:[InDel_Length<-24] yes=7,no=8,missing=8
			7:leaf=0.281893432
			8:[InDel_Length<-21] yes=9,no=10,missing=10
				9:leaf=-0.228141442
				10:[InDel_Length<-6] yes=11,no=12,missing=12
					11:leaf=0.147744641
					12:[T_ALT_FOR<2] yes=13,no=14,missing=14
						13:[tBAM_REF_Discordant<46] yes=15,no=16,missing=16
							15:[tBAM_REF_Concordant<616] yes=27,no=28,missing=28
								27:leaf=-0.0802557096
								28:[Seq_Complexity_Adj<12.8562546] yes=29,no=30,missing=30
									29:leaf=-0.208799049
									30:leaf=0.230630979
							16:[T_REF_FOR<73] yes=17,no=18,missing=18
								17:leaf=0.129087269
								18:leaf=-0.211990952
						14:[tBAM_REF_InDel_3bp<50] yes=19,no=20,missing=20
							19:[tBAM_REF_Clipped_Reads<32] yes=25,no=26,missing=26
								25:[MSI<2] yes=31,no=32,missing=32
									31:[M2_TLOD<109.290001] yes=33,no=34,missing=34
										33:leaf=-0.12354254
										34:[tBAM_ALT_Clipped_Reads<6] yes=35,no=36,missing=36
											35:leaf=0.312179804
											36:leaf=-0.0369575955
									32:[M2_TLOD<100.029999] yes=37,no=38,missing=38
										37:[T_ALT_REV<53] yes=39,no=40,missing=40
											39:[T_ALT_FOR<49] yes=41,no=42,missing=42
												41:leaf=0.0331124179
												42:leaf=-0.273665309
											40:leaf=0.288147539
										38:[M2_TLOD<120.949997] yes=43,no=44,missing=44
											43:leaf=-0.223299399
											44:[M2_TLOD<139.429993] yes=45,no=46,missing=46
												45:leaf=0.208778203
												46:leaf=-0.0302145667
								26:leaf=-0.19059962
							20:[T_ALT_REV<17] yes=21,no=22,missing=22
								21:leaf=0.267740488
								22:[M2_TLOD<223.139999] yes=23,no=24,missing=23
									23:leaf=-0.226812571
									24:leaf=0.162785739
	2:[M2_TLOD<21.3700008] yes=3,no=4,missing=4
		3:leaf=0.121388219
		4:leaf=-0.204905018
booster[28]:
0:[tBAM_NM_Diff<0.160051003] yes=1,no=2,missing=1
	1:[tBAM_p_MannWhitneyU_EndPos<0.00190644001] yes=15,no=16,missing=16
		15:leaf=-0.167828828
		16:[VarScan2_Score<0.00999999978] yes=17,no=18,missing=18
			17:[tBAM_p_MannWhitneyU_EndPos<1] yes=19,no=20,missing=20
				19:[M2_TLOD<32.0800018] yes=21,no=22,missing=21
					21:[tBAM_Other_Reads<4] yes=39,no=40,missing=40
						39:[T_REF_REV<364] yes=41,no=42,missing=42
							41:leaf=0.174940601
							42:leaf=-0.0631924123
						40:leaf=-0.147351533
					22:[Seq_Complexity_Adj<15.2538586] yes=23,no=24,missing=24
						23:[if_Scalpel<1] yes=25,no=26,missing=26
							25:[tBAM_REF_Concordant<493] yes=27,no=28,missing=28
								27:leaf=0.356630564
								28:[tBAM_REF_InDel_2bp<2] yes=29,no=30,missing=30
									29:[Seq_Complexity_Span<12.790946] yes=45,no=46,missing=46
										45:leaf=-0.0745757595
										46:leaf=0.264442623
									30:[tBAM_REF_Discordant<80] yes=31,no=32,missing=32
										31:leaf=-0.212871477
										32:leaf=0.148428291
							26:[Seq_Complexity_Span<13.2701817] yes=33,no=34,missing=34
								33:leaf=-0.15853101
								34:leaf=0.157522157
						24:leaf=-0.170585975
				20:leaf=-0.135945112
			18:[tBAM_REF_Discordant<25] yes=35,no=36,missing=36
				35:[tBAM_p_MannWhitneyU_EndPos<0.370175987] yes=37,no=38,missing=38
					37:[T_REF_REV<334] yes=43,no=44,missing=44
						43:leaf=0.0432191156
						44:leaf=0.388839811
					38:leaf=0.0215739943
				36:leaf=-0.0161810704
	2:[tBAM_REF_NM<0.253048986] yes=3,no=4,missing=4
		3:[M2_TLOD<54.2299995] yes=5,no=6,missing=6
			5:[tBAM_NM_Diff<0.393014997] yes=7,no=8,missing=8
				7:leaf=-0.0525130555
				8:leaf=0.243580833
			6:[tBAM_p_MannWhitneyU_BQ<0.885019004] yes=9,no=10,missing=10
				9:[tBAM_REF_Concordant<784] yes=11,no=12,missing=12
					11:leaf=-0.178688467
					12:[T_ALT_FOR<3] yes=13,no=14,missing=14
						13:leaf=0.178086564
						14:leaf=-0.0772409439
				10:leaf=0.144548029
		4:leaf=-0.189585611
booster[29]:
0:[tBAM_REF_Discordant<223] yes=1,no=2,missing=2
	1:[T_REF_FOR<677] yes=5,no=6,missing=6
		5:[T_DP<1168] yes=7,no=8,missing=8
			7:[tBAM_REF_Discordant<113] yes=9,no=10,missing=10
				9:[T_REF_REV<18] yes=13,no=14,missing=14
					13:leaf=-0.216711193
					14:[Seq_Complexity_Span<15.7369051] yes=23,no=24,missing=24
						23:[tBAM_REF_Clipped_Reads<52] yes=43,no=44,missing=44
							43:[tBAM_ALT_Concordant<4] yes=45,no=46,missing=46
								45:leaf=-0.0481153801
								46:leaf=0.0248056669
							44:leaf=-0.151748478
						24:[tBAM_REF_MQ<59.7456017] yes=25,no=26,missing=26
							25:leaf=0.191844746
							26:[SHIFT3<2] yes=27,no=28,missing=28
								27:[T_REF_FOR<367] yes=31,no=32,missing=32
									31:[tBAM_ALT_NM<1.19379997] yes=37,no=38,missing=38
										37:leaf=0.00192172569
										38:leaf=-0.326071084
									32:[M2_ECNT<4] yes=39,no=40,missing=40
										39:leaf=0.226071715
										40:leaf=-0.0772724673
								28:[tBAM_ALT_NM<3] yes=29,no=30,missing=29
									29:[T_REF_REV<330] yes=33,no=34,missing=34
										33:leaf=-0.243720025
										34:[T_REF_FOR<384] yes=35,no=36,missing=36
											35:leaf=0.153675154
											36:[tBAM_p_MannWhitneyU_EndPos<0.728915989] yes=41,no=42,missing=42
												41:leaf=0.0424222425
												42:leaf=-0.281674087
									30:leaf=0.290543318
				10:[SHIFT3<2] yes=11,no=12,missing=12
					11:[tBAM_ALT_Clipped_Reads<1] yes=15,no=16,missing=16
						15:leaf=-0.099493973
						16:leaf=0.221085876
					12:leaf=-0.265615225
			8:[tBAM_Clipping_FET<0.430000007] yes=17,no=18,missing=18
				17:leaf=0.00120146584
				18:[T_REF_REV<784] yes=19,no=20,missing=20
					19:[tBAM_NM_Diff<0.0419735014] yes=21,no=22,missing=21
						21:leaf=0.266226232
						22:leaf=-0.0414855592
					20:leaf=-0.101872727
		6:leaf=-0.128145471
	2:[tBAM_Other_Reads<2] yes=3,no=4,missing=4
		3:leaf=0.263628781
		4:leaf=-0.0687800646
booster[30]:
0:[M2_ECNT<6] yes=1,no=2,missing=1
	1:[MaxHomopolymer_Length<11] yes=3,no=4,missing=4
		3:[tBAM_p_MannWhitneyU_EndPos<0.000485741009] yes=5,no=6,missing=6
			5:leaf=-0.196080282
			6:[tBAM_Other_Reads<36] yes=7,no=8,missing=8
				7:[M2_ECNT<4] yes=15,no=16,missing=15
					15:[tBAM_REF_Discordant<223] yes=17,no=18,missing=18
						17:[tBAM_REF_Clipped_Reads<4] yes=21,no=22,missing=22
							21:leaf=-0.0152772395
							22:[T_REF_FOR<331] yes=23,no=24,missing=24
								23:[if_Strelka<1] yes=25,no=26,missing=26
									25:[T_DP<794] yes=37,no=38,missing=38
										37:[MSI<5] yes=43,no=44,missing=43
											43:leaf=0.11339546
											44:leaf=-0.137161359
										38:[SHIFT3<5] yes=39,no=40,missing=40
											39:leaf=-0.0124539463
											40:leaf=0.392611623
									26:[InDel_Length<1] yes=35,no=36,missing=36
										35:[tBAM_Concordance_FET<0.109999999] yes=41,no=42,missing=42
											41:leaf=0.259582251
											42:leaf=-0.132948115
										36:leaf=-0.201437041
								24:[MSI<5] yes=27,no=28,missing=28
									27:[tBAM_REF_NM<0.123028003] yes=29,no=30,missing=30
										29:[T_REF_REV<440] yes=31,no=32,missing=32
											31:leaf=0.302787483
											32:leaf=-0.00597152673
										30:[T_ALT_FOR<86] yes=45,no=46,missing=46
											45:leaf=-0.124010883
											46:leaf=0.174207658
									28:[T_REF_REV<630] yes=33,no=34,missing=34
										33:leaf=-0.179441288
										34:leaf=0.129558548
						18:leaf=0.209943622
					16:[SiteHomopolymer_Length<3] yes=19,no=20,missing=20
						19:leaf=-0.18230769
						20:leaf=0.0381611884
				8:[tBAM_ALT_NM<2.13333011] yes=9,no=10,missing=10
					9:[tBAM_Concordance_FET<0.100000001] yes=11,no=12,missing=12
						11:[M2_TLOD<74.7099991] yes=13,no=14,missing=13
							13:leaf=-0.190085307
							14:leaf=0.170657769
						12:leaf=0.330597162
					10:leaf=-0.14971213
		4:leaf=-0.191041812
	2:leaf=0.168482721
booster[31]:
0:[SHIFT3<13] yes=1,no=2,missing=1
	1:[SHIFT3<12] yes=3,no=4,missing=3
		3:[SHIFT3<10] yes=5,no=6,missing=5
			5:[SiteHomopolymer_Length<2] yes=7,no=8,missing=8
				7:leaf=-0.17465359
				8:[Seq_Complexity_Span<10.3328743] yes=9,no=10,missing=10
					9:[tBAM_Other_Reads<3] yes=11,no=12,missing=12
						11:leaf=0.199459985
						12:[tBAM_ALT_NM<1.22856998] yes=13,no=14,missing=13
							13:leaf=0.113774069
							14:leaf=-0.169287324
					10:[T_ALT_FOR<1] yes=15,no=16,missing=16
						15:[InDel_Length<-1] yes=17,no=18,missing=18
							17:[if_Caller_0<1] yes=23,no=24,missing=24
								23:[tBAM_REF_BQ<29.8673] yes=25,no=26,missing=26
									25:leaf=0.129455164
									26:leaf=-0.182175398
								24:leaf=0.224048749
							18:[T_REF_REV<691] yes=19,no=20,missing=20
								19:[tBAM_p_MannWhitneyU_MQ<0.563446999] yes=21,no=22,missing=22
									21:leaf=-0.256884426
									22:leaf=0.0939034745
								20:leaf=0.11647065
						16:[Consistent_Mates<1] yes=27,no=28,missing=28
							27:[tBAM_NM_Diff<0.103563003] yes=29,no=30,missing=30
								29:[tBAM_REF_InDel_3bp<9] yes=31,no=32,missing=32
									31:[if_VarDict<1] yes=33,no=34,missing=34
										33:leaf=-0.124370627
										34:leaf=0.0801282898
									32:leaf=0.223750815
								30:leaf=-0.105572946
							28:[T_ALT_FOR<6] yes=35,no=36,missing=36
								35:leaf=-0.0783324838
								36:[InDel_Length<1] yes=37,no=38,missing=38
									37:[tBAM_ALT_Discordant<24] yes=39,no=40,missing=40
										39:[tBAM_REF_InDel_2bp<13] yes=41,no=42,missing=42
											41:[SiteHomopolymer_Length<3] yes=43,no=44,missing=44
												43:leaf=0.219492197
												44:leaf=0.00645480398
											42:leaf=-0.1258533
										40:[T_REF_FOR<281] yes=45,no=46,missing=46
											45:leaf=-0.177996978
											46:leaf=0.183123425
									38:leaf=-0.0158275533
			6:leaf=-0.233808205
		4:leaf=0.286957771
	2:leaf=-0.142181307
booster[32]:
0:[MaxHomopolymer_Length<5] yes=1,no=2,missing=2
	1:[M2_TLOD<27.8400002] yes=3,no=4,missing=4
		3:[T_REF_FOR<360] yes=5,no=6,missing=6
			5:leaf=0.178732544
			6:leaf=-0.0374174938
		4:[M2_TLOD<156.559998] yes=7,no=8,missing=8
			7:[T_ALT_REV<87] yes=9,no=10,missing=10
				9:[T_ALT_REV<18] yes=11,no=12,missing=12
					11:[tBAM_p_MannWhitneyU_EndPos<0.998781025] yes=13,no=14,missing=14
						13:leaf=0.197723299
						14:leaf=-0.119376734
					12:leaf=-0.132066637
				10:leaf=0.243538022
			8:[T_ALT_FOR<91] yes=15,no=16,missing=16
				15:[Seq_Complexity_Span<14.0619946] yes=23,no=24,missing=24
					23:[tBAM_p_MannWhitneyU_EndPos<0.989838004] yes=33,no=34,missing=34
						33:[tBAM_REF_NM<0.870514989] yes=35,no=36,missing=36
							35:leaf=-0.168577909
							36:leaf=0.145788401
						34:[SHIFT3<10] yes=37,no=38,missing=38
							37:leaf=0.156320095
							38:leaf=-0.182871744
					24:[tBAM_REF_NM<0.155487999] yes=25,no=26,missing=26
						25:[tBAM_p_MannWhitneyU_EndPos<0.187409997] yes=27,no=28,missing=28
							27:[T_REF_FOR<437] yes=29,no=30,missing=30
								29:leaf=0.0166621525
								30:leaf=0.485765785
							28:[if_VarScan2<1] yes=31,no=32,missing=32
								31:leaf=-0.0120385457
								32:leaf=0.247121781
						26:leaf=-0.109770052
				16:[tBAM_ALT_Concordant<201] yes=17,no=18,missing=18
					17:leaf=0.230799735
					18:[M2_TLOD<226.929993] yes=19,no=20,missing=19
						19:leaf=-0.209742263
						20:[T_ALT_FOR<125] yes=21,no=22,missing=22
							21:leaf=-0.115252025
							22:[Seq_Complexity_Span<14.2392817] yes=39,no=40,missing=40
								39:leaf=0.285572022
								40:leaf=0.0420910232
	2:[tBAM_StrandBias_FET<0.769999981] yes=41,no=42,missing=42
		41:[tBAM_NM_Diff<-0.0341041982] yes=43,no=44,missing=44
			43:[T_REF_FOR<355] yes=45,no=46,missing=46
				45:leaf=0.0985151157
				46:leaf=-0.0924482942
			44:leaf=-0.0689470097
		42:leaf=-0.100086793
booster[33]:
0:[tBAM_REF_NM<1.33884001] yes=1,no=2,missing=1
	1:[Seq_Complexity_Adj<6.09625101] yes=3,no=4,missing=4
		3:leaf=-0.180119932
		4:[tBAM_REF_NM<0.602041006] yes=5,no=6,missing=6
			5:[tBAM_REF_NM<0.424214005] yes=9,no=10,missing=10
				9:[M2_TLOD<5.5999999] yes=21,no=22,missing=22
					21:[tBAM_StrandBias_FET<0.25999999] yes=23,no=24,missing=24
						23:leaf=0.0518370941
						24:leaf=-0.208553791
					22:[tBAM_ALT_NM<1.60000002] yes=27,no=28,missing=27
						27:[tBAM_REF_InDel_1bp<1] yes=29,no=30,missing=30
							29:[SHIFT3<8] yes=35,no=36,missing=35
								35:[SiteHomopolymer_Length<3] yes=37,no=38,missing=38
									37:[Seq_Complexity_Adj<12.4783697] yes=41,no=42,missing=42
										41:leaf=-0.132764146
										42:[Seq_Complexity_Adj<13.5698137] yes=43,no=44,missing=44
											43:[if_VarDict<1] yes=45,no=46,missing=46
												45:leaf=-0.125146985
												46:leaf=0.20978418
											44:leaf=-0.0182661358
									38:[MSI<4] yes=39,no=40,missing=39
										39:leaf=0.00810605939
										40:leaf=-0.190793812
								36:leaf=-0.216456816
							30:[MSI<3] yes=31,no=32,missing=31
								31:[T_ALT_REV<4] yes=33,no=34,missing=34
									33:leaf=0.191237867
									34:leaf=-0.0378904007
								32:leaf=0.216403157
						28:leaf=0.0306139011
				10:[Seq_Complexity_Span<15.2538586] yes=11,no=12,missing=12
					11:leaf=-0.158380687
					12:leaf=0.0539579056
			6:[M2_TLOD<297.109985] yes=7,no=8,missing=7
				7:[tBAM_Other_Reads<5] yes=13,no=14,missing=14
					13:[Inconsistent_Mates<2] yes=15,no=16,missing=16
						15:[MSI<4] yes=17,no=18,missing=18
							17:[T_ALT_REV<4] yes=25,no=26,missing=26
								25:leaf=0.00186053745
								26:leaf=0.278647184
							18:[M2_TLOD<141.350006] yes=19,no=20,missing=20
								19:leaf=-0.227758422
								20:leaf=0.0661941394
						16:leaf=0.268028945
					14:leaf=-0.0493046008
				8:leaf=-0.21020475
	2:leaf=-0.148586378
booster[34]:
0:[tBAM_REF_NM<0.985074997] yes=1,no=2,missing=1
	1:[tBAM_REF_NM<0.658783972] yes=3,no=4,missing=4
		3:[Seq_Complexity_Span<9.87898159] yes=7,no=8,missing=8
			7:leaf=-0.170413762
			8:[Seq_Complexity_Span<10.9656925] yes=11,no=12,missing=12
				11:[Seq_Complexity_Span<10.8398008] yes=13,no=14,missing=14
					13:[SHIFT3<9] yes=15,no=16,missing=15
						15:leaf=0.0900750607
						16:leaf=-0.182065398
					14:leaf=0.299033046
				12:[SHIFT3<9] yes=17,no=18,missing=17
					17:[tBAM_REF_NM<0.163700998] yes=21,no=22,missing=22
						21:[tBAM_REF_NM<0.105263002] yes=39,no=40,missing=40
							39:leaf=-0.00332005019
							40:[tBAM_REF_Concordant<688] yes=41,no=42,missing=42
								41:leaf=0.0119521441
								42:[T_ALT_REV<1] yes=43,no=44,missing=44
									43:leaf=-0.0981324464
									44:[Consistent_Mates<2] yes=45,no=46,missing=46
										45:leaf=0.273595661
										46:leaf=0.040159855
						22:[T_ALT_FOR<9] yes=23,no=24,missing=24
							23:leaf=-0.147353932
							24:[T_ALT_REV<12] yes=25,no=26,missing=26
								25:leaf=0.171159953
								26:[tBAM_REF_InDel_3bp<5] yes=27,no=28,missing=28
									27:[MSILEN<2] yes=31,no=32,missing=32
										31:[tBAM_ALT_Clipped_Reads<2] yes=33,no=34,missing=34
											33:[tBAM_NM_Diff<0.118505999] yes=37,no=38,missing=38
												37:leaf=0.208324745
												38:leaf=-0.0772439316
											34:leaf=-0.180492625
										32:[SiteHomopolymer_Length<3] yes=35,no=36,missing=36
											35:leaf=-0.00468131388
											36:leaf=0.263139635
									28:[tBAM_Other_Reads<6] yes=29,no=30,missing=30
										29:leaf=-0.164507955
										30:leaf=0.0924874842
					18:[Seq_Complexity_Span<12.9225607] yes=19,no=20,missing=20
						19:leaf=-0.219871521
						20:leaf=0.0445632674
		4:[M2_TLOD<232.710007] yes=5,no=6,missing=5
			5:[Seq_Complexity_Span<13.8089352] yes=9,no=10,missing=10
				9:leaf=0.233237952
				10:leaf=-0.00218680874
			6:leaf=-0.164095446
	2:leaf=-0.10558866
booster[35]:
0:[tBAM_p_MannWhitneyU_EndPos<0.0439319015] yes=1,no=2,missing=2
	1:[InDel_Length<1] yes=3,no=4,missing=4
		3:leaf=-0.179591417
		4:leaf=0.0894034654
	2:[tBAM_p_MannWhitneyU_EndPos<0.975870013] yes=5,no=6,missing=6
		5:[if_VarScan2<1] yes=15,no=16,missing=16
			15:[SHIFT3<2] yes=17,no=18,missing=18
				17:[T_ALT_FOR<86] yes=19,no=20,missing=20
					19:[T_ALT_REV<49] yes=21,no=22,missing=22
						21:[T_ALT_FOR<41] yes=23,no=24,missing=24
							23:[T_DP<674] yes=29,no=30,missing=30
								29:[tBAM_ALT_Concordant<20] yes=33,no=34,missing=34
									33:leaf=-0.066184178
									34:leaf=-0.372633547
								30:[tBAM_Other_Reads<3] yes=31,no=32,missing=32
									31:leaf=-0.0494249277
									32:leaf=0.255372912
							24:leaf=0.251567394
						22:leaf=-0.319989324
					20:leaf=0.25752309
				18:[T_REF_FOR<246] yes=25,no=26,missing=26
					25:[Consistent_Mates<17] yes=27,no=28,missing=28
						27:[M2_TLOD<116.040001] yes=35,no=36,missing=35
							35:[tBAM_p_MannWhitneyU_EndPos<0.815279007] yes=45,no=46,missing=46
								45:leaf=-0.0106849903
								46:leaf=0.183541298
							36:leaf=-0.228901088
						28:leaf=0.351089507
					26:[MSI<5] yes=37,no=38,missing=38
						37:leaf=0.0719742104
						38:[T_REF_REV<331] yes=39,no=40,missing=40
							39:leaf=-0.163760245
							40:[Seq_Complexity_Adj<14.1497335] yes=41,no=42,missing=42
								41:[tBAM_p_MannWhitneyU_BQ<0.641842008] yes=43,no=44,missing=44
									43:leaf=-0.228350013
									44:leaf=0.0430168323
								42:leaf=0.165234745
			16:leaf=0.077925548
		6:[tBAM_REF_Discordant<43] yes=7,no=8,missing=8
			7:[M2_TLOD<29.6700001] yes=9,no=10,missing=10
				9:leaf=0.130380362
				10:leaf=-0.14497821
			8:[T_REF_FOR<196] yes=11,no=12,missing=12
				11:leaf=0.165156335
				12:[M2_TLOD<18.1499996] yes=13,no=14,missing=13
					13:leaf=-0.130380675
					14:leaf=0.0201202407
booster[36]:
0:[tBAM_REF_NM<0.0490956008] yes=1,no=2,missing=1
	1:[tBAM_REF_Discordant<85] yes=5,no=6,missing=6
		5:[M2_TLOD<279.929993] yes=7,no=8,missing=7
			7:[tBAM_REF_NM<0.0308369994] yes=11,no=12,missing=12
				11:[M2_TLOD<11.8800001] yes=25,no=26,missing=25
					25:leaf=-0.148649633
					26:leaf=0.0982718542
				12:[M2_TLOD<77.5400009] yes=13,no=14,missing=13
					13:[tBAM_Other_Reads<2] yes=15,no=16,missing=16
						15:leaf=0.253019184
						16:leaf=-0.0276566409
					14:[tBAM_REF_NM<0.0446672998] yes=17,no=18,missing=18
						17:leaf=-0.126644909
						18:leaf=0.170078188
			8:leaf=-0.146789864
		6:[M2_TLOD<8.22999954] yes=9,no=10,missing=9
			9:leaf=-0.217950329
			10:leaf=0.058542069
	2:[SHIFT3<10] yes=3,no=4,missing=3
		3:[M2_TLOD<5.5999999] yes=19,no=20,missing=20
			19:[Inconsistent_Mates<1] yes=21,no=22,missing=22
				21:leaf=-0.196588874
				22:leaf=0.0709680915
			20:[tBAM_Clipping_FET<0.0399999991] yes=27,no=28,missing=28
				27:[tBAM_NM_Diff<-0.0240700003] yes=29,no=30,missing=30
					29:leaf=-0.00627225824
					30:leaf=-0.148401797
				28:[tBAM_REF_Clipped_Reads<4] yes=31,no=32,missing=32
					31:[if_Caller_0<1] yes=33,no=34,missing=34
						33:[tBAM_NM_Diff<-0.0682594031] yes=35,no=36,missing=35
							35:[tBAM_REF_Discordant<48] yes=39,no=40,missing=40
								39:[tBAM_REF_NM<0.0878577977] yes=41,no=42,missing=42
									41:leaf=0.262515068
									42:leaf=0.00919123646
								40:[tBAM_ALT_Discordant<7] yes=43,no=44,missing=44
									43:leaf=-0.151528329
									44:leaf=0.14199993
							36:[tBAM_Concordance_FET<0.230000004] yes=37,no=38,missing=38
								37:leaf=0.0808679536
								38:[SHIFT3<1] yes=45,no=46,missing=45
									45:leaf=-0.0154245999
									46:leaf=-0.26466617
						34:leaf=0.0295228083
					32:leaf=0.0510508232
		4:[tBAM_REF_Clipped_Reads<1] yes=23,no=24,missing=24
			23:leaf=0.0406939983
			24:leaf=-0.203868166
booster[37]:
0:[MaxHomopolymer_Length<14] yes=1,no=2,missing=2
	1:[Inconsistent_Mates<27] yes=3,no=4,missing=4
		3:[T_ALT_REV<272] yes=5,no=6,missing=6
			5:[MSILEN<4] yes=7,no=8,missing=7
				7:[M2_TLOD<1116.05005] yes=9,no=10,missing=9
					9:[T_REF_REV<351] yes=11,no=12,missing=12
						11:[MSI<3] yes=15,no=16,missing=16
							15:[tBAM_StrandBias_FET<0.25999999] yes=19,no=20,missing=20
								19:[T_ALT_FOR<120] yes=21,no=22,missing=22
									21:[tBAM_NM_Diff<-0.0517884009] yes=23,no=24,missing=24
										23:leaf=-0.168655097
										24:leaf=0.113350719
									22:leaf=0.236865312
								20:[if_Caller_0<1] yes=41,no=42,missing=42
									41:leaf=0.0477528311
									42:[T_REF_FOR<278] yes=43,no=44,missing=44
										43:[T_REF_REV<208] yes=45,no=46,missing=46
											45:leaf=0.189483806
											46:leaf=-0.13120304
										44:leaf=0.31045559
							16:[T_ALT_FOR<128] yes=17,no=18,missing=18
								17:[tBAM_REF_BQ<29.9775009] yes=27,no=28,missing=28
									27:[Consistent_Mates<19] yes=29,no=30,missing=30
										29:[if_MuTect<1] yes=33,no=34,missing=34
											33:leaf=-0.047255706
											34:leaf=0.109810367
										30:[if_Strelka<1] yes=31,no=32,missing=32
											31:leaf=0.16902563
											32:leaf=-0.122602686
									28:leaf=0.134563968
								18:[M2_TLOD<373.589996] yes=25,no=26,missing=25
									25:leaf=-0.331521362
									26:[tBAM_ALT_Discordant<13] yes=35,no=36,missing=36
										35:leaf=0.188812375
										36:leaf=-0.163347334
						12:[T_DP<715] yes=13,no=14,missing=14
							13:[Consistent_Mates<4] yes=37,no=38,missing=38
								37:[MSI<4] yes=39,no=40,missing=40
									39:leaf=0.0888960809
									40:leaf=-0.183979496
								38:leaf=-0.340079576
							14:leaf=0.00342373038
					10:leaf=-0.116736382
				8:leaf=-0.14103961
			6:leaf=0.142621458
		4:leaf=-0.116079986
	2:leaf=-0.159273535
booster[38]:
0:[InDel_Length<-30] yes=1,no=2,missing=2
	1:leaf=-0.156472653
	2:[InDel_Length<-23] yes=3,no=4,missing=4
		3:leaf=0.223298609
		4:[InDel_Length<-22] yes=5,no=6,missing=6
			5:leaf=-0.231109127
			6:[InDel_Length<-11] yes=7,no=8,missing=8
				7:leaf=0.142285049
				8:[tBAM_NM_Diff<0.811735988] yes=9,no=10,missing=9
					9:[tBAM_StrandBias_FET<0.769999981] yes=11,no=12,missing=12
						11:[tBAM_ALT_Concordant<3] yes=27,no=28,missing=28
							27:[Inconsistent_Mates<1] yes=29,no=30,missing=30
								29:leaf=-0.189581066
								30:[tBAM_REF_BQ<29.9533997] yes=35,no=36,missing=36
									35:leaf=-0.0100500137
									36:leaf=0.226544857
							28:[tBAM_p_MannWhitneyU_MQ<0.572712004] yes=31,no=32,missing=32
								31:[tBAM_REF_Concordant<201] yes=37,no=38,missing=38
									37:[MSI<44.0000114] yes=39,no=40,missing=40
										39:leaf=-0.16846323
										40:[M2_TLOD<46.4300003] yes=41,no=42,missing=41
											41:leaf=-0.057853464
											42:leaf=0.254388541
									38:[T_DP<404] yes=43,no=44,missing=44
										43:[if_Strelka<1] yes=45,no=46,missing=46
											45:leaf=0.175185084
											46:leaf=-0.103488237
										44:leaf=0.0182869472
								32:[Inconsistent_Mates<3] yes=33,no=34,missing=34
									33:leaf=0.0245660115
									34:leaf=-0.221835479
						12:[T_ALT_REV<16] yes=13,no=14,missing=14
							13:[MSI<5] yes=15,no=16,missing=16
								15:[Consistent_Mates<2] yes=17,no=18,missing=18
									17:[T_REF_FOR<307] yes=19,no=20,missing=20
										19:[tBAM_ALT_NM<2] yes=25,no=26,missing=25
											25:leaf=-0.185265943
											26:leaf=0.0801496059
										20:[tBAM_REF_Clipped_Reads<1] yes=23,no=24,missing=24
											23:leaf=0.357713848
											24:leaf=0.0374222547
									18:[tBAM_ALT_Concordant<9] yes=21,no=22,missing=22
										21:leaf=-0.197958544
										22:leaf=0.0792325363
								16:leaf=-0.201738462
							14:leaf=0.0132774757
					10:leaf=-0.1346872
booster[39]:
0:[Seq_Complexity_Span<13.0582886] yes=1,no=2,missing=2
	1:[tBAM_p_MannWhitneyU_EndPos<0.275406003] yes=3,no=4,missing=4
		3:[MSI<6] yes=15,no=16,missing=16
			15:leaf=-0.261193126
			16:leaf=-0.0160825718
		4:[MaxHomopolymer_Length<9] yes=5,no=6,missing=6
			5:[T_REF_FOR<235] yes=7,no=8,missing=8
				7:[M2_TLOD<10.2799997] yes=11,no=12,missing=12
					11:leaf=-0.13871114
					12:[M2_TLOD<279.929993] yes=13,no=14,missing=13
						13:[T_ALT_REV<2] yes=17,no=18,missing=18
							17:[tBAM_REF_InDel_3bp<10] yes=21,no=22,missing=22
								21:leaf=-0.160158858
								22:leaf=0.131730616
							18:[SHIFT3<13] yes=19,no=20,missing=20
								19:leaf=0.242407292
								20:[tBAM_REF_Discordant<41] yes=23,no=24,missing=24
									23:leaf=-0.105877332
									24:leaf=0.15147309
						14:leaf=-0.0727889016
				8:[tBAM_ALT_Concordant<7] yes=9,no=10,missing=10
					9:leaf=-0.163537085
					10:[tBAM_REF_Clipped_Reads<7] yes=25,no=26,missing=26
						25:[SHIFT3<13] yes=27,no=28,missing=28
							27:[T_ALT_REV<38] yes=31,no=32,missing=32
								31:leaf=0.196285561
								32:[tBAM_p_MannWhitneyU_BQ<0.885019004] yes=33,no=34,missing=34
									33:leaf=-0.179165021
									34:leaf=0.207035363
							28:[T_REF_REV<353] yes=29,no=30,missing=30
								29:leaf=-0.245668024
								30:leaf=0.109490439
						26:leaf=-0.120913193
			6:leaf=-0.174858809
	2:[MaxHomopolymer_Length<9] yes=35,no=36,missing=36
		35:[Seq_Complexity_Adj<12.1307478] yes=37,no=38,missing=38
			37:leaf=-0.0715736672
			38:[Seq_Complexity_Adj<12.9225607] yes=39,no=40,missing=40
				39:[MSI<8] yes=41,no=42,missing=42
					41:[Seq_Complexity_Adj<12.6632032] yes=43,no=44,missing=44
						43:leaf=0.00221385388
						44:leaf=0.273647815
					42:[T_REF_FOR<185] yes=45,no=46,missing=46
						45:leaf=0.161254376
						46:leaf=-0.179936215
				40:leaf=-0.00249258103
		36:leaf=0.156257927
booster[40]:
0:[SHIFT3<8] yes=1,no=2,missing=1
	1:[tBAM_NM_Diff<0.756623983] yes=9,no=10,missing=9
		9:[InDel_Length<-1] yes=11,no=12,missing=12
			11:[MSILEN<2] yes=13,no=14,missing=14
				13:[T_ALT_FOR<88] yes=19,no=20,missing=20
					19:[tBAM_p_MannWhitneyU_EndPos<0.728915989] yes=21,no=22,missing=22
						21:leaf=-0.0235838834
						22:leaf=0.187581852
					20:[tBAM_REF_Discordant<57] yes=29,no=30,missing=30
						29:leaf=-0.179855466
						30:leaf=0.109224863
				14:[tBAM_ALT_NM<8] yes=15,no=16,missing=16
					15:[M2_TLOD<5.5999999] yes=17,no=18,missing=17
						17:leaf=-0.129235789
						18:leaf=0.128201842
					16:leaf=-0.22085467
			12:[T_ALT_FOR<1] yes=23,no=24,missing=24
				23:[SHIFT3<1] yes=25,no=26,missing=26
					25:leaf=0.0964790955
					26:[T_REF_REV<680] yes=27,no=28,missing=28
						27:leaf=-0.243162587
						28:leaf=0.0536741391
				24:[Consistent_Mates<1] yes=31,no=32,missing=32
					31:[InDel_Length<1] yes=33,no=34,missing=34
						33:[Seq_Complexity_Span<13.7277565] yes=35,no=36,missing=36
							35:leaf=-0.168638781
							36:[tBAM_REF_Concordant<744] yes=37,no=38,missing=38
								37:[tBAM_p_MannWhitneyU_EndPos<0.240769997] yes=39,no=40,missing=40
									39:leaf=-0.166262075
									40:[tBAM_p_MannWhitneyU_EndPos<0.752044022] yes=41,no=42,missing=42
										41:leaf=0.449532837
										42:leaf=0.0509248748
								38:leaf=-0.0845755637
						34:leaf=0.142469347
					32:[tBAM_REF_InDel_3bp<30] yes=43,no=44,missing=44
						43:leaf=-0.00041269901
						44:[M2_TLOD<223.139999] yes=45,no=46,missing=45
							45:leaf=-0.255079925
							46:leaf=0.0459343456
		10:leaf=-0.118965521
	2:[tBAM_ALT_NM<5] yes=3,no=4,missing=3
		3:[T_REF_REV<217] yes=5,no=6,missing=6
			5:[M2_TLOD<13.6400003] yes=7,no=8,missing=7
				7:leaf=-0.122553989
				8:leaf=0.154775664
			6:leaf=-0.226589561
		4:leaf=0.135955036
booster[41]:
0:[tBAM_REF_Clipped_Reads<32] yes=1,no=2,missing=2
	1:[tBAM_REF_Concordant<1209] yes=3,no=4,missing=4
		3:[T_DP<1168] yes=5,no=6,missing=6
			5:[T_REF_REV<612] yes=7,no=8,missing=8
				7:[tBAM_StrandBias_FET<0.769999981] yes=29,no=30,missing=30
					29:[tBAM_p_MannWhitneyU_EndPos<0.569639981] yes=31,no=32,missing=32
						31:[tBAM_REF_Clipped_Reads<4] yes=33,no=34,missing=34
							33:[tBAM_NM_Diff<-0.0682594031] yes=35,no=36,missing=36
								35:[tBAM_NM_Diff<-0.0884139985] yes=37,no=38,missing=38
									37:[MSI<15] yes=39,no=40,missing=40
										39:[tBAM_p_MannWhitneyU_BQ<0.658685982] yes=41,no=42,missing=42
											41:leaf=0.016020136
											42:leaf=-0.268944919
										40:leaf=0.149331585
									38:leaf=0.274503738
								36:[Inconsistent_Mates<1] yes=43,no=44,missing=44
									43:leaf=-0.121854872
									44:leaf=0.0402173661
							34:leaf=0.163713232
						32:[tBAM_REF_Concordant<958] yes=45,no=46,missing=46
							45:leaf=-0.0113569396
							46:leaf=0.148867801
					30:leaf=-0.035362523
				8:[T_REF_FOR<185] yes=9,no=10,missing=10
					9:leaf=0.128483981
					10:leaf=-0.192628846
			6:[M2_TLOD<89.9199982] yes=11,no=12,missing=12
				11:[T_REF_FOR<567] yes=25,no=26,missing=26
					25:leaf=0.235511959
					26:leaf=-0.0182749424
				12:[tBAM_REF_InDel_1bp<1] yes=13,no=14,missing=14
					13:[MSI<2] yes=15,no=16,missing=15
						15:[tBAM_REF_BQ<29.7775993] yes=19,no=20,missing=20
							19:leaf=-0.0571294278
							20:leaf=0.295591593
						16:[tBAM_Other_Reads<6] yes=17,no=18,missing=18
							17:[tBAM_ALT_Clipped_Reads<2] yes=21,no=22,missing=22
								21:[tBAM_p_MannWhitneyU_BQ<0.631316006] yes=23,no=24,missing=24
									23:leaf=-0.0811784789
									24:leaf=0.15599969
								22:leaf=-0.261037558
							18:leaf=0.23287262
					14:[tBAM_REF_Discordant<112] yes=27,no=28,missing=28
						27:leaf=-0.195091605
						28:leaf=0.0439046286
		4:leaf=-0.101045907
	2:leaf=-0.0894949809
booster[42]:
0:[MaxHomopolymer_Length<5] yes=1,no=2,missing=2
	1:[tBAM_ALT_MQ<59.6713982] yes=43,no=44,missing=43
		43:[Seq_Complexity_Span<15.3696766] yes=45,no=46,missing=46
			45:leaf=-0.156170085
			46:leaf=0.0707437694
		44:leaf=0.0170471948
	2:[Seq_Complexity_Span<12.1867867] yes=3,no=4,missing=4
		3:[tBAM_REF_InDel_2bp<11] yes=35,no=36,missing=36
			35:leaf=-0.155350104
			36:leaf=0.0732558668
		4:[M2_TLOD<128.029999] yes=5,no=6,missing=5
			5:[T_ALT_REV<24] yes=7,no=8,missing=8
				7:[SHIFT3<8] yes=9,no=10,missing=10
					9:[T_ALT_REV<8] yes=15,no=16,missing=16
						15:[tBAM_REF_Discordant<64] yes=19,no=20,missing=20
							19:[tBAM_REF_NM<0.126425996] yes=21,no=22,missing=22
								21:[tBAM_NM_Diff<-0.0682594031] yes=23,no=24,missing=23
									23:[T_DP<880] yes=39,no=40,missing=40
										39:leaf=0.240445867
										40:leaf=-0.0380849242
									24:[tBAM_Other_Reads<2] yes=31,no=32,missing=32
										31:[tBAM_StrandBias_FET<0.310000002] yes=33,no=34,missing=34
											33:leaf=0.204318807
											34:leaf=-0.0956358239
										32:leaf=-0.193360314
								22:leaf=-0.131774724
							20:[SHIFT3<5] yes=25,no=26,missing=26
								25:[tBAM_p_MannWhitneyU_EndPos<0.522527993] yes=27,no=28,missing=28
									27:leaf=-0.190451071
									28:leaf=0.105030015
								26:leaf=-0.252112418
						16:[Seq_Complexity_Span<14.6171675] yes=17,no=18,missing=18
							17:leaf=0.243268892
							18:leaf=-0.0981882289
					10:[tBAM_REF_Clipped_Reads<1] yes=13,no=14,missing=14
						13:leaf=0.0392904878
						14:leaf=-0.266057163
				8:[tBAM_p_MannWhitneyU_EndPos<0.728915989] yes=41,no=42,missing=42
					41:leaf=0.0205120742
					42:leaf=0.208344042
			6:[InDel_Length<1] yes=11,no=12,missing=12
				11:[tBAM_REF_Discordant<34] yes=29,no=30,missing=30
					29:leaf=-0.110347986
					30:leaf=0.170881927
				12:[T_ALT_FOR<69] yes=37,no=38,missing=38
					37:leaf=-0.257885545
					38:leaf=-0.05508966
booster[43]:
0:[tBAM_ALT_NM<1.05555999] yes=1,no=2,missing=2
	1:leaf=-0.0223175418
	2:[if_MuTect<1] yes=3,no=4,missing=4
		3:[Seq_Complexity_Span<10.8398008] yes=7,no=8,missing=8
			7:[SHIFT3<9] yes=11,no=12,missing=12
				11:leaf=0.0375037305
				12:leaf=-0.213829741
			8:[Seq_Complexity_Span<10.881361] yes=9,no=10,missing=10
				9:leaf=0.217159614
				10:[tBAM_p_MannWhitneyU_EndPos<0.685328007] yes=13,no=14,missing=14
					13:[T_ALT_FOR<6] yes=15,no=16,missing=16
						15:leaf=-0.150089473
						16:leaf=0.000703515951
					14:[SHIFT3<1] yes=17,no=18,missing=18
						17:[T_ALT_REV<87] yes=19,no=20,missing=20
							19:[tBAM_REF_Discordant<80] yes=23,no=24,missing=24
								23:[M2_TLOD<165.979996] yes=25,no=26,missing=26
									25:[Consistent_Mates<4] yes=45,no=46,missing=46
										45:leaf=0.0242980123
										46:leaf=-0.268170863
									26:leaf=0.122864641
								24:leaf=0.247869626
							20:[M2_TLOD<801.47998] yes=21,no=22,missing=22
								21:leaf=-0.297614306
								22:leaf=0.156891689
						18:[T_ALT_REV<87] yes=27,no=28,missing=28
							27:[T_ALT_FOR<61] yes=29,no=30,missing=30
								29:[T_ALT_REV<41] yes=33,no=34,missing=34
									33:[SHIFT3<5] yes=37,no=38,missing=38
										37:leaf=0.0982537195
										38:[tBAM_REF_Clipped_Reads<1] yes=39,no=40,missing=40
											39:leaf=0.0791597515
											40:leaf=-0.153948054
									34:[M2_TLOD<130.380005] yes=35,no=36,missing=35
										35:leaf=0.233749539
										36:leaf=-0.173328251
								30:[M2_TLOD<201.080002] yes=31,no=32,missing=32
									31:leaf=-0.266968429
									32:leaf=0.14802663
							28:[tBAM_REF_InDel_3bp<7] yes=41,no=42,missing=42
								41:[tBAM_ALT_BQ<29.9267006] yes=43,no=44,missing=44
									43:leaf=-0.00479219062
									44:leaf=0.264745444
								42:leaf=-0.0593669564
		4:[tBAM_NM_Diff<0.151255995] yes=5,no=6,missing=6
			5:leaf=0.103828013
			6:leaf=-0.0513863601
booster[44]:
0:[tBAM_p_MannWhitneyU_EndPos<0.975870013] yes=1,no=2,missing=2
	1:[tBAM_REF_Discordant<64] yes=13,no=14,missing=14
		13:[tBAM_ALT_Concordant<3] yes=35,no=36,missing=36
			35:[Seq_Complexity_Span<15.2538586] yes=37,no=38,missing=38
				37:leaf=-0.151592717
				38:leaf=0.101528443
			36:leaf=0.0380077288
		14:[tBAM_ALT_Concordant<6] yes=15,no=16,missing=16
			15:[tBAM_NM_Diff<-0.0317002982] yes=17,no=18,missing=18
				17:leaf=-0.183072001
				18:leaf=0.107386179
			16:[M2_TLOD<156.559998] yes=19,no=20,missing=20
				19:[T_ALT_REV<94] yes=23,no=24,missing=24
					23:[M2_TLOD<100.029999] yes=25,no=26,missing=26
						25:[MSI<4] yes=27,no=28,missing=27
							27:[SiteHomopolymer_Length<4] yes=31,no=32,missing=32
								31:[tBAM_Concordance_FET<0.230000004] yes=41,no=42,missing=42
									41:[SHIFT3<1] yes=43,no=44,missing=44
										43:leaf=0.171602458
										44:leaf=-0.124384411
									42:leaf=0.0952586755
								32:leaf=0.206529602
							28:[tBAM_REF_Clipped_Reads<3] yes=33,no=34,missing=34
								33:leaf=-0.192954287
								34:leaf=0.0472756885
						26:[M2_ECNT<2] yes=29,no=30,missing=30
							29:[if_VarDict<1] yes=45,no=46,missing=46
								45:leaf=0.0825095177
								46:leaf=-0.137000963
							30:leaf=-0.274538845
					24:leaf=0.148154661
				20:[T_ALT_REV<179] yes=21,no=22,missing=22
					21:[tBAM_NM_Diff<-0.204870999] yes=39,no=40,missing=40
						39:leaf=-0.0639644414
						40:leaf=0.13357307
					22:leaf=-0.139218777
	2:[tBAM_REF_Discordant<43] yes=3,no=4,missing=4
		3:[M2_TLOD<29.6700001] yes=5,no=6,missing=6
			5:leaf=0.0923076719
			6:[T_DP<372] yes=11,no=12,missing=12
				11:leaf=0.0133611187
				12:leaf=-0.155204758
		4:[T_REF_FOR<219] yes=7,no=8,missing=8
			7:leaf=0.0943992436
			8:[M2_TLOD<18.1499996] yes=9,no=10,missing=9
				9:leaf=-0.12172056
				10:leaf=0.00520395208
booster[45]:
0:[Seq_Complexity_Span<15.6110134] yes=1,no=2,missing=2
	1:[Seq_Complexity_Span<15.1410484] yes=9,no=10,missing=10
		9:[tBAM_p_MannWhitneyU_EndPos<0.150288999] yes=13,no=14,missing=14
			13:[tBAM_REF_InDel_2bp<1] yes=15,no=16,missing=16
				15:[tBAM_REF_Discordant<22] yes=17,no=18,missing=18
					17:leaf=0.0293972939
					18:leaf=-0.215248182
				16:[M2_ECNT<6] yes=19,no=20,missing=20
					19:leaf=-0.086015135
					20:leaf=0.166244388
			14:[MSILEN<2] yes=21,no=22,missing=22
				21:[M2_ECNT<2] yes=37,no=38,missing=38
					37:[T_REF_FOR<344] yes=39,no=40,missing=40
						39:[T_REF_REV<223] yes=41,no=42,missing=42
							41:leaf=0.134677023
							42:[tBAM_Clipping_FET<0.779999971] yes=43,no=44,missing=44
								43:leaf=-0.221123293
								44:leaf=0.0502301678
						40:[T_REF_REV<375] yes=45,no=46,missing=46
							45:leaf=0.293703437
							46:leaf=0.0036429551
					38:leaf=-0.0128367431
				22:[Inconsistent_Mates<2] yes=23,no=24,missing=24
					23:[tBAM_REF_BQ<29.7157993] yes=35,no=36,missing=35
						35:leaf=0.081234321
						36:leaf=-0.143197358
					24:[M2_TLOD<139.429993] yes=25,no=26,missing=25
						25:[T_REF_FOR<360] yes=27,no=28,missing=28
							27:[tBAM_p_MannWhitneyU_EndPos<0.952789009] yes=29,no=30,missing=30
								29:leaf=0.253681719
								30:leaf=-0.0125419637
							28:[Inconsistent_Mates<8] yes=33,no=34,missing=34
								33:leaf=-0.182536528
								34:leaf=0.111452885
						26:[T_DP<659] yes=31,no=32,missing=32
							31:leaf=-0.243772089
							32:leaf=0.0179216135
		10:[tBAM_REF_Concordant<911] yes=11,no=12,missing=12
			11:leaf=0.0204097498
			12:leaf=0.185428336
	2:[M2_TLOD<352.859985] yes=3,no=4,missing=4
		3:[T_ALT_FOR<16] yes=5,no=6,missing=6
			5:leaf=-0.104554847
			6:leaf=0.0547441691
		4:[tBAM_REF_BQ<29.8593006] yes=7,no=8,missing=8
			7:leaf=0.0015669564
			8:leaf=-0.180080056
booster[46]:
0:[if_VarDict<1] yes=1,no=2,missing=2
	1:[T_ALT_FOR<12] yes=3,no=4,missing=4
		3:leaf=-0.146118999
		4:[tBAM_StrandBias_FET<0.25999999] yes=5,no=6,missing=6
			5:leaf=0.0597667284
			6:[Consistent_Mates<31] yes=7,no=8,missing=8
				7:leaf=-0.0211419631
				8:leaf=-0.192299068
	2:[T_REF_FOR<307] yes=9,no=10,missing=10
		9:[InDel_Length<1] yes=11,no=12,missing=12
			11:[tBAM_ALT_BQ<29.9559002] yes=27,no=28,missing=27
				27:leaf=-0.097337693
				28:[tBAM_StrandBias_FET<1] yes=29,no=30,missing=30
					29:[tBAM_REF_MQ<59.9971008] yes=31,no=32,missing=32
						31:leaf=-0.1516141
						32:[T_ALT_REV<2] yes=37,no=38,missing=38
							37:leaf=-0.0465610549
							38:leaf=0.164189905
					30:leaf=-0.0954334736
			12:[tBAM_REF_Concordant<390] yes=15,no=16,missing=16
				15:[T_REF_FOR<145] yes=17,no=18,missing=18
					17:[tBAM_ALT_Concordant<32] yes=19,no=20,missing=20
						19:leaf=0.0922130048
						20:leaf=-0.209922135
					18:leaf=0.142069042
				16:[Consistent_Mates<4] yes=33,no=34,missing=34
					33:leaf=0.00487110857
					34:leaf=-0.257273495
		10:[M2_TLOD<325.059998] yes=13,no=14,missing=13
			13:[T_ALT_REV<67] yes=21,no=22,missing=22
				21:[InDel_Length<1] yes=23,no=24,missing=24
					23:[T_REF_FOR<318] yes=25,no=26,missing=26
						25:leaf=0.246236607
						26:[Seq_Complexity_Span<14.6171675] yes=39,no=40,missing=40
							39:[T_ALT_REV<8] yes=41,no=42,missing=42
								41:[tBAM_p_MannWhitneyU_BQ<0.620369971] yes=43,no=44,missing=43
									43:leaf=-0.194455624
									44:leaf=0.0202396121
								42:leaf=0.0922750533
							40:[SHIFT3<5] yes=45,no=46,missing=46
								45:leaf=0.0669119507
								46:leaf=-0.182146639
					24:[MSI<8] yes=35,no=36,missing=36
						35:leaf=0.188652307
						36:leaf=-0.0827898383
				22:leaf=-0.169063568
			14:leaf=0.239119366
booster[47]:
0:[tBAM_REF_MQ<59.9434013] yes=1,no=2,missing=1
	1:[Seq_Complexity_Adj<13.2701817] yes=3,no=4,missing=4
		3:[tBAM_ALT_MQ<60] yes=7,no=8,missing=7
			7:leaf=-0.153422236
			8:leaf=0.0658789575
		4:[tBAM_ALT_Concordant<138] yes=5,no=6,missing=6
			5:leaf=0.163943723
			6:leaf=-0.0686453357
	2:[tBAM_REF_MQ<59.9976006] yes=9,no=10,missing=10
		9:leaf=-0.160563096
		10:[Consistent_Mates<58] yes=11,no=12,missing=12
			11:[if_Scalpel<1] yes=13,no=14,missing=14
				13:[M2_TLOD<363.649994] yes=15,no=16,missing=15
					15:[M2_TLOD<287.929993] yes=19,no=20,missing=19
						19:[T_ALT_REV<146] yes=21,no=22,missing=22
							21:[T_ALT_FOR<125] yes=25,no=26,missing=26
								25:[tBAM_ALT_NM<3.20000005] yes=31,no=32,missing=32
									31:[SHIFT3<7] yes=43,no=44,missing=43
										43:[Seq_Complexity_Span<12.790946] yes=45,no=46,missing=46
											45:leaf=0.071160607
											46:leaf=-0.0246632826
										44:leaf=-0.110820211
									32:[SHIFT3<2] yes=33,no=34,missing=34
										33:[tBAM_REF_Discordant<52] yes=39,no=40,missing=40
											39:[tBAM_REF_Concordant<370] yes=41,no=42,missing=42
												41:leaf=-0.105002023
												42:leaf=0.115790926
											40:leaf=-0.111504026
										34:[InDel_Length<10] yes=35,no=36,missing=36
											35:[tBAM_p_MannWhitneyU_EndPos<0.77788198] yes=37,no=38,missing=38
												37:leaf=-0.0263176356
												38:leaf=0.168640167
											36:leaf=-0.12562032
								26:[M2_TLOD<223.139999] yes=27,no=28,missing=27
									27:leaf=-0.254876643
									28:leaf=0.125204772
							22:leaf=0.278622836
						20:[T_ALT_REV<110] yes=23,no=24,missing=24
							23:leaf=0.0131325051
							24:leaf=-0.264631838
					16:[T_ALT_REV<146] yes=17,no=18,missing=18
						17:leaf=0.210726783
						18:leaf=-0.0637674406
				14:[Inconsistent_Mates<3] yes=29,no=30,missing=30
					29:leaf=0.0443285704
					30:leaf=-0.180288285
			12:leaf=0.100814991
booster[48]:
0:[tBAM_REF_InDel_2bp<2] yes=1,no=2,missing=2
	1:[T_ALT_REV<2] yes=17,no=18,missing=18
		17:[Seq_Complexity_Span<12.9225607] yes=27,no=28,missing=28
			27:leaf=-0.189660817
			28:[Seq_Complexity_Adj<13.1983957] yes=29,no=30,missing=30
				29:[Seq_Complexity_Adj<12.5391111] yes=31,no=32,missing=32
					31:leaf=-0.0637434945
					32:[T_REF_FOR<275] yes=37,no=38,missing=38
						37:leaf=-0.0353869423
						38:leaf=0.23548162
				30:[tBAM_ALT_Concordant<4] yes=39,no=40,missing=40
					39:leaf=-0.191731676
					40:[T_REF_FOR<360] yes=41,no=42,missing=42
						41:leaf=0.102175333
						42:leaf=-0.121051125
		18:[Consistent_Mates<2] yes=19,no=20,missing=20
			19:[MSI<6] yes=23,no=24,missing=24
				23:[T_REF_REV<393] yes=35,no=36,missing=36
					35:leaf=0.171590924
					36:leaf=0.0356122255
				24:[tBAM_REF_BQ<29.7635994] yes=25,no=26,missing=26
					25:leaf=0.110119313
					26:leaf=-0.142331898
			20:[T_ALT_FOR<4] yes=21,no=22,missing=22
				21:leaf=-0.156216189
				22:leaf=0.0158333424
	2:[T_ALT_REV<2] yes=3,no=4,missing=4
		3:[tBAM_REF_InDel_3bp<26] yes=15,no=16,missing=16
			15:leaf=-0.0324657261
			16:leaf=0.19399704
		4:[tBAM_REF_Clipped_Reads<4] yes=5,no=6,missing=6
			5:[MSILEN<2] yes=7,no=8,missing=8
				7:[tBAM_p_MannWhitneyU_BQ<0.728209972] yes=9,no=10,missing=10
					9:[tBAM_ALT_NM<1.28570998] yes=11,no=12,missing=12
						11:leaf=-0.233351067
						12:leaf=0.0251036789
					10:leaf=0.145253643
				8:leaf=-0.211772501
			6:[tBAM_REF_InDel_3bp<31] yes=13,no=14,missing=14
				13:[if_Strelka<1] yes=33,no=34,missing=34
					33:[T_ALT_REV<79] yes=45,no=46,missing=46
						45:leaf=0.0212111175
						46:leaf=0.17362231
					34:leaf=-0.0820416361
				14:[T_ALT_FOR<81] yes=43,no=44,missing=44
					43:leaf=-0.182475761
					44:leaf=0.0546268113
booster[49]:
0:[tBAM_REF_NM<0.0590405986] yes=1,no=2,missing=1
	1:[tBAM_ALT_NM<3.875] yes=3,no=4,missing=4
		3:[tBAM_p_MannWhitneyU_EndPos<0.888804972] yes=5,no=6,missing=6
			5:[Seq_Complexity_Adj<12.9225607] yes=9,no=10,missing=10
				9:[Seq_Complexity_Adj<12.6007137] yes=13,no=14,missing=14
					13:[SHIFT3<12] yes=17,no=18,missing=18
						17:leaf=-0.104525633
						18:leaf=0.119943596
					14:leaf=0.267056733
				10:[T_ALT_REV<3] yes=11,no=12,missing=12
					11:leaf=-0.186797574
					12:[Consistent_Mates<3] yes=15,no=16,missing=16
						15:leaf=0.188662782
						16:leaf=-0.0083997529
			6:[MSI<8] yes=7,no=8,missing=8
				7:leaf=-0.166913539
				8:[Inconsistent_Mates<10] yes=19,no=20,missing=20
					19:leaf=0.150348544
					20:leaf=-0.0436629504
		4:leaf=0.118956119
	2:[Seq_Complexity_Span<13.0582886] yes=21,no=22,missing=22
		21:[SHIFT3<1] yes=23,no=24,missing=24
			23:[tBAM_REF_Concordant<414] yes=25,no=26,missing=26
				25:leaf=0.157172203
				26:[T_REF_FOR<309] yes=27,no=28,missing=28
					27:leaf=-0.197094113
					28:leaf=0.0548313372
			24:[Seq_Complexity_Span<11.5577946] yes=29,no=30,missing=30
				29:[M2_TLOD<10.0900002] yes=31,no=32,missing=31
					31:leaf=-0.115518458
					32:[if_VarScan2<1] yes=33,no=34,missing=34
						33:[M2_TLOD<153.339996] yes=35,no=36,missing=36
							35:leaf=0.20001246
							36:leaf=-0.0453978591
						34:leaf=-0.0815959424
				30:leaf=-0.12473996
		22:[tBAM_p_MannWhitneyU_EndPos<0.396892011] yes=37,no=38,missing=38
			37:[tBAM_REF_Discordant<58] yes=39,no=40,missing=40
				39:[MSI<3] yes=41,no=42,missing=41
					41:leaf=-0.0253319982
					42:[T_REF_REV<330] yes=43,no=44,missing=44
						43:leaf=-0.0423295833
						44:leaf=0.24562189
				40:[SHIFT3<8] yes=45,no=46,missing=46
					45:leaf=-0.101163298
					46:leaf=0.101529785
			38:leaf=-0.0117837982
booster[50]:
0:[if_MuTect<1] yes=1,no=2,missing=2
	1:[T_REF_FOR<620] yes=15,no=16,missing=16
		15:[tBAM_ALT_NM<1.01896] yes=23,no=24,missing=23
			23:leaf=0.0218718871
			24:[tBAM_ALT_NM<1.05555999] yes=25,no=26,missing=26
				25:leaf=-0.0785476565
				26:[Seq_Complexity_Span<10.8398008] yes=27,no=28,missing=28
					27:[MSILEN<3] yes=29,no=30,missing=30
						29:leaf=0.034991283
						30:leaf=-0.194377124
					28:[InDel_Length<-2] yes=31,no=32,missing=32
						31:[tBAM_NM_Diff<0.348592013] yes=39,no=40,missing=40
							39:leaf=0.12424098
							40:leaf=-0.0894450322
						32:[T_ALT_FOR<6] yes=33,no=34,missing=34
							33:[T_REF_FOR<508] yes=35,no=36,missing=36
								35:[tBAM_REF_Discordant<91] yes=37,no=38,missing=38
									37:leaf=-0.189985126
									38:leaf=0.0457210988
								36:leaf=0.0819824487
							34:[SHIFT3<2] yes=41,no=42,missing=42
								41:[T_ALT_REV<43] yes=43,no=44,missing=44
									43:[M2_TLOD<116.040001] yes=45,no=46,missing=45
										45:leaf=-0.0398267023
										46:leaf=0.247245535
									44:leaf=-0.102278918
								42:leaf=0.0387509242
		16:[tBAM_NM_Diff<-0.110598996] yes=17,no=18,missing=18
			17:leaf=0.0492049046
			18:leaf=-0.142058939
	2:[tBAM_ALT_NM<1.03447998] yes=3,no=4,missing=3
		3:[Seq_Complexity_Adj<14.0619946] yes=5,no=6,missing=6
			5:leaf=-0.169500619
			6:leaf=0.0892269164
		4:[tBAM_REF_Discordant<15] yes=7,no=8,missing=8
			7:leaf=-0.135075629
			8:[if_VarDict<1] yes=9,no=10,missing=10
				9:leaf=-0.0545834303
				10:[T_ALT_REV<7] yes=11,no=12,missing=12
					11:[tBAM_REF_Clipped_Reads<3] yes=19,no=20,missing=20
						19:[tBAM_REF_Concordant<518] yes=21,no=22,missing=22
							21:leaf=0.0980306417
							22:leaf=-0.107140638
						20:leaf=0.119213708
					12:[Inconsistent_Mates<9] yes=13,no=14,missing=14
						13:leaf=0.20161286
						14:leaf=-0.00758254714
booster[51]:
0:[SHIFT3<10] yes=1,no=2,missing=1
	1:[tBAM_REF_NM<0.241080001] yes=5,no=6,missing=5
		5:[tBAM_ALT_NM<1.05062997] yes=19,no=20,missing=20
			19:[MSI<2] yes=21,no=22,missing=22
				21:[T_REF_REV<337] yes=41,no=42,missing=42
					41:leaf=0.20389539
					42:leaf=-0.0364645794
				22:[SiteHomopolymer_Length<3] yes=23,no=24,missing=24
					23:[SHIFT3<2] yes=27,no=28,missing=27
						27:[M2_TLOD<21.3700008] yes=35,no=36,missing=36
							35:leaf=0.124936476
							36:[tBAM_ALT_Discordant<3] yes=37,no=38,missing=38
								37:leaf=-0.186808497
								38:leaf=0.000409850938
						28:[tBAM_p_MannWhitneyU_EndPos<0.900195003] yes=29,no=30,missing=30
							29:[Seq_Complexity_Adj<14.5195694] yes=31,no=32,missing=32
								31:[Seq_Complexity_Adj<12.6007137] yes=33,no=34,missing=34
									33:leaf=-0.0902748853
									34:[T_REF_FOR<439] yes=39,no=40,missing=40
										39:[tBAM_REF_Concordant<512] yes=43,no=44,missing=44
											43:leaf=0.049204804
											44:leaf=0.298252672
										40:leaf=0.0188680999
								32:leaf=-0.105708778
							30:leaf=-0.0767940506
					24:[MSI<4] yes=25,no=26,missing=25
						25:[M2_TLOD<28.7299995] yes=45,no=46,missing=46
							45:leaf=-0.149914145
							46:leaf=0.0178739317
						26:leaf=-0.208639532
			20:leaf=0.0252747629
		6:[MSI<5] yes=7,no=8,missing=7
			7:[tBAM_ALT_Discordant<3] yes=9,no=10,missing=10
				9:[if_VarDict<1] yes=11,no=12,missing=12
					11:[tBAM_REF_Concordant<533] yes=15,no=16,missing=16
						15:[tBAM_ALT_Concordant<44] yes=17,no=18,missing=18
							17:leaf=-0.0704931766
							18:leaf=0.120486096
						16:leaf=-0.161379963
					12:[M2_TLOD<232.710007] yes=13,no=14,missing=14
						13:leaf=0.173285216
						14:leaf=-0.0081032943
				10:leaf=-0.0642326325
			8:leaf=-0.142467126
	2:[T_REF_REV<126] yes=3,no=4,missing=4
		3:leaf=0.0445521325
		4:leaf=-0.135115787
booster[52]:
0:[SiteHomopolymer_Length<7] yes=1,no=2,missing=2
	1:[MaxHomopolymer_Length<5] yes=5,no=6,missing=6
		5:[M2_TLOD<38.6800003] yes=37,no=38,missing=38
			37:[T_REF_FOR<268] yes=39,no=40,missing=40
				39:leaf=0.171013251
				40:[MSI<4] yes=41,no=42,missing=42
					41:leaf=0.062458422
					42:leaf=-0.139676064
			38:[M2_TLOD<120.949997] yes=43,no=44,missing=44
				43:[T_ALT_REV<18] yes=45,no=46,missing=46
					45:leaf=0.11492978
					46:leaf=-0.09352047
				44:leaf=0.0204094294
		6:[Seq_Complexity_Span<13.0582886] yes=7,no=8,missing=8
			7:[T_REF_FOR<89] yes=9,no=10,missing=10
				9:leaf=0.0929268003
				10:leaf=-0.138510987
			8:[MSILEN<2] yes=11,no=12,missing=11
				11:[tBAM_Other_Reads<13] yes=13,no=14,missing=14
					13:[T_REF_FOR<350] yes=15,no=16,missing=16
						15:[T_ALT_FOR<4] yes=17,no=18,missing=18
							17:[tBAM_REF_Concordant<731] yes=19,no=20,missing=20
								19:leaf=-0.180723846
								20:leaf=0.106145173
							18:[T_REF_FOR<198] yes=21,no=22,missing=22
								21:[MSI<3] yes=23,no=24,missing=23
									23:[Seq_Complexity_Span<13.7277565] yes=35,no=36,missing=36
										35:leaf=0.147859707
										36:leaf=-0.0382169075
									24:leaf=-0.153083056
								22:[tBAM_p_MannWhitneyU_BQ<0.637252986] yes=29,no=30,missing=30
									29:[MSI<7] yes=31,no=32,missing=31
										31:leaf=0.240777001
										32:leaf=-0.00940606743
									30:leaf=0.0205269493
						16:[Seq_Complexity_Adj<13.8916607] yes=25,no=26,missing=26
							25:leaf=-0.170175672
							26:[T_DP<880] yes=27,no=28,missing=28
								27:leaf=0.108822085
								28:[tBAM_REF_Concordant<936] yes=33,no=34,missing=34
									33:leaf=-0.153464675
									34:leaf=0.0181646701
					14:leaf=0.131965354
				12:leaf=0.163797498
	2:[Seq_Complexity_Adj<13.1277771] yes=3,no=4,missing=4
		3:leaf=0.139917195
		4:leaf=-0.0351470336
booster[53]:
0:[M2_TLOD<8.01000023] yes=1,no=2,missing=2
	1:[tBAM_p_MannWhitneyU_EndPos<0.533015013] yes=3,no=4,missing=4
		3:[tBAM_p_MannWhitneyU_EndPos<0.194104999] yes=5,no=6,missing=6
			5:leaf=-0.0392014161
			6:leaf=0.138703093
		4:leaf=-0.156579882
	2:[M2_TLOD<13.6400003] yes=7,no=8,missing=8
		7:[tBAM_NM_Diff<0.0767517015] yes=9,no=10,missing=10
			9:[tBAM_REF_NM<0.0603448004] yes=11,no=12,missing=12
				11:leaf=-0.0548920445
				12:leaf=0.15781486
			10:leaf=-0.0935070291
		8:[tBAM_REF_NM<0.0595680997] yes=13,no=14,missing=13
			13:[M2_TLOD<76.5400009] yes=15,no=16,missing=16
				15:[M2_TLOD<31.5799999] yes=29,no=30,missing=30
					29:leaf=-0.0172177423
					30:leaf=0.2229449
				16:[T_REF_REV<279] yes=17,no=18,missing=18
					17:[SHIFT3<3] yes=19,no=20,missing=20
						19:leaf=-0.0331125595
						20:[SiteHomopolymer_Length<3] yes=27,no=28,missing=28
							27:leaf=0.258066773
							28:leaf=-0.0249221437
					18:[if_VarScan2<1] yes=21,no=22,missing=22
						21:[T_ALT_FOR<67] yes=23,no=24,missing=24
							23:[T_REF_REV<594] yes=25,no=26,missing=26
								25:leaf=-0.220028803
								26:leaf=0.06939134
							24:leaf=0.0200612582
						22:leaf=0.106748492
			14:[tBAM_REF_NM<0.069930099] yes=31,no=32,missing=32
