booster[0]:
0:[Strelka_Score<2.19000006] yes=1,no=2,missing=1
	1:[M2_STR<1] yes=5,no=6,missing=6
		5:[SOR<0.734584451] yes=13,no=14,missing=14
			13:[MSI<7] yes=27,no=28,missing=28
				27:leaf=0.320388377
				28:[T_ALT_REV<86] yes=29,no=30,missing=30
					29:[N_REF_FOR<350] yes=31,no=32,missing=32
						31:leaf=0.0358974375
						32:leaf=-0.343689322
					30:leaf=0.304918051
			14:leaf=-0.552631617
		6:[VarDict_Score<22.3999996] yes=17,no=18,missing=17
			17:[tBAM_ALT_NM<12] yes=41,no=42,missing=41
				41:leaf=-0.581194401
				42:[VarDict_Score<4.38000011] yes=43,no=44,missing=43
					43:leaf=-0.4909091
					44:leaf=0.144827589
			18:[if_Caller_0<1] yes=21,no=22,missing=22
				21:leaf=-0.482758611
				22:[MSI<4] yes=23,no=24,missing=24
					23:leaf=0.267692327
					24:[SHIFT3<3] yes=37,no=38,missing=38
						37:leaf=0.323076963
						38:leaf=-0.4909091
	2:[if_MuTect<1] yes=3,no=4,missing=4
		3:[T_ALT_FOR<5] yes=7,no=8,missing=8
			7:[InDel_Length<-2] yes=45,no=46,missing=46
				45:leaf=0.0260869581
				46:leaf=-0.558209002
			8:[T_ALT_REV<31] yes=9,no=10,missing=10
				9:[tBAM_NM_Diff<0.224951997] yes=11,no=12,missing=11
					11:leaf=0.465306133
					12:leaf=-0.254237294
				10:[tBAM_Clipping_FET<0.239999995] yes=33,no=34,missing=34
					33:leaf=-0.315107942
					34:[if_VarDict<1] yes=39,no=40,missing=40
						39:leaf=-0.230769247
						40:leaf=0.230769247
		4:[if_VarDict<1] yes=15,no=16,missing=16
			15:[T_ALT_REV<10] yes=19,no=20,missing=20
				19:leaf=0.514285743
				20:leaf=-0.505263209
			16:[tBAM_ALT_Discordant<23] yes=25,no=26,missing=26
				25:[tBAM_REF_Concordant<46] yes=35,no=36,missing=36
					35:leaf=-0.360000014
					36:leaf=0.559674144
				26:leaf=-0
booster[1]:
0:[Strelka_Score<1.66999996] yes=1,no=2,missing=1
	1:[M2_STR<1] yes=5,no=6,missing=6
		5:[tBAM_NM_Diff<0.513158023] yes=13,no=14,missing=14
			13:[if_VarScan2<1] yes=25,no=26,missing=26
				25:[N_REF_FOR<391] yes=37,no=38,missing=38
					37:[M2_NLOD<161.669998] yes=39,no=40,missing=40
						39:leaf=-0.0914307758
						40:leaf=0.417372257
					38:leaf=-0.29698202
				26:[tBAM_REF_InDel_3bp<12] yes=27,no=28,missing=28
					27:leaf=0.450856656
					28:leaf=-0.280492246
			14:leaf=-0.434429735
		6:[VarDict_Score<20.6000004] yes=15,no=16,missing=15
			15:leaf=-0.447525471
			16:[tBAM_ALT_NM<3.10256004] yes=29,no=30,missing=29
				29:leaf=-0.349199176
				30:[Seq_Complexity_Span<12.790946] yes=31,no=32,missing=32
					31:leaf=-0.438982636
					32:leaf=0.315767467
	2:[T_ALT_FOR<4] yes=3,no=4,missing=4
		3:[InDel_Length<-1] yes=11,no=12,missing=12
			11:leaf=0.218857333
			12:leaf=-0.417631149
		4:[if_MuTect<1] yes=7,no=8,missing=8
			7:[T_ALT_REV<2] yes=9,no=10,missing=10
				9:leaf=0.392905205
				10:[MSI<5] yes=17,no=18,missing=18
					17:[T_ALT_REV<35] yes=19,no=20,missing=20
						19:leaf=0.311157137
						20:[InDel_Length<1] yes=21,no=22,missing=22
							21:leaf=0.350742161
							22:[T_ALT_FOR<82] yes=23,no=24,missing=24
								23:leaf=-0.439364016
								24:[T_ALT_REV<118] yes=45,no=46,missing=46
									45:leaf=0.424860746
									46:leaf=-0.343591809
					18:[tBAM_NM_Diff<0.412265003] yes=41,no=42,missing=41
						41:[nBAM_REF_NM<0.0727273002] yes=43,no=44,missing=43
							43:leaf=0.135923639
							44:leaf=-0.316784382
						42:leaf=-0.463589042
			8:[M2_TLOD<839.440002] yes=33,no=34,missing=34
				33:leaf=0.419189095
				34:[T_DP<965] yes=35,no=36,missing=36
					35:leaf=-0.276518285
					36:leaf=0.453478962
booster[2]:
0:[Strelka_Score<1.20000005] yes=1,no=2,missing=1
	1:[M2_STR<1] yes=5,no=6,missing=6
		5:[SOR<0.734584451] yes=15,no=16,missing=16
			15:leaf=0.0360570028
			16:leaf=-0.377606183
		6:[tBAM_ALT_NM<7] yes=19,no=20,missing=19
			19:[VarScan2_Score<14.5100002] yes=33,no=34,missing=34
				33:leaf=-0.394607723
				34:[SHIFT3<1] yes=35,no=36,missing=36
					35:leaf=0.0211157463
					36:[tBAM_REF_Discordant<215] yes=45,no=46,missing=46
						45:leaf=-0.332735091
						46:leaf=0.205246702
			20:[tBAM_REF_Clipped_Reads<7] yes=21,no=22,missing=22
				21:[MSILEN<2] yes=29,no=30,missing=30
					29:leaf=0.390402079
					30:leaf=-0.195559829
				22:leaf=-0.373495191
	2:[if_MuTect<1] yes=3,no=4,missing=4
		3:[T_ALT_FOR<4] yes=7,no=8,missing=8
			7:leaf=-0.355615079
			8:[T_ALT_REV<3] yes=9,no=10,missing=10
				9:[InDel_Length<1] yes=13,no=14,missing=14
					13:[MSI<4] yes=31,no=32,missing=32
						31:leaf=0.356463581
						32:leaf=-0.441602975
					14:leaf=0.389266342
				10:[VarDict_Score<29.3600006] yes=37,no=38,missing=37
					37:[tBAM_NM_Diff<0.0808729008] yes=41,no=42,missing=41
						41:leaf=-0.0118090156
						42:leaf=-0.378967136
					38:[N_REF_FOR<342] yes=39,no=40,missing=40
						39:leaf=-0.125123069
						40:[if_VarScan2<1] yes=43,no=44,missing=44
							43:leaf=-0.260273576
							44:leaf=0.288630873
		4:[if_VarDict<1] yes=11,no=12,missing=12
			11:[T_ALT_REV<10] yes=17,no=18,missing=18
				17:leaf=0.307990789
				18:leaf=-0.408318847
			12:[M2_TLOD<7.78000021] yes=23,no=24,missing=24
				23:leaf=-0.221112385
				24:[tBAM_ALT_Discordant<18] yes=25,no=26,missing=26
					25:leaf=0.380752593
					26:[tBAM_REF_Discordant<50] yes=27,no=28,missing=28
						27:leaf=-0.384375781
						28:leaf=0.283501506
booster[3]:
0:[Strelka_Score<1.20000005] yes=1,no=2,missing=1
	1:[M2_STR<1] yes=5,no=6,missing=6
		5:[tBAM_NM_Diff<0.179824993] yes=21,no=22,missing=22
			21:[Seq_Complexity_Span<9.65290356] yes=31,no=32,missing=32
				31:leaf=-0.39752686
				32:[T_ALT_FOR<27] yes=33,no=34,missing=34
					33:[nBAM_NM_Diff<0.78857398] yes=45,no=46,missing=46
						45:leaf=-0.287349164
						46:leaf=0.382016391
					34:[if_VarScan2<1] yes=35,no=36,missing=36
						35:[T_ALT_REV<86] yes=43,no=44,missing=44
							43:leaf=-0.304199874
							44:leaf=0.096414119
						36:leaf=0.339705855
			22:leaf=-0.296307832
		6:[SHIFT3<3] yes=15,no=16,missing=16
			15:[if_Caller_0<1] yes=17,no=18,missing=18
				17:[InDel_Length<-3] yes=19,no=20,missing=20
					19:[tBAM_REF_NM<0.168712005] yes=25,no=26,missing=26
						25:leaf=0.307482004
						26:leaf=-0.307615936
					20:[tBAM_StrandBias_FET<0.0399999991] yes=41,no=42,missing=42
						41:leaf=0.0891140252
						42:leaf=-0.334757149
				18:leaf=0.305563956
			16:leaf=-0.35503161
	2:[if_MuTect<1] yes=3,no=4,missing=4
		3:[T_ALT_FOR<8] yes=7,no=8,missing=8
			7:[MSI<3] yes=27,no=28,missing=28
				27:[tBAM_REF_InDel_3bp<3] yes=29,no=30,missing=30
					29:leaf=0.282214999
					30:leaf=-0.340468079
				28:leaf=-0.326132536
			8:[T_ALT_REV<18] yes=9,no=10,missing=10
				9:[tBAM_NM_Diff<0.24628] yes=23,no=24,missing=23
					23:[if_Scalpel<0.5] yes=39,no=40,missing=40
						39:leaf=-0.284618169
						40:leaf=0.344579816
					24:leaf=-0.182425871
				10:leaf=-0.056152992
		4:[SHIFT3<4] yes=11,no=12,missing=12
			11:[tBAM_REF_Concordant<46] yes=37,no=38,missing=38
				37:leaf=-0.357522607
				38:leaf=0.3276622
			12:[N_REF_FOR<276] yes=13,no=14,missing=14
				13:leaf=-0.285041451
				14:leaf=0.261053145
booster[4]:
0:[VarScan2_Score<22.6200008] yes=1,no=2,missing=2
	1:[tBAM_ALT_NM<7] yes=5,no=6,missing=5
		5:[SHIFT3<1] yes=17,no=18,missing=18
			17:[if_Caller_0<1] yes=19,no=20,missing=20
				19:[InDel_Length<1] yes=39,no=40,missing=40
					39:leaf=-0.317600876
					40:[SiteHomopolymer_Length<5] yes=41,no=42,missing=42
						41:[Seq_Complexity_Span<12.4783697] yes=43,no=44,missing=44
							43:leaf=-0.21750845
							44:leaf=0.691323459
						42:leaf=-0.255868733
				20:leaf=0.433665335
			18:[nBAM_REF_MQ<14.8250999] yes=27,no=28,missing=27
				27:leaf=0.296532005
				28:leaf=-0.32762295
		6:[VarDict_Score<6.40999985] yes=11,no=12,missing=11
			11:leaf=-0.248273924
			12:leaf=0.250588655
	2:[if_MuTect<1] yes=3,no=4,missing=4
		3:[T_ALT_FOR<4] yes=7,no=8,missing=8
			7:leaf=-0.252038538
			8:[Seq_Complexity_Span<11.4138165] yes=9,no=10,missing=10
				9:leaf=-0.295861959
				10:[T_ALT_REV<4] yes=15,no=16,missing=16
					15:[Inconsistent_Mates<3] yes=29,no=30,missing=30
						29:leaf=0.0243920498
						30:leaf=0.362112701
					16:[if_Scalpel<0.5] yes=21,no=22,missing=22
						21:leaf=-0.272504568
						22:[tBAM_REF_InDel_3bp<14] yes=31,no=32,missing=32
							31:[if_VarScan2<1] yes=33,no=34,missing=34
								33:[T_ALT_FOR<54] yes=45,no=46,missing=46
									45:leaf=0.0708443001
									46:leaf=-0.201877505
								34:[T_REF_FOR<119] yes=37,no=38,missing=38
									37:leaf=-0.316227853
									38:leaf=0.191511706
							32:leaf=-0.202600464
		4:[if_VarDict<1] yes=13,no=14,missing=14
			13:[T_ALT_REV<10] yes=25,no=26,missing=26
				25:leaf=0.275895894
				26:leaf=-0.379597098
			14:[M2_TLOD<839.440002] yes=23,no=24,missing=24
				23:leaf=0.298320651
				24:[N_REF_FOR<213] yes=35,no=36,missing=36
					35:leaf=-0.360864818
					36:leaf=0.209540635
booster[5]:
0:[VarScan2_Score<19.3799992] yes=1,no=2,missing=2
	1:[tBAM_ALT_NM<7] yes=5,no=6,missing=5
		5:[nBAM_REF_MQ<14.8250999] yes=25,no=26,missing=25
			25:leaf=0.261444092
			26:[MSI<4] yes=37,no=38,missing=38
				37:[tBAM_REF_Discordant<45] yes=39,no=40,missing=40
					39:[MSILEN<2] yes=41,no=42,missing=42
						41:[T_ALT_FOR<4] yes=43,no=44,missing=44
							43:leaf=-0.177284986
							44:leaf=0.320182145
						42:[SHIFT3<7] yes=45,no=46,missing=46
							45:leaf=0.673716545
							46:leaf=-0.180786729
					40:leaf=-0.299417108
				38:leaf=-0.320578486
		6:[Seq_Complexity_Span<7.76789808] yes=17,no=18,missing=18
			17:leaf=-0.323585242
			18:leaf=0.157862514
	2:[if_MuTect<1] yes=3,no=4,missing=4
		3:[if_Scalpel<0.5] yes=7,no=8,missing=8
			7:leaf=-0.200804412
			8:[T_ALT_REV<15] yes=9,no=10,missing=10
				9:[nBAM_p_MannWhitneyU_EndPos<0.958554983] yes=13,no=14,missing=14
					13:leaf=-0.36215049
					14:[tBAM_NM_Diff<0.24628] yes=15,no=16,missing=16
						15:leaf=0.271365881
						16:leaf=-0.189338908
				10:[tBAM_REF_InDel_3bp<19] yes=11,no=12,missing=12
					11:[nBAM_Other_Reads<4] yes=27,no=28,missing=28
						27:[Strelka_Score<7.80999994] yes=29,no=30,missing=30
							29:[T_REF_FOR<294] yes=31,no=32,missing=32
								31:leaf=-0.235752165
								32:leaf=0.0615566
							30:[T_ALT_FOR<17] yes=33,no=34,missing=34
								33:leaf=0.520841897
								34:[N_REF_REV<210] yes=35,no=36,missing=36
									35:leaf=-0.150819242
									36:leaf=0.161387295
						28:leaf=-0.262072921
					12:leaf=-0.296189338
		4:[tBAM_Clipping_FET<0.0399999991] yes=19,no=20,missing=20
			19:[SHIFT3<3] yes=21,no=22,missing=22
				21:leaf=0.143633664
				22:leaf=-0.38555178
			20:[M2_TLOD<8.90999985] yes=23,no=24,missing=24
				23:leaf=-0.191330656
				24:leaf=0.268704206
booster[6]:
0:[VarScan2_Score<18.5] yes=1,no=2,missing=2
	1:[tBAM_ALT_NM<7.18181992] yes=5,no=6,missing=5
		5:[SHIFT3<1] yes=29,no=30,missing=30
			29:[tBAM_REF_Discordant<41] yes=31,no=32,missing=32
				31:leaf=0.232876375
				32:leaf=-0.239197463
			30:[tBAM_REF_InDel_1bp<26] yes=37,no=38,missing=38
				37:leaf=-0.294608146
				38:[MSI<4] yes=39,no=40,missing=40
					39:leaf=0.676757932
					40:leaf=-0.181517914
		6:[MSI<4] yes=27,no=28,missing=28
			27:leaf=0.20863834
			28:leaf=-0.190573215
	2:[if_MuTect<1] yes=3,no=4,missing=4
		3:[nBAM_REF_Clipped_Reads<5] yes=7,no=8,missing=8
			7:[T_ALT_FOR<1] yes=9,no=10,missing=10
				9:leaf=-0.237138107
				10:[Consistent_Mates<1] yes=11,no=12,missing=12
					11:[MSI<4] yes=13,no=14,missing=14
						13:leaf=0.393749416
						14:[tBAM_REF_InDel_3bp<31] yes=17,no=18,missing=18
							17:[SHIFT3<3] yes=33,no=34,missing=34
								33:leaf=0.373611987
								34:leaf=-0.199975505
							18:leaf=0.295983791
					12:[T_ALT_FOR<6] yes=23,no=24,missing=24
						23:leaf=-0.201309949
						24:[tBAM_REF_InDel_3bp<7] yes=41,no=42,missing=42
							41:[if_VarScan2<1] yes=43,no=44,missing=44
								43:leaf=-0.05763302
								44:[N_REF_FOR<415] yes=45,no=46,missing=46
									45:leaf=0.0276481956
									46:leaf=0.309796691
							42:leaf=-0.13841939
			8:leaf=-0.273584276
		4:[if_VarDict<1] yes=15,no=16,missing=16
			15:[T_ALT_REV<10] yes=35,no=36,missing=36
				35:leaf=0.21632947
				36:leaf=-0.34045732
			16:[T_REF_FOR<147] yes=19,no=20,missing=20
				19:[M2_TLOD<358.519989] yes=21,no=22,missing=22
					21:leaf=0.251438826
					22:leaf=-0.401055187
				20:[N_ALT_FOR<1] yes=25,no=26,missing=26
					25:leaf=0.269604206
					26:leaf=-0.249787375
booster[7]:
0:[if_Caller_0<1] yes=1,no=2,missing=2
	1:[VarScan2_Score<14.1400003] yes=9,no=10,missing=10
		9:[tBAM_ALT_NM<12] yes=29,no=30,missing=29
			29:leaf=-0.284284264
			30:leaf=0.0619060621
		10:[M2_TLOD<9.14999962] yes=19,no=20,missing=19
			19:[N_REF_FOR<65] yes=23,no=24,missing=24
				23:leaf=0.301492214
				24:[Consistent_Mates<2] yes=45,no=46,missing=46
					45:leaf=-0.0937482864
					46:leaf=-0.273960888
			20:leaf=0.0292777587
	2:[if_VarScan2<1] yes=3,no=4,missing=4
		3:[tBAM_Other_Reads<3] yes=17,no=18,missing=18
			17:[N_REF_FOR<117] yes=21,no=22,missing=22
				21:[VarDict_Score<1.99000001] yes=33,no=34,missing=33
					33:leaf=0.424908161
					34:leaf=-0.106872186
				22:leaf=-0.113432191
			18:[tBAM_REF_MQ<42.2448997] yes=35,no=36,missing=35
				35:leaf=0.312138677
				36:leaf=-0.284591615
		4:[T_ALT_REV<23] yes=5,no=6,missing=6
			5:[tBAM_NM_Diff<0.596638978] yes=13,no=14,missing=14
				13:[InDel_Length<-22] yes=37,no=38,missing=38
					37:leaf=-0.234625831
					38:[MSI<4] yes=39,no=40,missing=40
						39:leaf=0.353993803
						40:[if_Scalpel<0.5] yes=41,no=42,missing=42
							41:[SHIFT3<3] yes=43,no=44,missing=44
								43:leaf=0.467114419
								44:leaf=-0.298730195
							42:leaf=0.227821752
				14:leaf=-0.220719978
			6:[T_ALT_FOR<31] yes=7,no=8,missing=8
				7:[InDel_Length<1] yes=11,no=12,missing=12
					11:leaf=0.165359035
					12:leaf=-0.336541146
				8:[SHIFT3<4] yes=15,no=16,missing=15
					15:[T_ALT_REV<89] yes=25,no=26,missing=26
						25:leaf=0.264871448
						26:[Strelka_Score<7.67000008] yes=27,no=28,missing=28
							27:leaf=-0.297331661
							28:[Seq_Complexity_Span<13.4174147] yes=31,no=32,missing=32
								31:leaf=-0.0951615274
								32:leaf=0.303223014
					16:leaf=-0.319653332
booster[8]:
0:[VarScan2_Score<13.0900002] yes=1,no=2,missing=2
	1:[tBAM_ALT_NM<8.97752953] yes=9,no=10,missing=9
		9:[nBAM_REF_MQ<14.8250999] yes=23,no=24,missing=23
			23:leaf=0.212938949
			24:leaf=-0.268223912
		10:[tBAM_REF_NM<0.0701638982] yes=41,no=42,missing=42
			41:leaf=0.365104973
			42:leaf=-0.0991775542
	2:[if_Caller_0<1] yes=3,no=4,missing=4
		3:[tBAM_NM_Diff<0.0456207991] yes=15,no=16,missing=16
			15:[InDel_Length<-1] yes=17,no=18,missing=18
				17:[nBAM_Other_Reads<3] yes=19,no=20,missing=20
					19:leaf=0.343862474
					20:leaf=-0.257666022
				18:[N_DP<1293] yes=25,no=26,missing=26
					25:[MSI<4] yes=43,no=44,missing=43
						43:[tBAM_REF_NM<0.508211017] yes=45,no=46,missing=46
							45:leaf=0.128116786
							46:leaf=-0.232523531
						44:leaf=-0.16663003
					26:leaf=-0.268376976
			16:leaf=-0.236834392
		4:[if_VarDict<1] yes=5,no=6,missing=6
			5:[T_ALT_FOR<25] yes=7,no=8,missing=8
				7:leaf=-0.22030586
				8:[if_VarScan2<1] yes=27,no=28,missing=28
					27:[T_REF_REV<389] yes=31,no=32,missing=32
						31:leaf=-0.172276467
						32:leaf=0.171672449
					28:[T_ALT_REV<88] yes=29,no=30,missing=30
						29:[tBAM_NM_Diff<0.0142213004] yes=39,no=40,missing=40
							39:leaf=0.302652776
							40:leaf=-0.0750727877
						30:leaf=-0.160635084
			6:[nBAM_NM_Diff<0.220045999] yes=11,no=12,missing=12
				11:leaf=-0.151139289
				12:[T_REF_FOR<147] yes=13,no=14,missing=14
					13:[VarScan2_Score<412.070007] yes=21,no=22,missing=22
						21:leaf=0.117953397
						22:leaf=-0.344692379
					14:[tBAM_ALT_Clipped_Reads<4] yes=33,no=34,missing=34
						33:[tBAM_REF_InDel_2bp<25] yes=35,no=36,missing=36
							35:[InDel_Length<-22] yes=37,no=38,missing=38
								37:leaf=-0.359339595
								38:leaf=0.251055241
							36:leaf=-0.217206135
						34:leaf=-0.118304797
booster[9]:
0:[VarScan2_Score<11.5699997] yes=1,no=2,missing=2
	1:[InDel_Length<-6] yes=17,no=18,missing=18
		17:[InDel_Length<-30] yes=19,no=20,missing=20
			19:leaf=-0.304362595
			20:[MSILEN<2] yes=21,no=22,missing=22
				21:leaf=0.43279323
				22:leaf=-0.171299174
		18:[nBAM_REF_Discordant<1] yes=39,no=40,missing=40
			39:[Strelka_Score<3.74000001] yes=41,no=42,missing=42
				41:leaf=0.642521381
				42:leaf=-0.142369851
			40:leaf=-0.267182529
	2:[M2_TLOD<8.52000046] yes=3,no=4,missing=3
		3:[SHIFT3<3] yes=5,no=6,missing=6
			5:[Consistent_Mates<2] yes=7,no=8,missing=8
				7:[T_ALT_FOR<1] yes=9,no=10,missing=10
					9:leaf=-0.133665577
					10:[if_VarDict<1] yes=15,no=16,missing=16
						15:leaf=-0.140837029
						16:[tBAM_REF_Discordant<68] yes=25,no=26,missing=26
							25:[VarDict_Score<18.0499992] yes=27,no=28,missing=28
								27:leaf=0.992070317
								28:leaf=0.328199387
							26:leaf=0.130632639
				8:[T_ALT_FOR<5] yes=37,no=38,missing=38
					37:leaf=-0.239547312
					38:leaf=0.171211883
			6:[MSI<4] yes=23,no=24,missing=24
				23:[Consistent_Mates<2] yes=35,no=36,missing=36
					35:leaf=0.507858396
					36:leaf=-0.22575888
				24:[InDel_Length<1] yes=45,no=46,missing=46
					45:leaf=-0.266367286
					46:leaf=-0.0846639052
		4:[InDel_Length<1] yes=11,no=12,missing=12
			11:[tBAM_ALT_Discordant<24] yes=29,no=30,missing=30
				29:[SHIFT3<10] yes=31,no=32,missing=32
					31:leaf=0.224378571
					32:[tBAM_Other_Reads<37] yes=43,no=44,missing=44
						43:leaf=-0.213854998
						44:leaf=0.212215796
				30:leaf=-0.166474402
			12:[T_ALT_REV<9] yes=13,no=14,missing=14
				13:leaf=0.232026502
				14:[tBAM_REF_NM<0.245614007] yes=33,no=34,missing=34
					33:leaf=-0.00479034008
					34:leaf=-0.200578436
booster[10]:
0:[VarScan2_Score<11.5699997] yes=1,no=2,missing=2
	1:[SHIFT3<3] yes=11,no=12,missing=12
		11:[tBAM_ALT_NM<2.00876999] yes=13,no=14,missing=14
			13:[tBAM_REF_InDel_1bp<14] yes=27,no=28,missing=28
				27:leaf=-0.23834528
				28:leaf=0.399432451
			14:[Seq_Complexity_Span<11.5092688] yes=37,no=38,missing=38
				37:leaf=-0.227651
				38:[tBAM_ALT_NM<7] yes=39,no=40,missing=39
					39:[tBAM_NM_Diff<0.355839014] yes=41,no=42,missing=41
						41:leaf=0.811810374
						42:leaf=-0.0911700875
					40:leaf=0.0434939303
		12:leaf=-0.257503241
	2:[nBAM_ALT_NM<0.136363998] yes=3,no=4,missing=3
		3:[tBAM_NM_Diff<0.596638978] yes=5,no=6,missing=6
			5:[InDel_Length<-1] yes=7,no=8,missing=8
				7:[VarScan2_Score<724.669983] yes=21,no=22,missing=22
					21:[SHIFT3<8] yes=23,no=24,missing=24
						23:[InDel_Length<-22] yes=25,no=26,missing=26
							25:[SHIFT3<2] yes=43,no=44,missing=44
								43:leaf=-0.588970542
								44:leaf=0.197561249
							26:leaf=0.312761128
						24:leaf=-0.109878786
					22:leaf=-0.151140228
				8:[T_ALT_FOR<1] yes=9,no=10,missing=10
					9:leaf=-0.277218521
					10:[Consistent_Mates<1] yes=15,no=16,missing=16
						15:[N_DP<1317] yes=33,no=34,missing=34
							33:leaf=0.215364024
							34:leaf=-0.12282972
						16:[VarDict_Score<46.9900017] yes=17,no=18,missing=18
							17:[tBAM_StrandBias_FET<0.579999983] yes=31,no=32,missing=32
								31:leaf=0.0272645857
								32:leaf=-0.274903119
							18:[if_Scalpel<1] yes=19,no=20,missing=20
								19:[T_ALT_REV<36] yes=45,no=46,missing=46
									45:leaf=0.103158548
									46:leaf=0.400857449
								20:[T_ALT_FOR<30] yes=35,no=36,missing=36
									35:leaf=-0.202421322
									36:leaf=0.0197209679
			6:leaf=-0.228268906
		4:[M2_ECNT<2] yes=29,no=30,missing=30
			29:leaf=0.00304344506
			30:leaf=-0.310734183
booster[11]:
0:[if_Scalpel<0.5] yes=1,no=2,missing=2
	1:[MSI<4] yes=3,no=4,missing=4
		3:[tBAM_REF_Discordant<57] yes=5,no=6,missing=6
			5:[if_VarDict<0.5] yes=7,no=8,missing=8
				7:leaf=-0.222980335
				8:[Consistent_Mates<2] yes=11,no=12,missing=12
					11:[T_ALT_FOR<1] yes=29,no=30,missing=30
						29:[Seq_Complexity_Span<13.2701817] yes=33,no=34,missing=34
							33:leaf=-0.236614838
							34:[tBAM_p_MannWhitneyU_EndPos<0.64883399] yes=35,no=36,missing=36
								35:leaf=-0.0999945477
								36:leaf=0.501612961
						30:[nBAM_p_MannWhitneyU_MQ<2.00001001] yes=31,no=32,missing=32
							31:leaf=-0.0267599728
							32:[nBAM_REF_BQ<29.9517994] yes=37,no=38,missing=38
								37:leaf=0.765888631
								38:leaf=0.106558867
					12:leaf=-0.0394045524
			6:[T_ALT_FOR<7] yes=19,no=20,missing=20
				19:leaf=-0.204936877
				20:leaf=0.255180269
		4:[SHIFT3<3] yes=25,no=26,missing=26
			25:[Seq_Complexity_Adj<12.4184656] yes=27,no=28,missing=28
				27:leaf=-0.279874802
				28:leaf=0.157508045
			26:leaf=-0.249612957
	2:[MaxHomopolymer_Length<9] yes=9,no=10,missing=10
		9:[tBAM_Clipping_FET<0.239999995] yes=13,no=14,missing=14
			13:leaf=-0.0418245085
			14:[T_ALT_FOR<1] yes=15,no=16,missing=16
				15:[InDel_Length<-1] yes=21,no=22,missing=22
					21:leaf=0.167368099
					22:leaf=-0.272877276
				16:[nBAM_p_MannWhitneyU_EndPos<0.854260981] yes=17,no=18,missing=18
					17:leaf=-0.145683378
					18:[nBAM_REF_Discordant<1] yes=23,no=24,missing=24
						23:leaf=0.671589613
						24:[tBAM_NM_Diff<0.764706016] yes=39,no=40,missing=40
							39:[Seq_Complexity_Span<9.37852097] yes=41,no=42,missing=42
								41:leaf=-0.267258346
								42:[tBAM_Other_Reads<13] yes=43,no=44,missing=44
									43:[if_VarScan2<1] yes=45,no=46,missing=46
										45:leaf=-0.01454625
										46:leaf=0.163566887
									44:leaf=0.360421598
							40:leaf=-0.158849403
		10:leaf=-0.261576295
booster[12]:
0:[VarScan2_Score<11.5699997] yes=1,no=2,missing=2
	1:[MSI<4] yes=3,no=4,missing=4
		3:[M2_TLOD<6.30000019] yes=5,no=6,missing=5
			5:[tBAM_REF_Discordant<27] yes=9,no=10,missing=10
				9:[tBAM_NM_Diff<-0.0928381979] yes=41,no=42,missing=41
					41:leaf=0.469157308
					42:leaf=-0.0868121758
				10:[VarDict_Score<12.96] yes=35,no=36,missing=36
					35:leaf=-0.230758861
					36:leaf=0.127276301
			6:leaf=0.374353468
		4:[Seq_Complexity_Adj<15.1410484] yes=29,no=30,missing=30
			29:leaf=-0.243152231
			30:[nBAM_REF_Discordant<14] yes=31,no=32,missing=32
				31:leaf=0.458381772
				32:leaf=-0.138540074
	2:[Seq_Complexity_Span<9.5288105] yes=7,no=8,missing=8
		7:leaf=-0.31013155
		8:[tBAM_NM_Diff<0.179824993] yes=11,no=12,missing=12
			11:[T_ALT_FOR<1] yes=13,no=14,missing=14
				13:[InDel_Length<-1] yes=19,no=20,missing=20
					19:leaf=0.206503779
					20:leaf=-0.268759042
				14:[Consistent_Mates<2] yes=15,no=16,missing=16
					15:[nBAM_REF_NM<0.0666666999] yes=21,no=22,missing=22
						21:[tBAM_StrandBias_FET<0.589999974] yes=23,no=24,missing=24
							23:[tBAM_Other_Reads<2] yes=33,no=34,missing=34
								33:leaf=0.215988934
								34:[nBAM_REF_NM<0.0494208001] yes=37,no=38,missing=38
									37:leaf=0.177648291
									38:leaf=-0.252127707
							24:leaf=0.438026398
						22:[M2_NLOD<128.759995] yes=27,no=28,missing=28
							27:leaf=0.239710525
							28:leaf=-0.108205102
					16:[tBAM_Concordance_FET<0.219999999] yes=17,no=18,missing=18
						17:[if_MuTect<1] yes=43,no=44,missing=44
							43:[if_Scalpel<1] yes=45,no=46,missing=46
								45:leaf=0.197403759
								46:leaf=-0.0140919341
							44:leaf=0.204514667
						18:[tBAM_StrandBias_FET<0.560000002] yes=25,no=26,missing=26
							25:[tBAM_p_MannWhitneyU_EndPos<0.372285008] yes=39,no=40,missing=40
								39:leaf=0.187632382
								40:leaf=-0.0743572339
							26:leaf=-0.193607971
			12:leaf=-0.110628314
booster[13]:
0:[if_Scalpel<0.5] yes=1,no=2,missing=2
	1:[SHIFT3<3] yes=3,no=4,missing=4
		3:[InDel_Length<1] yes=5,no=6,missing=6
			5:[tBAM_p_MannWhitneyU_BQ<0.576198995] yes=7,no=8,missing=8
				7:leaf=-0.223602414
				8:[InDel_Length<-1] yes=19,no=20,missing=20
					19:[Seq_Complexity_Adj<12.6632032] yes=43,no=44,missing=44
						43:leaf=-0.177059621
						44:leaf=0.327334195
					20:[tBAM_REF_BQ<29.9111004] yes=21,no=22,missing=22
						21:leaf=-0.155091286
						22:leaf=0.463911891
			6:[tBAM_REF_Clipped_Reads<11] yes=13,no=14,missing=14
				13:[T_ALT_FOR<1] yes=41,no=42,missing=42
					41:leaf=-0.0713330507
					42:leaf=0.424013406
				14:leaf=-0.244270623
		4:[tBAM_ALT_NM<12] yes=23,no=24,missing=23
			23:[VarDict_Score<22.7700005] yes=25,no=26,missing=25
				25:leaf=-0.237220615
				26:[tBAM_ALT_NM<1.07406998] yes=27,no=28,missing=27
					27:leaf=0.328281909
					28:leaf=-0.138200805
			24:leaf=0.217789814
	2:[nBAM_Other_Reads<4] yes=9,no=10,missing=10
		9:[if_Scalpel<1] yes=11,no=12,missing=12
			11:[M2_TLOD<16.6100006] yes=15,no=16,missing=15
				15:[T_ALT_REV<23] yes=45,no=46,missing=46
					45:leaf=-0.0129893208
					46:leaf=0.332147241
				16:leaf=0.210850522
			12:[Strelka_Score<7.3499999] yes=29,no=30,missing=30
				29:[T_ALT_FOR<68] yes=31,no=32,missing=32
					31:[T_ALT_REV<18] yes=35,no=36,missing=36
						35:leaf=0.032028839
						36:leaf=-0.28588438
					32:[T_ALT_REV<86] yes=33,no=34,missing=34
						33:leaf=0.308525324
						34:leaf=-0.23512949
				30:[tBAM_REF_InDel_2bp<2] yes=37,no=38,missing=38
					37:[M2_TLOD<605.400024] yes=39,no=40,missing=39
						39:leaf=0.170675516
						40:leaf=-0.144535214
					38:leaf=-0.0793522373
		10:[M2_NLOD<245.880005] yes=17,no=18,missing=17
			17:leaf=-0.267031699
			18:leaf=0.171040609
booster[14]:
0:[SOR<0.100085177] yes=1,no=2,missing=1
	1:[if_VarDict<1] yes=3,no=4,missing=4
		3:[T_ALT_FOR<5] yes=5,no=6,missing=6
			5:[tBAM_REF_Discordant<40] yes=43,no=44,missing=44
				43:[Seq_Complexity_Adj<14.6171675] yes=45,no=46,missing=46
					45:leaf=-0.147790939
					46:leaf=0.285441667
				44:leaf=-0.252264768
			6:[nBAM_REF_MQ<48.0460014] yes=23,no=24,missing=23
				23:leaf=0.357405245
				24:[tBAM_NM_Diff<0.24628] yes=29,no=30,missing=30
					29:leaf=0.0174241196
					30:[tBAM_REF_InDel_1bp<2] yes=37,no=38,missing=38
						37:leaf=0.013807524
						38:leaf=-0.332465082
		4:[Consistent_Mates<2] yes=7,no=8,missing=8
			7:[SHIFT3<7] yes=11,no=12,missing=12
				11:[T_REF_FOR<231] yes=13,no=14,missing=14
					13:[tBAM_ALT_Discordant<1] yes=25,no=26,missing=26
						25:[Strelka_Score<1.27999997] yes=41,no=42,missing=41
							41:leaf=0.701325536
							42:leaf=0.18028976
						26:leaf=-0.0207131319
					14:[tBAM_StrandBias_FET<0.560000002] yes=15,no=16,missing=16
						15:[if_VarScan2<1] yes=17,no=18,missing=18
							17:leaf=-0.216032058
							18:[tBAM_p_MannWhitneyU_EndPos<0.998806] yes=19,no=20,missing=20
								19:[tBAM_ALT_NM<1.84615004] yes=39,no=40,missing=40
									39:leaf=0.0503417291
									40:leaf=0.294860631
								20:[Seq_Complexity_Span<15.0310946] yes=35,no=36,missing=36
									35:leaf=-0.456390619
									36:leaf=0.0787482709
						16:[nBAM_REF_NM<0.121817999] yes=33,no=34,missing=34
							33:leaf=0.337762862
							34:leaf=-0.101832487
				12:leaf=-0.146855175
			8:[Strelka_Score<17.2800007] yes=9,no=10,missing=10
				9:[N_REF_FOR<309] yes=21,no=22,missing=22
					21:leaf=-0.0444458537
					22:leaf=0.156760842
				10:[tBAM_REF_Concordant<365] yes=31,no=32,missing=32
					31:leaf=0.0925255567
					32:leaf=-0.242104813
	2:[M2_NLOD<22.4300003] yes=27,no=28,missing=28
		27:leaf=0.244685546
		28:leaf=-0.238795042
booster[15]:
0:[SOR<0.415447146] yes=1,no=2,missing=1
	1:[M2_TLOD<8.52000046] yes=3,no=4,missing=3
		3:[tBAM_REF_Discordant<41] yes=5,no=6,missing=6
			5:[N_REF_REV<366] yes=7,no=8,missing=8
				7:[tBAM_REF_NM<0.0433526002] yes=23,no=24,missing=23
					23:leaf=0.221759662
					24:[SHIFT3<3] yes=25,no=26,missing=26
						25:leaf=0.0592869148
						26:leaf=-0.223844945
				8:[N_REF_REV<436] yes=11,no=12,missing=12
					11:[T_REF_REV<309] yes=17,no=18,missing=18
						17:leaf=-0.00138766307
						18:leaf=0.691769898
					12:[tBAM_p_MannWhitneyU_EndPos<0.888691008] yes=15,no=16,missing=16
						15:[tBAM_REF_NM<0.120902002] yes=41,no=42,missing=42
							41:leaf=0.349273026
							42:leaf=-0.0263521969
						16:leaf=-0.189424202
			6:[T_REF_FOR<158] yes=9,no=10,missing=10
				9:[N_DP<290] yes=45,no=46,missing=46
					45:leaf=-0.0793932974
					46:leaf=0.391965955
				10:[if_Caller_0<1] yes=19,no=20,missing=20
					19:leaf=-0.183495328
					20:[tBAM_Concordance_FET<0.899999976] yes=21,no=22,missing=22
						21:leaf=-0.172452778
						22:leaf=0.119713351
		4:[tBAM_ALT_Concordant<18] yes=13,no=14,missing=14
			13:[tBAM_p_MannWhitneyU_EndPos<0.997892976] yes=39,no=40,missing=40
				39:[Seq_Complexity_Adj<10.7578564] yes=43,no=44,missing=44
					43:leaf=-0.0958889574
					44:leaf=0.282371312
				40:leaf=-0.0669646412
			14:[M2_TLOD<20.4300003] yes=27,no=28,missing=28
				27:[N_REF_FOR<84] yes=29,no=30,missing=30
					29:leaf=0.237278357
					30:[N_REF_REV<481] yes=33,no=34,missing=34
						33:leaf=-0.463369817
						34:leaf=0.0375864282
				28:[M2_TLOD<25.7099991] yes=31,no=32,missing=32
					31:leaf=0.342734069
					32:[tBAM_Clipping_FET<0.239999995] yes=35,no=36,missing=36
						35:leaf=-0.0493108854
						36:[tBAM_REF_InDel_2bp<13] yes=37,no=38,missing=38
							37:leaf=0.0995736197
							38:leaf=-0.126433149
	2:leaf=-0.238501996
booster[16]:
0:[nBAM_p_MannWhitneyU_BQ<0.581062019] yes=1,no=2,missing=2
	1:[VarDict_Score<27.8999996] yes=35,no=36,missing=35
		35:leaf=-0.269434035
		36:[Seq_Complexity_Adj<13.1277771] yes=37,no=38,missing=38
			37:leaf=-0.258122832
			38:leaf=0.156084448
	2:[nBAM_p_MannWhitneyU_BQ<0.587921023] yes=3,no=4,missing=4
		3:[nBAM_REF_Clipped_Reads<1] yes=5,no=6,missing=6
			5:leaf=0.805357754
			6:leaf=-0.0928670987
		4:[nBAM_NM_Diff<0.897809982] yes=7,no=8,missing=8
			7:leaf=-0.247814193
			8:[T_ALT_FOR<1] yes=9,no=10,missing=10
				9:[InDel_Length<-1] yes=11,no=12,missing=12
					11:[tBAM_REF_Discordant<40] yes=13,no=14,missing=14
						13:leaf=0.319930971
						14:[Seq_Complexity_Adj<14.8192015] yes=15,no=16,missing=16
							15:leaf=-0.206769183
							16:leaf=0.26857084
					12:[T_REF_REV<693] yes=23,no=24,missing=24
						23:leaf=-0.257393241
						24:leaf=0.146407098
				10:[tBAM_REF_Discordant<197] yes=17,no=18,missing=18
					17:[tBAM_p_MannWhitneyU_EndPos<0.0450984016] yes=21,no=22,missing=22
						21:[nBAM_REF_NM<0.0437158011] yes=25,no=26,missing=26
							25:leaf=0.205662027
							26:leaf=-0.234908372
						22:[InDel_Length<-22] yes=27,no=28,missing=28
							27:[SHIFT3<1] yes=31,no=32,missing=31
								31:leaf=-0.545313299
								32:leaf=0.147540823
							28:[InDel_Length<-4] yes=29,no=30,missing=30
								29:[tBAM_NM_Diff<0.816209972] yes=33,no=34,missing=34
									33:leaf=0.262861222
									34:leaf=-0.128424838
								30:[tBAM_p_MannWhitneyU_BQ<0.583230019] yes=39,no=40,missing=40
									39:leaf=-0.0457364358
									40:[Consistent_Mates<2] yes=41,no=42,missing=42
										41:[nBAM_REF_NM<0.0693511963] yes=43,no=44,missing=43
											43:leaf=0.212607399
											44:leaf=-0.0540878288
										42:[T_ALT_FOR<4] yes=45,no=46,missing=46
											45:leaf=-0.231376514
											46:leaf=0.0257443618
					18:[MSI<3] yes=19,no=20,missing=20
						19:leaf=-0.0628245622
						20:leaf=0.469314724
booster[17]:
0:[nBAM_p_MannWhitneyU_EndPos<0.854260981] yes=1,no=2,missing=2
	1:leaf=-0.188665301
	2:[if_VarDict<1] yes=3,no=4,missing=4
		3:[T_ALT_FOR<7] yes=5,no=6,missing=6
			5:leaf=-0.161422998
			6:leaf=-0.000982686412
		4:[tBAM_ALT_NM<1.84615004] yes=7,no=8,missing=7
			7:[nBAM_REF_Concordant<1190] yes=9,no=10,missing=10
				9:[N_DP<1002] yes=11,no=12,missing=12
					11:[nBAM_REF_InDel_3bp<1] yes=17,no=18,missing=18
						17:[MaxHomopolymer_Length<4] yes=19,no=20,missing=20
							19:[Seq_Complexity_Span<14.0619946] yes=23,no=24,missing=24
								23:leaf=-0.0929500014
								24:leaf=0.228788614
							20:[tBAM_REF_NM<0.0547219999] yes=21,no=22,missing=22
								21:[T_REF_REV<274] yes=33,no=34,missing=34
									33:leaf=0.316206336
									34:leaf=-0.0446191467
								22:[SiteHomopolymer_Length<7] yes=29,no=30,missing=30
									29:leaf=-0.202880099
									30:leaf=0.237416551
						18:[N_REF_REV<361] yes=25,no=26,missing=26
							25:leaf=-0.0475436784
							26:leaf=0.47270909
					12:[nBAM_REF_BQ<29.8642998] yes=15,no=16,missing=16
						15:leaf=-0.17552489
						16:[SHIFT3<2] yes=31,no=32,missing=32
							31:leaf=0.0831673294
							32:[T_REF_REV<346] yes=45,no=46,missing=46
								45:leaf=0.0266454201
								46:leaf=0.572376728
				10:[M2_TLOD<8.38000011] yes=13,no=14,missing=13
					13:leaf=-0.305471182
					14:leaf=0.123145826
			8:[nBAM_REF_Clipped_Reads<5] yes=27,no=28,missing=28
				27:[InDel_Length<-22] yes=35,no=36,missing=36
					35:[SHIFT3<1] yes=37,no=38,missing=38
						37:leaf=-0.415791512
						38:leaf=0.139829367
					36:[tBAM_ALT_Discordant<1] yes=39,no=40,missing=40
						39:leaf=0.215592235
						40:[tBAM_REF_Discordant<38] yes=41,no=42,missing=42
							41:leaf=-0.258831382
							42:[SHIFT3<3] yes=43,no=44,missing=44
								43:leaf=0.263058633
								44:leaf=-0.0724124834
				28:leaf=-0.148354426
booster[18]:
0:[Seq_Complexity_Span<9.5288105] yes=1,no=2,missing=2
	1:leaf=-0.23259145
	2:[N_REF_FOR<20] yes=3,no=4,missing=4
		3:[tBAM_Clipping_FET<0.0599999987] yes=5,no=6,missing=6
			5:leaf=-0.232318714
			6:leaf=0.331321836
		4:[if_Scalpel<0.5] yes=7,no=8,missing=8
			7:[tBAM_REF_Discordant<56] yes=9,no=10,missing=10
				9:[T_REF_REV<302] yes=11,no=12,missing=12
					11:[VarDict_Score<15.3800001] yes=31,no=32,missing=31
						31:leaf=-0.196187422
						32:[Strelka_Score<3.02999997] yes=33,no=34,missing=34
							33:leaf=-0.211942732
							34:leaf=0.216582432
					12:[tBAM_NM_Diff<-0.0692168027] yes=13,no=14,missing=13
						13:[tBAM_p_MannWhitneyU_EndPos<0.897351027] yes=15,no=16,missing=16
							15:[tBAM_REF_BQ<29.8866997] yes=17,no=18,missing=18
								17:[tBAM_p_MannWhitneyU_EndPos<0.057593599] yes=45,no=46,missing=46
									45:leaf=-0.119457155
									46:leaf=0.259217232
								18:leaf=0.68126446
							16:leaf=-0.0413308479
						14:[nBAM_REF_BQ<29.9129009] yes=35,no=36,missing=36
							35:leaf=-0.138907805
							36:[SHIFT3<6] yes=39,no=40,missing=40
								39:leaf=0.260845661
								40:leaf=-0.179781616
				10:[nBAM_REF_Discordant<16] yes=23,no=24,missing=24
					23:[tBAM_REF_InDel_2bp<1] yes=29,no=30,missing=30
						29:leaf=-0.103700019
						30:leaf=0.233511761
					24:[VarDict_Score<15.5799999] yes=25,no=26,missing=25
						25:leaf=-0.259318531
						26:[tBAM_REF_NM<0.0574713014] yes=27,no=28,missing=28
							27:leaf=0.246886134
							28:leaf=-0.134980857
			8:[VarDict_Score<11.9399996] yes=19,no=20,missing=20
				19:[VarDict_Score<5.88999987] yes=21,no=22,missing=22
					21:leaf=-0.10373237
					22:[nBAM_p_MannWhitneyU_MQ<2.00001001] yes=37,no=38,missing=38
						37:leaf=0.624639094
						38:leaf=0.0821178779
				20:[tBAM_NM_Diff<0.816209972] yes=41,no=42,missing=42
					41:[tBAM_REF_NM<0.392567009] yes=43,no=44,missing=44
						43:leaf=0.029179588
						44:leaf=-0.0785256624
					42:leaf=-0.214310631
booster[19]:
0:[nBAM_ALT_NM<1.05555999] yes=1,no=2,missing=1
	1:[tBAM_NM_Diff<0.596638978] yes=5,no=6,missing=5
		5:[SHIFT3<8] yes=9,no=10,missing=9
			9:[InDel_Length<-2] yes=11,no=12,missing=12
				11:[VarScan2_Score<724.669983] yes=17,no=18,missing=18
					17:[tBAM_Other_Reads<7] yes=41,no=42,missing=42
						41:leaf=0.209199145
						42:leaf=-0.130086929
					18:leaf=-0.18705596
				12:[T_ALT_FOR<1] yes=13,no=14,missing=14
					13:leaf=-0.145711467
					14:[nBAM_ALT_Concordant<5] yes=15,no=16,missing=16
						15:[MSI<2] yes=19,no=20,missing=19
							19:[T_REF_FOR<349] yes=33,no=34,missing=34
								33:[Seq_Complexity_Adj<11.1839771] yes=37,no=38,missing=38
									37:leaf=-0.179786742
									38:leaf=0.128763363
								34:[if_VarScan2<1] yes=35,no=36,missing=36
									35:[tBAM_REF_NM<0.168712005] yes=43,no=44,missing=44
										43:leaf=-0.287281036
										44:leaf=0.028823832
									36:leaf=0.143696338
							20:[Consistent_Mates<2] yes=21,no=22,missing=22
								21:[tBAM_REF_Discordant<25] yes=25,no=26,missing=26
									25:[T_DP<813] yes=39,no=40,missing=40
										39:leaf=0.404685289
										40:leaf=-0.0735545009
									26:[tBAM_REF_InDel_3bp<66] yes=27,no=28,missing=28
										27:[T_ALT_REV<1] yes=29,no=30,missing=30
											29:leaf=-0.170955271
											30:[nBAM_REF_Discordant<18] yes=31,no=32,missing=32
												31:leaf=-0.124740586
												32:leaf=0.17451179
										28:leaf=0.359460175
								22:[Seq_Complexity_Adj<12.9225607] yes=23,no=24,missing=24
									23:[Seq_Complexity_Adj<12.1307478] yes=45,no=46,missing=46
										45:leaf=-0.0821359456
										46:leaf=0.16848129
									24:leaf=-0.140811577
						16:leaf=0.406647474
			10:leaf=-0.170960307
		6:[M2_TLOD<38.0099983] yes=7,no=8,missing=8
			7:leaf=0.190171614
			8:leaf=-0.209723905
	2:[nBAM_REF_Discordant<1] yes=3,no=4,missing=4
		3:leaf=0.20061639
		4:leaf=-0.234343544
booster[20]:
0:[SOR<0.874796093] yes=1,no=2,missing=1
	1:[nBAM_REF_NM<0.966547012] yes=3,no=4,missing=3
		3:[T_REF_FOR<677] yes=5,no=6,missing=6
			5:[if_VarDict<1] yes=7,no=8,missing=8
				7:[MSI<3] yes=9,no=10,missing=9
					9:[tBAM_NM_Diff<0.24628] yes=11,no=12,missing=11
						11:[T_REF_FOR<298] yes=13,no=14,missing=14
							13:[Strelka_Score<5.57000017] yes=15,no=16,missing=15
								15:[T_REF_REV<233] yes=17,no=18,missing=18
									17:[MaxHomopolymer_Length<5] yes=19,no=20,missing=20
										19:[T_ALT_FOR<41] yes=33,no=34,missing=34
											33:leaf=0.222533524
											34:leaf=-0.104539789
										20:leaf=-0.20186685
									18:[Strelka_Score<4.71999979] yes=21,no=22,missing=22
										21:leaf=0.0234428961
										22:leaf=0.347378254
								16:leaf=-0.152556434
							14:[if_VarScan2<1] yes=25,no=26,missing=26
								25:[T_ALT_REV<11] yes=29,no=30,missing=30
									29:leaf=0.158272713
									30:[T_REF_REV<496] yes=31,no=32,missing=32
										31:leaf=-0.259044945
										32:leaf=0.112380557
								26:[tBAM_p_MannWhitneyU_EndPos<0.440205991] yes=27,no=28,missing=28
									27:leaf=-0.156303525
									28:leaf=0.128629968
						12:leaf=-0.164094478
					10:[T_ALT_FOR<35] yes=23,no=24,missing=24
						23:leaf=-0.225750849
						24:leaf=0.0601746105
				8:[Consistent_Mates<2] yes=35,no=36,missing=36
					35:[Seq_Complexity_Adj<14.3307161] yes=41,no=42,missing=42
						41:[Seq_Complexity_Adj<12.6007137] yes=43,no=44,missing=44
							43:leaf=-0.0233089402
							44:[tBAM_REF_Clipped_Reads<5] yes=45,no=46,missing=46
								45:leaf=0.153832704
								46:leaf=0.466419399
						42:leaf=-0.030696081
					36:[T_ALT_FOR<5] yes=37,no=38,missing=38
						37:[tBAM_StrandBias_FET<0.579999983] yes=39,no=40,missing=40
							39:leaf=0.0599935539
							40:leaf=-0.256406039
						38:leaf=0.0509849228
			6:leaf=-0.160788506
		4:leaf=-0.20887284
	2:leaf=-0.255906254
booster[21]:
0:[nBAM_p_MannWhitneyU_BQ<0.581062019] yes=1,no=2,missing=2
	1:[Strelka_Score<2.48000002] yes=9,no=10,missing=9
		9:leaf=-0.213120431
		10:leaf=0.096657522
	2:[nBAM_p_MannWhitneyU_BQ<0.587921023] yes=3,no=4,missing=4
		3:leaf=0.326497078
		4:[SHIFT3<7] yes=5,no=6,missing=5
			5:[tBAM_REF_Discordant<197] yes=13,no=14,missing=14
				13:[tBAM_REF_NM<0.0550725013] yes=15,no=16,missing=15
					15:[tBAM_ALT_NM<3.00952005] yes=17,no=18,missing=18
						17:[nBAM_p_MannWhitneyU_MQ<1] yes=19,no=20,missing=19
							19:[VarScan2_Score<14.1400003] yes=21,no=22,missing=22
								21:leaf=-0.164185211
								22:leaf=0.0560954027
							20:leaf=0.308292389
						18:leaf=0.269982547
					16:[nBAM_Other_Reads<7] yes=23,no=24,missing=24
						23:[T_REF_FOR<751] yes=25,no=26,missing=26
							25:[MSI<2] yes=27,no=28,missing=28
								27:[InDel_Length<3] yes=29,no=30,missing=30
									29:leaf=0.164341524
									30:leaf=-0.155539662
								28:[N_REF_FOR<119] yes=31,no=32,missing=32
									31:[Strelka_Score<4.65999985] yes=33,no=34,missing=33
										33:[tBAM_StrandBias_FET<0.289999992] yes=35,no=36,missing=36
											35:leaf=0.281205893
											36:leaf=-0.0164602734
										34:leaf=-0.0996859595
									32:[N_DP<514] yes=37,no=38,missing=38
										37:[M2_ECNT<4] yes=39,no=40,missing=39
											39:leaf=-0.164810553
											40:leaf=0.264238387
										38:[nBAM_REF_BQ<29.8906002] yes=41,no=42,missing=42
											41:[Strelka_Score<17] yes=43,no=44,missing=43
												43:leaf=-0.0908758119
												44:leaf=0.281497061
											42:[if_VarScan2<1] yes=45,no=46,missing=46
												45:leaf=-0.0699154884
												46:leaf=0.0762936026
							26:leaf=-0.194428846
						24:leaf=-0.239858821
				14:leaf=0.190641269
			6:[M2_TLOD<39.4099998] yes=7,no=8,missing=7
				7:[MSI<3] yes=11,no=12,missing=12
					11:leaf=0.0858342499
					12:leaf=-0.278390378
				8:leaf=0.182259738
booster[22]:
0:[Seq_Complexity_Adj<8.06316376] yes=1,no=2,missing=2
	1:leaf=-0.207255661
	2:[SOR<0.874796093] yes=3,no=4,missing=3
		3:[nBAM_REF_Discordant<27] yes=5,no=6,missing=6
			5:[Strelka_Score<9.18000031] yes=15,no=16,missing=16
				15:[T_ALT_REV<118] yes=23,no=24,missing=24
					23:[T_ALT_FOR<68] yes=25,no=26,missing=26
						25:[T_ALT_REV<18] yes=31,no=32,missing=32
							31:[tBAM_Other_Reads<5] yes=33,no=34,missing=34
								33:[M2_TLOD<4.86000013] yes=35,no=36,missing=35
									35:[N_DP<846] yes=37,no=38,missing=38
										37:leaf=-0.163985968
										38:leaf=0.247399867
									36:leaf=0.155298963
								34:leaf=-0.207641453
							32:leaf=-0.147335991
						26:leaf=0.219720811
					24:leaf=-0.317676336
				16:[T_REF_FOR<376] yes=17,no=18,missing=18
					17:[N_REF_REV<363] yes=19,no=20,missing=20
						19:[T_ALT_REV<137] yes=29,no=30,missing=30
							29:[tBAM_REF_BQ<29.6891994] yes=43,no=44,missing=44
								43:leaf=-0.194177404
								44:[tBAM_REF_InDel_3bp<3] yes=45,no=46,missing=46
									45:leaf=0.0527724065
									46:leaf=0.255950153
							30:leaf=-0.202140167
						20:[tBAM_NM_Diff<-0.0122196004] yes=21,no=22,missing=22
							21:[tBAM_ALT_Concordant<4] yes=27,no=28,missing=28
								27:leaf=0.0282391086
								28:leaf=0.381336123
							22:leaf=-0.00259473408
					18:[SHIFT3<3] yes=39,no=40,missing=40
						39:[T_DP<790] yes=41,no=42,missing=42
							41:leaf=-0.144943759
							42:leaf=0.155199349
						40:leaf=-0.145346582
			6:[M2_ECNT<2] yes=7,no=8,missing=8
				7:leaf=0.0588810928
				8:[tBAM_REF_BQ<29.7332993] yes=9,no=10,missing=10
					9:[T_REF_REV<440] yes=11,no=12,missing=12
						11:leaf=-0.0652764738
						12:[tBAM_p_MannWhitneyU_EndPos<0.963882029] yes=13,no=14,missing=14
							13:leaf=0.34539628
							14:leaf=-0.172838196
					10:leaf=-0.111628853
		4:leaf=-0.22750181
booster[23]:
0:[T_ALT_FOR<1] yes=1,no=2,missing=2
	1:[Seq_Complexity_Adj<15.3696766] yes=3,no=4,missing=4
		3:[tBAM_REF_Discordant<44] yes=5,no=6,missing=6
			5:[nBAM_REF_BQ<29.9118004] yes=7,no=8,missing=8
				7:leaf=-0.154388174
				8:[tBAM_REF_BQ<29.8405991] yes=9,no=10,missing=10
					9:leaf=0.385143131
					10:leaf=-0.0807924196
			6:leaf=-0.211336836
		4:leaf=0.231767848
	2:[Seq_Complexity_Span<9.5288105] yes=11,no=12,missing=12
		11:leaf=-0.1941064
		12:[tBAM_NM_Diff<0.0349749997] yes=13,no=14,missing=13
			13:[Consistent_Mates<2] yes=19,no=20,missing=20
				19:[tBAM_p_MannWhitneyU_BQ<0.538972974] yes=23,no=24,missing=24
					23:leaf=-0.0728210285
					24:[tBAM_p_MannWhitneyU_BQ<0.545323014] yes=25,no=26,missing=25
						25:leaf=0.399946719
						26:[tBAM_REF_NM<0.0824588016] yes=27,no=28,missing=28
							27:[nBAM_REF_Clipped_Reads<1] yes=29,no=30,missing=30
								29:leaf=-0.182061151
								30:leaf=0.127498418
							28:leaf=0.152475893
				20:[tBAM_Other_Reads<15] yes=21,no=22,missing=22
					21:[M2_ECNT<2] yes=33,no=34,missing=33
						33:[T_ALT_FOR<4] yes=37,no=38,missing=38
							37:leaf=-0.151007533
							38:[M2_TLOD<108.199997] yes=39,no=40,missing=39
								39:[T_ALT_REV<52] yes=41,no=42,missing=42
									41:leaf=0.0469692424
									42:leaf=0.311665684
								40:[if_VarScan2<1] yes=43,no=44,missing=44
									43:leaf=-0.180089772
									44:[T_REF_FOR<345] yes=45,no=46,missing=46
										45:leaf=-0.0393892601
										46:leaf=0.23770006
						34:[M2_STR<1] yes=35,no=36,missing=36
							35:leaf=-0.0461237803
							36:leaf=-0.341692984
					22:[M2_TLOD<41.5600014] yes=31,no=32,missing=31
						31:leaf=0.0161484741
						32:leaf=0.330926597
			14:[M2_TLOD<8.90999985] yes=15,no=16,missing=15
				15:leaf=-0.172177777
				16:[tBAM_REF_InDel_1bp<3] yes=17,no=18,missing=18
					17:leaf=0.118763693
					18:leaf=-0.154026821
booster[24]:
0:[nBAM_p_MannWhitneyU_BQ<0.581062019] yes=1,no=2,missing=2
	1:[nBAM_REF_NM<0.056255199] yes=3,no=4,missing=4
		3:[nBAM_NM_Diff<-0.0560345016] yes=5,no=6,missing=6
			5:leaf=0.344902098
			6:leaf=-0.0951773077
		4:leaf=-0.224549294
	2:[nBAM_p_MannWhitneyU_BQ<0.587921023] yes=7,no=8,missing=8
		7:leaf=0.240343913
		8:[SHIFT3<7] yes=9,no=10,missing=9
			9:[if_VarDict<1] yes=13,no=14,missing=14
				13:[T_ALT_FOR<5] yes=37,no=38,missing=38
					37:leaf=-0.108794302
					38:[tBAM_Clipping_FET<0.0399999991] yes=43,no=44,missing=44
						43:[tBAM_REF_InDel_1bp<1] yes=45,no=46,missing=46
							45:leaf=0.0065420121
							46:leaf=-0.183491856
						44:leaf=0.0472166389
				14:[tBAM_ALT_NM<1.84615004] yes=15,no=16,missing=16
					15:[tBAM_p_MannWhitneyU_EndPos<0.900421023] yes=17,no=18,missing=18
						17:[nBAM_REF_Clipped_Reads<1] yes=19,no=20,missing=20
							19:[Seq_Complexity_Adj<13.0582886] yes=21,no=22,missing=22
								21:[Seq_Complexity_Adj<12.6007137] yes=29,no=30,missing=30
									29:leaf=-0.0596560091
									30:leaf=0.317387134
								22:leaf=-0.149202466
							20:[N_REF_REV<561] yes=23,no=24,missing=24
								23:[SiteHomopolymer_Length<3] yes=25,no=26,missing=26
									25:[Seq_Complexity_Adj<12.6632032] yes=33,no=34,missing=34
										33:leaf=-0.071583122
										34:[T_REF_FOR<444] yes=39,no=40,missing=40
											39:[Consistent_Mates<3] yes=41,no=42,missing=42
												41:leaf=0.534868419
												42:leaf=0.0650005415
											40:leaf=0.0635860786
									26:[tBAM_REF_InDel_2bp<4] yes=27,no=28,missing=28
										27:leaf=-0.155230165
										28:leaf=0.262863249
								24:leaf=-0.0897804499
						18:[tBAM_Concordance_FET<0.419999987] yes=31,no=32,missing=32
							31:leaf=0.0107997861
							32:[Strelka_Score<1.44000006] yes=35,no=36,missing=36
								35:leaf=0.126211569
								36:leaf=-0.256909072
					16:leaf=0.102058642
			10:[VarDict_Score<46.9900017] yes=11,no=12,missing=12
				11:leaf=-0.204838634
				12:leaf=0.12812908
booster[25]:
0:[tBAM_NM_Diff<0.764706016] yes=1,no=2,missing=1
	1:[tBAM_REF_Discordant<177] yes=3,no=4,missing=4
		3:[tBAM_ALT_NM<1.61538005] yes=5,no=6,missing=6
			5:[T_ALT_FOR<1] yes=17,no=18,missing=18
				17:leaf=-0.169541597
				18:[tBAM_NM_Diff<-0.21706] yes=37,no=38,missing=37
					37:leaf=0.106256977
					38:[VarDict_Score<46.9900017] yes=39,no=40,missing=39
						39:[SHIFT3<1] yes=45,no=46,missing=46
							45:leaf=0.190554395
							46:leaf=-0.0799146742
						40:[N_REF_FOR<350] yes=41,no=42,missing=42
							41:[nBAM_REF_NM<0.0531792007] yes=43,no=44,missing=44
								43:leaf=-0.242243677
								44:leaf=0.0714646876
							42:leaf=0.17036967
			6:[tBAM_Clipping_FET<0.0599999987] yes=7,no=8,missing=8
				7:[MSI<6] yes=19,no=20,missing=20
					19:[T_REF_FOR<348] yes=23,no=24,missing=24
						23:leaf=-0.200723857
						24:[tBAM_REF_NM<0.159999996] yes=25,no=26,missing=26
							25:leaf=0.22755444
							26:leaf=-0.130402505
					20:[T_ALT_REV<88] yes=21,no=22,missing=22
						21:leaf=-0.0769130737
						22:leaf=0.28049925
				8:[if_VarScan2<1] yes=9,no=10,missing=10
					9:[N_REF_REV<251] yes=31,no=32,missing=32
						31:leaf=-0.124794945
						32:[N_REF_FOR<668] yes=33,no=34,missing=34
							33:[tBAM_p_MannWhitneyU_BQ<0.597230971] yes=35,no=36,missing=35
								35:leaf=-0.0908360481
								36:leaf=0.220029622
							34:leaf=-0.194268942
					10:[nBAM_REF_BQ<29.8906002] yes=11,no=12,missing=12
						11:[nBAM_REF_BQ<29.8845005] yes=15,no=16,missing=16
							15:[tBAM_StrandBias_FET<0.569999993] yes=27,no=28,missing=28
								27:leaf=0.136986837
								28:leaf=-0.12117739
							16:leaf=-0.269056648
						12:[tBAM_NM_Diff<-0.415814012] yes=13,no=14,missing=14
							13:leaf=-0.175238177
							14:[SHIFT3<7] yes=29,no=30,missing=29
								29:leaf=0.24770911
								30:leaf=-0.121934928
		4:leaf=0.154655695
	2:leaf=-0.143915236
booster[26]:
0:[nBAM_REF_NM<1.02024996] yes=1,no=2,missing=1
	1:[tBAM_p_MannWhitneyU_EndPos<0.976833999] yes=3,no=4,missing=4
		3:[N_REF_FOR<620] yes=5,no=6,missing=6
			5:[tBAM_StrandBias_FET<0.370000005] yes=11,no=12,missing=12
				11:[tBAM_Concordance_FET<0.620000005] yes=21,no=22,missing=22
					21:leaf=0.0187063906
					22:[T_REF_FOR<385] yes=23,no=24,missing=24
						23:leaf=0.215138048
						24:[VarDict_Score<18.9899998] yes=25,no=26,missing=25
							25:leaf=-0.141673878
							26:leaf=0.194690853
				12:[tBAM_p_MannWhitneyU_BQ<0.609399021] yes=13,no=14,missing=14
					13:[N_REF_REV<261] yes=15,no=16,missing=16
						15:[nBAM_REF_BQ<29.6944008] yes=17,no=18,missing=18
							17:leaf=0.312344015
							18:[M2_ECNT<6] yes=19,no=20,missing=20
								19:leaf=0.119332038
								20:leaf=-0.16031523
						16:[T_REF_REV<683] yes=27,no=28,missing=28
							27:[nBAM_REF_Discordant<54] yes=37,no=38,missing=38
								37:leaf=-0.20594424
								38:leaf=0.147568956
							28:leaf=0.167722285
					14:[M2_TLOD<17.1599998] yes=29,no=30,missing=30
						29:leaf=-0.13329187
						30:[if_Scalpel<1] yes=31,no=32,missing=32
							31:[T_REF_REV<337] yes=35,no=36,missing=36
								35:leaf=0.011835726
								36:leaf=0.292280376
							32:[Strelka_Score<5.71000004] yes=33,no=34,missing=34
								33:leaf=-0.234672263
								34:leaf=0.0985312238
			6:[Strelka_Score<2.55999994] yes=7,no=8,missing=7
				7:[Seq_Complexity_Span<14.6171675] yes=41,no=42,missing=42
					41:leaf=-0.214742228
					42:[tBAM_REF_InDel_1bp<1] yes=43,no=44,missing=44
						43:[N_DP<1212] yes=45,no=46,missing=46
							45:leaf=0.0921238661
							46:leaf=-0.243147716
						44:leaf=0.275727034
				8:[tBAM_REF_InDel_3bp<6] yes=9,no=10,missing=10
					9:leaf=0.254331231
					10:leaf=-0.113717154
		4:[tBAM_p_MannWhitneyU_BQ<0.804468989] yes=39,no=40,missing=40
			39:leaf=-0.0755842328
			40:leaf=0.0341913626
	2:leaf=-0.172103077
booster[27]:
0:[nBAM_REF_BQ<29.4531002] yes=1,no=2,missing=2
	1:leaf=-0.162060454
	2:[tBAM_REF_NM<0.0349727012] yes=3,no=4,missing=3
		3:[tBAM_REF_BQ<29.9804993] yes=27,no=28,missing=27
			27:leaf=0.166643903
			28:leaf=-0.117056042
		4:[if_MuTect<1] yes=5,no=6,missing=6
			5:[tBAM_NM_Diff<0.921738982] yes=21,no=22,missing=21
				21:[if_VarScan2<1] yes=29,no=30,missing=30
					29:[tBAM_p_MannWhitneyU_BQ<0.598897994] yes=45,no=46,missing=45
						45:leaf=-0.124667123
						46:leaf=0.00149011251
					30:[Seq_Complexity_Span<15.6110134] yes=31,no=32,missing=32
						31:[Seq_Complexity_Span<15.0310946] yes=33,no=34,missing=34
							33:[T_ALT_FOR<77] yes=35,no=36,missing=36
								35:[tBAM_ALT_NM<2.13333011] yes=37,no=38,missing=38
									37:[Strelka_Score<1.61000001] yes=39,no=40,missing=40
										39:leaf=0.201187104
										40:[tBAM_REF_Discordant<41] yes=41,no=42,missing=42
											41:leaf=0.00931806676
											42:leaf=-0.169104546
									38:leaf=0.0906023607
								36:leaf=0.200472042
							34:[tBAM_ALT_Clipped_Reads<3] yes=43,no=44,missing=44
								43:leaf=0.234443426
								44:leaf=-0.0893905014
						32:leaf=-0.11348442
				22:leaf=-0.199639276
			6:[nBAM_REF_Discordant<17] yes=7,no=8,missing=8
				7:[M2_TLOD<37.2900009] yes=11,no=12,missing=12
					11:leaf=0.137594342
					12:[nBAM_REF_BQ<29.9410992] yes=13,no=14,missing=14
						13:[nBAM_REF_NM<0.0588234998] yes=17,no=18,missing=18
							17:[N_REF_REV<264] yes=19,no=20,missing=20
								19:leaf=0.0564312339
								20:leaf=-0.386955351
							18:leaf=-0.00752018951
						14:leaf=0.169399261
				8:[tBAM_Concordance_FET<0.280000001] yes=9,no=10,missing=10
					9:leaf=0.232063428
					10:[M2_ECNT<2] yes=15,no=16,missing=16
						15:[nBAM_REF_BQ<29.9634991] yes=23,no=24,missing=24
							23:[if_Scalpel<0.5] yes=25,no=26,missing=26
								25:leaf=-0.0857678279
								26:leaf=0.247001961
							24:leaf=-0.123041943
						16:leaf=-0.216069043
booster[28]:
0:[nBAM_REF_Clipped_Reads<5] yes=1,no=2,missing=2
	1:[M2_TLOD<98.0699997] yes=5,no=6,missing=5
		5:[T_ALT_REV<54] yes=7,no=8,missing=8
			7:[VarDict_Score<43.9799995] yes=15,no=16,missing=15
				15:[T_ALT_FOR<42] yes=17,no=18,missing=18
					17:[tBAM_p_MannWhitneyU_EndPos<0.118516997] yes=19,no=20,missing=20
						19:leaf=-0.127965853
						20:[nBAM_REF_BQ<29.8605003] yes=21,no=22,missing=22
							21:[N_REF_REV<157] yes=23,no=24,missing=24
								23:[tBAM_p_MannWhitneyU_BQ<0.569598019] yes=25,no=26,missing=26
									25:leaf=0.292774111
									26:leaf=-0.0830773041
								24:[MSI<3] yes=27,no=28,missing=27
									27:leaf=-0.0183544587
									28:leaf=-0.272019684
							22:[nBAM_REF_NM<0.0404039994] yes=29,no=30,missing=30
								29:leaf=-0.129786417
								30:[SHIFT3<8] yes=35,no=36,missing=35
									35:leaf=0.0861147046
									36:leaf=-0.161159128
					18:leaf=-0.20225665
				16:[tBAM_REF_InDel_3bp<3] yes=31,no=32,missing=32
					31:leaf=0.17320472
					32:[T_ALT_REV<21] yes=33,no=34,missing=34
						33:leaf=0.136097863
						34:leaf=-0.282734036
			8:leaf=0.235959008
		6:[nBAM_REF_NM<0.109677002] yes=9,no=10,missing=9
			9:[N_REF_FOR<164] yes=11,no=12,missing=12
				11:leaf=-0.185706586
				12:[if_MuTect<1] yes=37,no=38,missing=38
					37:[T_ALT_REV<35] yes=39,no=40,missing=40
						39:[Strelka_Score<9.18000031] yes=41,no=42,missing=42
							41:leaf=0.272505611
							42:leaf=-0.19925186
						40:[tBAM_Other_Reads<12] yes=43,no=44,missing=44
							43:[MSI<2] yes=45,no=46,missing=45
								45:leaf=-0.034038268
								46:leaf=-0.217794761
							44:leaf=0.192340523
					38:leaf=0.124079093
			10:[Strelka_Score<5.73999977] yes=13,no=14,missing=13
				13:leaf=-0.0729779005
				14:leaf=0.220550925
	2:[M2_TLOD<20.4300003] yes=3,no=4,missing=3
		3:leaf=-0.193419665
		4:leaf=0.0509526469
booster[29]:
0:[SiteHomopolymer_Length<2] yes=1,no=2,missing=2
	1:leaf=-0.207413331
	2:[MaxHomopolymer_Length<11] yes=3,no=4,missing=4
		3:[tBAM_Other_Reads<33] yes=5,no=6,missing=6
			5:[tBAM_REF_Clipped_Reads<5] yes=9,no=10,missing=10
				9:[SHIFT3<7] yes=19,no=20,missing=19
					19:[T_DP<1290] yes=21,no=22,missing=22
						21:[if_VarDict<1] yes=23,no=24,missing=24
							23:[tBAM_ALT_NM<3.20000005] yes=41,no=42,missing=41
								41:[nBAM_REF_Clipped_Reads<3] yes=45,no=46,missing=46
									45:leaf=-0.0881486908
									46:leaf=0.137417689
								42:[T_DP<501] yes=43,no=44,missing=44
									43:leaf=0.283094168
									44:leaf=-0.0120557575
							24:[tBAM_ALT_NM<1.84615004] yes=25,no=26,missing=26
								25:[N_REF_REV<648] yes=31,no=32,missing=32
									31:[N_DP<1002] yes=33,no=34,missing=34
										33:[T_REF_REV<683] yes=35,no=36,missing=36
											35:[tBAM_Clipping_FET<0.0399999991] yes=37,no=38,missing=38
												37:leaf=0.202473491
												38:leaf=-0.0511926338
											36:leaf=0.280161738
										34:leaf=0.152357578
									32:[M2_NLOD<290.369995] yes=39,no=40,missing=39
										39:leaf=-0.221783683
										40:leaf=0.0911618322
								26:[tBAM_ALT_NM<6.02857018] yes=27,no=28,missing=27
									27:[T_ALT_FOR<88] yes=29,no=30,missing=30
										29:leaf=0.199307829
										30:leaf=-0.118385613
									28:leaf=-0.0688541606
						22:leaf=-0.169993222
					20:leaf=-0.139499247
				10:[if_Scalpel<1] yes=11,no=12,missing=12
					11:[Seq_Complexity_Adj<12.3010817] yes=13,no=14,missing=14
						13:leaf=-0.0793065429
						14:[SHIFT3<5] yes=15,no=16,missing=16
							15:leaf=0.0365031399
							16:[T_REF_FOR<397] yes=17,no=18,missing=18
								17:leaf=0.407356471
								18:leaf=0.109799787
					12:leaf=-0.0231202915
			6:[tBAM_ALT_NM<3] yes=7,no=8,missing=8
				7:leaf=0.197060943
				8:leaf=-0.206188485
		4:leaf=-0.152689442
booster[30]:
0:[InDel_Length<-30] yes=1,no=2,missing=2
	1:leaf=-0.200630501
	2:[InDel_Length<-24] yes=3,no=4,missing=4
		3:leaf=0.316645741
		4:[InDel_Length<-22] yes=5,no=6,missing=6
			5:leaf=-0.260910064
			6:[InDel_Length<-11] yes=7,no=8,missing=8
				7:leaf=0.163986862
				8:[T_ALT_FOR<1] yes=9,no=10,missing=10
					9:[nBAM_Other_Reads<1] yes=11,no=12,missing=12
						11:[VarScan2_Score<7.25] yes=13,no=14,missing=14
							13:leaf=-0.211014628
							14:[tBAM_REF_Discordant<52] yes=15,no=16,missing=16
								15:[T_REF_REV<309] yes=17,no=18,missing=18
									17:leaf=-0.0930014998
									18:leaf=0.293822438
								16:leaf=-0.088299185
						12:leaf=-0.263233066
					10:[Consistent_Mates<2] yes=19,no=20,missing=20
						19:[tBAM_Other_Reads<2] yes=23,no=24,missing=24
							23:[SiteHomopolymer_Length<3] yes=27,no=28,missing=28
								27:[nBAM_REF_NM<0.215639994] yes=35,no=36,missing=36
									35:[tBAM_REF_Discordant<36] yes=37,no=38,missing=38
										37:leaf=0.293630004
										38:[MaxHomopolymer_Length<6] yes=39,no=40,missing=40
											39:leaf=0.13694942
											40:leaf=-0.158210859
									36:leaf=-0.0901233181
								28:[SHIFT3<3] yes=29,no=30,missing=30
									29:[N_REF_REV<134] yes=33,no=34,missing=34
										33:leaf=-0.138611555
										34:leaf=0.199272737
									30:[InDel_Length<1] yes=31,no=32,missing=32
										31:leaf=-0.235878706
										32:leaf=0.0798016489
							24:[T_REF_FOR<359] yes=25,no=26,missing=26
								25:[nBAM_REF_NM<0.0530099012] yes=43,no=44,missing=44
									43:leaf=0.240031406
									44:leaf=-0.0443342701
								26:leaf=-0.190465406
						20:[T_ALT_FOR<4] yes=21,no=22,missing=22
							21:leaf=-0.161065191
							22:[M2_TLOD<18.1800003] yes=41,no=42,missing=42
								41:leaf=-0.134233817
								42:[tBAM_REF_InDel_3bp<26] yes=45,no=46,missing=46
									45:leaf=0.0274723005
									46:leaf=-0.141766265
booster[31]:
0:[T_REF_REV<28] yes=1,no=2,missing=2
	1:leaf=-0.16689986
	2:[tBAM_NM_Diff<0.212025002] yes=3,no=4,missing=3
		3:[tBAM_REF_Discordant<177] yes=15,no=16,missing=16
			15:[nBAM_REF_Discordant<26] yes=17,no=18,missing=18
				17:[nBAM_Other_Reads<4] yes=19,no=20,missing=20
					19:[nBAM_REF_NM<0.0627451017] yes=25,no=26,missing=26
						25:[MSI<6] yes=41,no=42,missing=42
							41:leaf=-0.0602652878
							42:[N_REF_FOR<205] yes=43,no=44,missing=44
								43:[Strelka_Score<5.57000017] yes=45,no=46,missing=45
									45:leaf=0.237419367
									46:leaf=-0.134715319
								44:leaf=-0.0216714721
						26:[Strelka_Score<8.51000023] yes=27,no=28,missing=28
							27:[tBAM_ALT_NM<1.11110997] yes=29,no=30,missing=30
								29:leaf=-0.153071418
								30:leaf=0.0662672073
							28:[tBAM_NM_Diff<-0.860659003] yes=31,no=32,missing=32
								31:leaf=-0.133448541
								32:[nBAM_REF_Discordant<13] yes=33,no=34,missing=34
									33:[tBAM_p_MannWhitneyU_EndPos<0.620451987] yes=35,no=36,missing=36
										35:leaf=-0.175135896
										36:leaf=0.136172354
									34:[nBAM_p_MannWhitneyU_MQ<2.00001001] yes=37,no=38,missing=38
										37:leaf=-0.117523514
										38:[tBAM_REF_Discordant<84] yes=39,no=40,missing=40
											39:leaf=0.326246291
											40:leaf=-0.0129050473
					20:leaf=-0.185620606
				18:[VarDict_Score<22.7700005] yes=21,no=22,missing=22
					21:[tBAM_REF_BQ<29.6716995] yes=23,no=24,missing=24
						23:leaf=0.0999698341
						24:leaf=-0.185580641
					22:leaf=0.00624057883
			16:leaf=0.125754371
		4:[tBAM_REF_NM<0.258307993] yes=5,no=6,missing=6
			5:[VarScan2_Score<18.8999996] yes=7,no=8,missing=8
				7:leaf=-0.143956885
				8:[Strelka_Score<14.7600002] yes=9,no=10,missing=10
					9:[tBAM_REF_NM<0.113160998] yes=13,no=14,missing=14
						13:leaf=0.102611683
						14:leaf=-0.137257367
					10:[tBAM_Clipping_FET<0.0500000007] yes=11,no=12,missing=12
						11:leaf=-0.0930709317
						12:leaf=0.216674715
			6:leaf=-0.188681737
booster[32]:
0:[T_DP<777] yes=1,no=2,missing=2
	1:[T_REF_FOR<376] yes=37,no=38,missing=38
		37:[T_REF_REV<420] yes=39,no=40,missing=40
			39:[M2_TLOD<839.440002] yes=45,no=46,missing=45
				45:leaf=0.00479368959
				46:leaf=-0.188554212
			40:leaf=-0.156955063
		38:leaf=-0.140194997
	2:[T_DP<917] yes=3,no=4,missing=4
		3:[tBAM_REF_Concordant<827] yes=5,no=6,missing=6
			5:[tBAM_REF_BQ<29.9395008] yes=7,no=8,missing=7
				7:[tBAM_REF_Concordant<786] yes=35,no=36,missing=36
					35:leaf=0.126305163
					36:leaf=-0.0939380005
				8:leaf=-0.118065141
			6:leaf=0.268850148
		4:[M2_TLOD<19.4200001] yes=9,no=10,missing=9
			9:[tBAM_REF_Discordant<43] yes=15,no=16,missing=16
				15:[SHIFT3<4] yes=17,no=18,missing=17
					17:[nBAM_REF_NM<0.0487013012] yes=19,no=20,missing=19
						19:leaf=0.353069365
						20:leaf=-0.00329380366
					18:leaf=-0.178260773
				16:[T_REF_FOR<511] yes=21,no=22,missing=22
					21:leaf=-0.217055067
					22:[N_REF_FOR<597] yes=23,no=24,missing=24
						23:[VarDict_Score<13.6599998] yes=25,no=26,missing=25
							25:leaf=-0.118583418
							26:leaf=0.236451522
						24:leaf=-0.186406806
			10:[if_Scalpel<1] yes=11,no=12,missing=12
				11:[tBAM_Other_Reads<4] yes=43,no=44,missing=44
					43:leaf=0.248540223
					44:leaf=0.0127340034
				12:[T_ALT_FOR<77] yes=13,no=14,missing=14
					13:leaf=-0.149139047
					14:[if_VarScan2<1] yes=27,no=28,missing=28
						27:[T_ALT_FOR<118] yes=29,no=30,missing=30
							29:[M2_NLOD<205.300003] yes=41,no=42,missing=42
								41:leaf=-0.0402750857
								42:leaf=0.304607749
							30:leaf=-0.205905005
						28:[T_REF_REV<393] yes=31,no=32,missing=32
							31:leaf=0.269039571
							32:[tBAM_REF_Concordant<791] yes=33,no=34,missing=34
								33:leaf=-0.187013477
								34:leaf=0.128548846
booster[33]:
0:[if_VarDict<1] yes=1,no=2,missing=2
	1:[VarDict_Score<3.72000003] yes=3,no=4,missing=3
		3:[T_REF_REV<315] yes=9,no=10,missing=10
			9:[N_REF_FOR<298] yes=17,no=18,missing=18
				17:[N_REF_REV<95] yes=19,no=20,missing=20
					19:leaf=-0.121901922
					20:[tBAM_ALT_NM<1.46249998] yes=25,no=26,missing=25
						25:[M2_TLOD<42.5499992] yes=29,no=30,missing=30
							29:leaf=0.152062103
							30:leaf=-0.1271649
						26:leaf=0.201315895
				18:[Strelka_Score<6.28000021] yes=21,no=22,missing=22
					21:[T_ALT_FOR<31] yes=27,no=28,missing=28
						27:leaf=-0.125394836
						28:leaf=0.23704733
					22:[Seq_Complexity_Span<15.4886694] yes=23,no=24,missing=24
						23:leaf=-0.264905214
						24:leaf=0.090876542
			10:[T_ALT_REV<116] yes=11,no=12,missing=12
				11:leaf=0.0188997015
				12:[Strelka_Score<7.61000013] yes=13,no=14,missing=14
					13:leaf=-0.0827289671
					14:leaf=0.315713048
		4:[M2_NLOD<227.470001] yes=5,no=6,missing=6
			5:[N_REF_FOR<301] yes=7,no=8,missing=8
				7:leaf=-0.119801879
				8:leaf=0.176998615
			6:[tBAM_REF_BQ<29.9204998] yes=15,no=16,missing=16
				15:leaf=-0.22353372
				16:leaf=0.0159682538
	2:[M2_NLOD<226.479996] yes=31,no=32,missing=31
		31:[tBAM_REF_NM<0.0547219999] yes=33,no=34,missing=34
			33:leaf=0.103424676
			34:[M2_NLOD<191.029999] yes=35,no=36,missing=35
				35:[tBAM_REF_InDel_1bp<2] yes=37,no=38,missing=38
					37:[tBAM_StrandBias_FET<0.180000007] yes=39,no=40,missing=40
						39:[SiteHomopolymer_Length<4] yes=41,no=42,missing=42
							41:[tBAM_REF_Discordant<31] yes=45,no=46,missing=46
								45:leaf=0.0248846803
								46:leaf=-0.211634114
							42:leaf=0.131879732
						40:[MaxHomopolymer_Length<5] yes=43,no=44,missing=44
							43:leaf=0.0797805414
							44:leaf=-0.0539004356
					38:leaf=0.12480285
				36:leaf=-0.164801508
		32:leaf=0.115346916
booster[34]:
0:[SiteHomopolymer_Length<2] yes=1,no=2,missing=2
	1:leaf=-0.186846212
	2:[InDel_Length<-30] yes=3,no=4,missing=4
		3:leaf=-0.18085295
		4:[InDel_Length<-24] yes=5,no=6,missing=6
			5:leaf=0.253595322
			6:[InDel_Length<-22] yes=7,no=8,missing=8
				7:leaf=-0.21684742
				8:[InDel_Length<-4] yes=9,no=10,missing=10
					9:[MSILEN<2] yes=11,no=12,missing=12
						11:[nBAM_REF_Discordant<33] yes=37,no=38,missing=38
							37:leaf=0.235149592
							38:leaf=-0.0208707824
						12:[M2_NLOD<146.529999] yes=13,no=14,missing=13
							13:leaf=-0.141101107
							14:leaf=0.14004308
					10:[Seq_Complexity_Span<10.8398008] yes=15,no=16,missing=16
						15:[SHIFT3<5] yes=33,no=34,missing=34
							33:leaf=0.0448151194
							34:leaf=-0.203155726
						16:[nBAM_REF_Concordant<121] yes=17,no=18,missing=18
							17:[InDel_Length<2] yes=39,no=40,missing=40
								39:[MaxHomopolymer_Length<5] yes=41,no=42,missing=42
									41:leaf=0.242634401
									42:leaf=-0.0325891711
								40:leaf=-0.0579933859
							18:[nBAM_REF_Concordant<207] yes=19,no=20,missing=20
								19:[M2_TLOD<372.970001] yes=43,no=44,missing=44
									43:[VarDict_Score<32.0099983] yes=45,no=46,missing=45
										45:leaf=-0.10500323
										46:leaf=0.133200034
									44:leaf=-0.213260233
								20:[nBAM_REF_Concordant<262] yes=21,no=22,missing=22
									21:[if_VarDict<0.5] yes=35,no=36,missing=36
										35:leaf=-0.0599576384
										36:leaf=0.208805025
									22:[nBAM_ALT_Concordant<5] yes=23,no=24,missing=24
										23:[SHIFT3<3] yes=27,no=28,missing=27
											27:[T_ALT_REV<7] yes=31,no=32,missing=32
												31:leaf=0.0622423515
												32:leaf=-0.0181683544
											28:[N_REF_REV<358] yes=29,no=30,missing=30
												29:leaf=-0.191480711
												30:leaf=0.0175464451
										24:[tBAM_ALT_NM<1.07406998] yes=25,no=26,missing=26
											25:leaf=0.269858629
											26:leaf=-0.0892235264
booster[35]:
0:[tBAM_NM_Diff<0.816209972] yes=1,no=2,missing=1
	1:[SOR<0.874796093] yes=5,no=6,missing=5
		5:[nBAM_ALT_Concordant<5] yes=7,no=8,missing=8
			7:[nBAM_StrandBias_FET<0.680000007] yes=11,no=12,missing=12
				11:leaf=-0.178764105
				12:[InDel_Length<-30] yes=13,no=14,missing=14
					13:leaf=-0.167437866
					14:[InDel_Length<-24] yes=15,no=16,missing=16
						15:leaf=0.222204313
						16:[InDel_Length<-21] yes=17,no=18,missing=18
							17:leaf=-0.197099775
							18:[InDel_Length<-4] yes=19,no=20,missing=20
								19:[SHIFT3<10] yes=45,no=46,missing=46
									45:leaf=0.175326288
									46:leaf=-0.0540521815
								20:[T_ALT_FOR<1] yes=21,no=22,missing=22
									21:[Seq_Complexity_Adj<14.6171675] yes=23,no=24,missing=24
										23:[T_REF_REV<693] yes=39,no=40,missing=40
											39:[SHIFT3<1] yes=43,no=44,missing=44
												43:leaf=0.024941802
												44:leaf=-0.228807375
											40:leaf=0.0948807821
										24:[tBAM_ALT_NM<1.33333004] yes=41,no=42,missing=41
											41:leaf=-0.094728753
											42:leaf=0.20918943
									22:[Consistent_Mates<2] yes=25,no=26,missing=26
										25:[InDel_Length<1] yes=31,no=32,missing=32
											31:[T_ALT_REV<1] yes=33,no=34,missing=34
												33:leaf=-0.139154419
												34:leaf=0.123625144
											32:[tBAM_Clipping_FET<0.0500000007] yes=35,no=36,missing=36
												35:leaf=-0.0701892227
												36:leaf=0.172624812
										26:[tBAM_Concordance_FET<0.219999999] yes=27,no=28,missing=28
											27:[M2_TLOD<372.970001] yes=37,no=38,missing=38
												37:leaf=-0.00732095866
												38:leaf=0.107245699
											28:[Strelka_Score<2.3900001] yes=29,no=30,missing=30
												29:leaf=0.125963733
												30:leaf=-0.0871208012
			8:[tBAM_ALT_NM<1.07406998] yes=9,no=10,missing=10
				9:leaf=0.250930756
				10:leaf=-0.0787148178
		6:leaf=-0.172589123
	2:[M2_TLOD<191.389999] yes=3,no=4,missing=4
		3:leaf=0.0714791045
		4:leaf=-0.185854688
booster[36]:
0:[tBAM_REF_NM<0.998344004] yes=1,no=2,missing=1
	1:[tBAM_REF_NM<0.697192013] yes=5,no=6,missing=6
		5:[Seq_Complexity_Adj<8.06316376] yes=7,no=8,missing=8
			7:leaf=-0.206956372
			8:[Strelka_Score<14.5500002] yes=13,no=14,missing=13
				13:[M2_TLOD<98.0699997] yes=21,no=22,missing=22
					21:[T_ALT_REV<68] yes=23,no=24,missing=24
						23:leaf=0.00799008925
						24:leaf=0.252548784
					22:[M2_TLOD<123.25] yes=25,no=26,missing=26
						25:[tBAM_REF_InDel_2bp<2] yes=27,no=28,missing=28
							27:leaf=-0.00106433034
							28:leaf=-0.317807168
						26:[tBAM_NM_Diff<0.00680272002] yes=29,no=30,missing=29
							29:[Seq_Complexity_Adj<12.9225607] yes=31,no=32,missing=32
								31:[Seq_Complexity_Adj<12.6007137] yes=33,no=34,missing=34
									33:[SHIFT3<3] yes=37,no=38,missing=37
										37:leaf=0.0785397068
										38:leaf=-0.172247142
									34:[tBAM_StrandBias_FET<0.159999996] yes=35,no=36,missing=36
										35:leaf=-0.0409500226
										36:leaf=0.310063064
								32:[tBAM_p_MannWhitneyU_BQ<0.576198995] yes=39,no=40,missing=39
									39:leaf=-0.0959960967
									40:[if_VarDict<1] yes=41,no=42,missing=42
										41:leaf=-0.0544531755
										42:[N_DP<1422] yes=43,no=44,missing=44
											43:leaf=0.12620458
											44:leaf=-0.155091196
							30:[tBAM_REF_NM<0.152886003] yes=45,no=46,missing=46
								45:leaf=-0.017633019
								46:leaf=-0.200639904
				14:[SHIFT3<2] yes=15,no=16,missing=16
					15:[M2_NLOD<49.5200005] yes=19,no=20,missing=20
						19:leaf=-0.054429803
						20:leaf=0.230945036
					16:[nBAM_REF_NM<0.0588234998] yes=17,no=18,missing=18
						17:leaf=-0.162853777
						18:leaf=0.117518343
		6:[N_REF_FOR<254] yes=9,no=10,missing=10
			9:leaf=0.194138423
			10:[MSI<4] yes=11,no=12,missing=12
				11:leaf=0.112626664
				12:leaf=-0.163825169
	2:[M2_TLOD<660.320007] yes=3,no=4,missing=4
		3:leaf=0.0246386547
		4:leaf=-0.22905533
booster[37]:
0:[if_MuTect<1] yes=1,no=2,missing=2
	1:[tBAM_REF_NM<0.0349727012] yes=17,no=18,missing=17
		17:leaf=0.0909175277
		18:[tBAM_StrandBias_FET<0.5] yes=19,no=20,missing=20
			19:[nBAM_REF_BQ<29.9563999] yes=29,no=30,missing=29
				29:leaf=0.0192338452
				30:[Strelka_Score<6.28000021] yes=39,no=40,missing=40
					39:[tBAM_StrandBias_FET<0.150000006] yes=41,no=42,missing=42
						41:leaf=0.156237125
						42:leaf=-0.148983911
					40:leaf=-0.126187176
			20:[tBAM_NM_Diff<-0.0623679012] yes=21,no=22,missing=21
				21:[tBAM_REF_NM<0.064798601] yes=23,no=24,missing=24
					23:leaf=0.184238732
					24:[tBAM_REF_Discordant<43] yes=25,no=26,missing=26
						25:[if_VarDict<0.5] yes=27,no=28,missing=28
							27:leaf=-0.0681614578
							28:leaf=0.130657494
						26:[VarDict_Score<12.96] yes=43,no=44,missing=44
							43:leaf=-0.211616695
							44:[N_REF_REV<212] yes=45,no=46,missing=46
								45:leaf=0.127821043
								46:leaf=-0.0715244114
				22:[M2_TLOD<19.0400009] yes=31,no=32,missing=32
					31:leaf=-0.268813431
					32:[T_REF_FOR<332] yes=33,no=34,missing=34
						33:[T_DP<650] yes=35,no=36,missing=36
							35:leaf=-0.0826294497
							36:leaf=0.127530575
						34:[Strelka_Score<6.78000021] yes=37,no=38,missing=38
							37:leaf=0.0201079454
							38:leaf=-0.223237604
	2:[M2_ECNT<2] yes=3,no=4,missing=4
		3:[T_REF_FOR<96] yes=5,no=6,missing=6
			5:leaf=-0.115102366
			6:[T_ALT_REV<7] yes=7,no=8,missing=8
				7:[T_REF_REV<427] yes=15,no=16,missing=16
					15:leaf=0.0941181108
					16:leaf=-0.151182398
				8:[Strelka_Score<17.2700005] yes=9,no=10,missing=9
					9:[tBAM_p_MannWhitneyU_EndPos<0.141369998] yes=13,no=14,missing=14
						13:leaf=-0.0451823696
						14:leaf=0.257327586
					10:leaf=-0.0646749362
		4:[tBAM_REF_Clipped_Reads<3] yes=11,no=12,missing=12
			11:leaf=-0.187740996
			12:leaf=0.0483664908
booster[38]:
0:[SiteHomopolymer_Length<2] yes=1,no=2,missing=2
	1:leaf=-0.167775378
	2:[M2_TLOD<660.320007] yes=3,no=4,missing=3
		3:[Strelka_Score<17] yes=7,no=8,missing=7
			7:[tBAM_ALT_Discordant<34] yes=9,no=10,missing=10
				9:[tBAM_ALT_NM<2.33332992] yes=13,no=14,missing=13
					13:[tBAM_Other_Reads<42] yes=17,no=18,missing=18
						17:[tBAM_REF_BQ<29.9139004] yes=33,no=34,missing=34
							33:[nBAM_REF_NM<0.101010002] yes=43,no=44,missing=44
								43:[nBAM_REF_BQ<29.9475994] yes=45,no=46,missing=46
									45:leaf=-0.0586166084
									46:leaf=0.0734978393
								44:leaf=-0.133095577
							34:[VarDict_Score<8.09000015] yes=35,no=36,missing=36
								35:leaf=-0.136438563
								36:[tBAM_ALT_Clipped_Reads<5] yes=37,no=38,missing=38
									37:leaf=0.0570586063
									38:leaf=-0.155256853
						18:leaf=0.102014586
					14:[tBAM_NM_Diff<0.332646996] yes=15,no=16,missing=16
						15:[if_VarScan2<1] yes=19,no=20,missing=20
							19:[N_REF_REV<399] yes=21,no=22,missing=22
								21:[M2_TLOD<37.2900009] yes=23,no=24,missing=24
									23:leaf=0.0706311688
									24:[tBAM_NM_Diff<-0.0710572004] yes=41,no=42,missing=42
										41:leaf=-0.261368066
										42:leaf=0.01230257
								22:[M2_TLOD<48.2099991] yes=29,no=30,missing=30
									29:leaf=-0.0923882872
									30:[T_ALT_FOR<118] yes=39,no=40,missing=40
										39:leaf=0.230505243
										40:leaf=-0.0581740178
							20:[Seq_Complexity_Adj<14.1497335] yes=25,no=26,missing=26
								25:leaf=0.146976948
								26:[Seq_Complexity_Adj<14.4241161] yes=27,no=28,missing=28
									27:leaf=-0.170807153
									28:leaf=0.0934505761
						16:[N_REF_FOR<597] yes=31,no=32,missing=32
							31:leaf=-0.17477949
							32:leaf=0.0790069699
				10:[MSI<3] yes=11,no=12,missing=12
					11:leaf=-0.0411256589
					12:leaf=0.183675379
			8:leaf=0.142287761
		4:[tBAM_REF_BQ<29.8418999] yes=5,no=6,missing=6
			5:leaf=0.11802277
			6:leaf=-0.179215223
booster[39]:
0:[SHIFT3<10] yes=1,no=2,missing=1
	1:[nBAM_NM_Diff<-0.0562309995] yes=3,no=4,missing=4
		3:[M2_TLOD<23.7099991] yes=7,no=8,missing=7
			7:leaf=-0.183274403
			8:leaf=0.0851515308
		4:[nBAM_NM_Diff<-0.0488428995] yes=5,no=6,missing=6
			5:leaf=0.18607673
			6:[nBAM_Other_Reads<8] yes=9,no=10,missing=10
				9:[nBAM_REF_InDel_1bp<1] yes=11,no=12,missing=12
					11:[MSI<3] yes=17,no=18,missing=17
						17:[nBAM_REF_BQ<29.9398003] yes=29,no=30,missing=30
							29:[tBAM_REF_Discordant<31] yes=35,no=36,missing=36
								35:leaf=0.149218127
								36:[tBAM_ALT_Discordant<8] yes=37,no=38,missing=38
									37:leaf=-0.00434599724
									38:leaf=0.0956616849
							30:[if_VarScan2<1] yes=39,no=40,missing=40
								39:[tBAM_p_MannWhitneyU_MQ<0.432121009] yes=43,no=44,missing=43
									43:leaf=0.12431372
									44:[Seq_Complexity_Adj<15.0310946] yes=45,no=46,missing=46
										45:leaf=-0.185670182
										46:leaf=0.081475988
								40:[InDel_Length<1] yes=41,no=42,missing=42
									41:leaf=-0.096083954
									42:leaf=0.103410453
						18:[Seq_Complexity_Adj<12.9225607] yes=19,no=20,missing=20
							19:[tBAM_REF_Discordant<35] yes=31,no=32,missing=32
								31:leaf=-0.0585617982
								32:[tBAM_REF_Clipped_Reads<2] yes=33,no=34,missing=34
									33:leaf=0.256134361
									34:leaf=-0.00445310166
							20:[tBAM_REF_Concordant<631] yes=21,no=22,missing=22
								21:leaf=-0.141149223
								22:[T_DP<722] yes=23,no=24,missing=24
									23:leaf=0.247804835
									24:[VarDict_Score<27.8999996] yes=25,no=26,missing=26
										25:[nBAM_REF_Clipped_Reads<2] yes=27,no=28,missing=28
											27:leaf=-0.193176612
											28:leaf=0.0535285026
										26:leaf=0.0769392028
					12:[Strelka_Score<7.32999992] yes=13,no=14,missing=14
						13:leaf=-0.051167395
						14:[T_ALT_REV<8] yes=15,no=16,missing=16
							15:leaf=-0.0510768108
							16:leaf=0.260787934
				10:leaf=-0.134146735
	2:leaf=-0.114137985
booster[40]:
0:[T_ALT_FOR<1] yes=1,no=2,missing=2
	1:[Seq_Complexity_Adj<15.3696766] yes=3,no=4,missing=4
		3:[tBAM_REF_Discordant<32] yes=5,no=6,missing=6
			5:[tBAM_p_MannWhitneyU_EndPos<0.959464014] yes=7,no=8,missing=8
				7:leaf=-0.0784179121
				8:leaf=0.188339412
			6:[SHIFT3<3] yes=9,no=10,missing=9
				9:leaf=-0.203778669
				10:[T_REF_REV<548] yes=11,no=12,missing=12
					11:leaf=-0.117360346
					12:leaf=0.119920194
		4:leaf=0.149393499
	2:[Consistent_Mates<2] yes=13,no=14,missing=14
		13:[tBAM_p_MannWhitneyU_EndPos<0.118516997] yes=19,no=20,missing=20
			19:leaf=-0.10127639
			20:leaf=0.0496112704
		14:[T_ALT_FOR<5] yes=15,no=16,missing=16
			15:[tBAM_StrandBias_FET<0.50999999] yes=17,no=18,missing=18
				17:leaf=0.0351083241
				18:leaf=-0.212242261
			16:[InDel_Length<1] yes=21,no=22,missing=22
				21:[tBAM_REF_InDel_2bp<13] yes=37,no=38,missing=38
					37:[M2_TLOD<493.549988] yes=39,no=40,missing=40
						39:[T_ALT_REV<7] yes=43,no=44,missing=44
							43:leaf=-0.0414627679
							44:leaf=0.198495969
						40:leaf=-0.0332930498
					38:[SiteHomopolymer_Length<3] yes=41,no=42,missing=42
						41:leaf=-0.247487009
						42:leaf=0.132765636
				22:[VarDict_Score<2.41000009] yes=23,no=24,missing=23
					23:[tBAM_REF_InDel_3bp<2] yes=29,no=30,missing=30
						29:[T_REF_REV<321] yes=31,no=32,missing=32
							31:[T_REF_FOR<227] yes=33,no=34,missing=34
								33:leaf=0.0979134068
								34:[if_VarScan2<1] yes=35,no=36,missing=36
									35:leaf=-0.205491692
									36:leaf=0.152225196
							32:leaf=0.16137743
						30:[tBAM_REF_InDel_3bp<5] yes=45,no=46,missing=46
							45:leaf=-0.205754876
							46:leaf=0.00387112028
					24:[T_REF_REV<321] yes=25,no=26,missing=26
						25:[N_REF_FOR<298] yes=27,no=28,missing=28
							27:leaf=-0.109290436
							28:leaf=0.120691322
						26:leaf=-0.174129173
booster[41]:
0:[nBAM_REF_NM<1.02024996] yes=1,no=2,missing=1
	1:[SiteHomopolymer_Length<3] yes=3,no=4,missing=4
		3:[tBAM_ALT_NM<18.2000008] yes=15,no=16,missing=16
			15:[tBAM_REF_Discordant<96] yes=17,no=18,missing=18
				17:[T_REF_FOR<220] yes=21,no=22,missing=22
					21:[Strelka_Score<3.95000005] yes=23,no=24,missing=23
						23:[N_REF_REV<358] yes=25,no=26,missing=26
							25:[tBAM_REF_NM<0.126649007] yes=29,no=30,missing=30
								29:leaf=-0.159260973
								30:leaf=0.0782630369
							26:leaf=0.183670029
						24:[Strelka_Score<14.5500002] yes=27,no=28,missing=28
							27:leaf=-0.215506881
							28:leaf=0.0416700691
					22:[tBAM_NM_Diff<0.24628] yes=31,no=32,missing=32
						31:[Seq_Complexity_Span<13.4929457] yes=33,no=34,missing=34
							33:[T_ALT_REV<3] yes=39,no=40,missing=40
								39:leaf=-0.152818546
								40:[tBAM_p_MannWhitneyU_BQ<0.626507998] yes=41,no=42,missing=42
									41:leaf=0.166652933
									42:leaf=-0.0898612216
							34:[Seq_Complexity_Adj<12.9225607] yes=35,no=36,missing=36
								35:[T_ALT_REV<2] yes=37,no=38,missing=38
									37:leaf=0.39830333
									38:[VarDict_Score<27.3500004] yes=43,no=44,missing=43
										43:leaf=-0.0469321609
										44:leaf=0.230966195
								36:[nBAM_REF_Concordant<1153] yes=45,no=46,missing=46
									45:leaf=0.0900076926
									46:leaf=-0.0646906048
						32:leaf=-0.0735634491
				18:[VarScan2_Score<21.0100002] yes=19,no=20,missing=20
					19:leaf=-0.168587387
					20:leaf=0.0130040282
			16:leaf=-0.13761881
		4:[SHIFT3<3] yes=5,no=6,missing=5
			5:[if_VarDict<1] yes=11,no=12,missing=12
				11:leaf=-0.0315789543
				12:[nBAM_REF_NM<0.0421896987] yes=13,no=14,missing=14
					13:leaf=-0.134210885
					14:leaf=0.0853325576
			6:[MSI<4] yes=7,no=8,missing=8
				7:[Inconsistent_Mates<6] yes=9,no=10,missing=10
					9:leaf=0.179195225
					10:leaf=-0.138304085
				8:leaf=-0.220730662
	2:leaf=-0.119707055
booster[42]:
0:[M2_TLOD<8.02000046] yes=1,no=2,missing=2
	1:[tBAM_p_MannWhitneyU_EndPos<0.681878984] yes=3,no=4,missing=4
		3:[nBAM_REF_NM<0.0564174987] yes=5,no=6,missing=6
			5:leaf=0.155989841
			6:leaf=-0.0859563053
		4:leaf=-0.195085704
	2:[M2_TLOD<98.0699997] yes=7,no=8,missing=8
		7:[T_ALT_REV<68] yes=9,no=10,missing=10
			9:[T_ALT_REV<18] yes=11,no=12,missing=12
				11:[Seq_Complexity_Adj<9.81317806] yes=13,no=14,missing=14
					13:leaf=-0.159697771
					14:[tBAM_p_MannWhitneyU_EndPos<0.999396026] yes=17,no=18,missing=18
						17:[M2_TLOD<18.1800003] yes=19,no=20,missing=20
							19:[T_ALT_FOR<12] yes=21,no=22,missing=22
								21:leaf=0.105395518
								22:leaf=-0.150900483
							20:leaf=0.167948306
						18:leaf=-0.102384225
				12:[tBAM_NM_Diff<0.00680272002] yes=15,no=16,missing=16
					15:[T_REF_REV<240] yes=23,no=24,missing=24
						23:leaf=0.0393909328
						24:leaf=-0.116740309
					16:leaf=0.0929759741
			10:leaf=0.214542523
		8:[M2_TLOD<123.25] yes=25,no=26,missing=26
			25:[Consistent_Mates<10] yes=27,no=28,missing=28
				27:leaf=0.0507779308
				28:[VarScan2_Score<387.320007] yes=29,no=30,missing=30
					29:leaf=-0.316259205
					30:leaf=-0.0201378576
			26:[tBAM_REF_NM<0.155487999] yes=31,no=32,missing=31
				31:[MSI<2] yes=35,no=36,missing=36
					35:leaf=0.161497101
					36:[tBAM_p_MannWhitneyU_BQ<0.589680016] yes=37,no=38,missing=38
						37:[tBAM_REF_Clipped_Reads<1] yes=39,no=40,missing=40
							39:[Seq_Complexity_Adj<13.1277771] yes=41,no=42,missing=42
								41:[Seq_Complexity_Adj<12.6007137] yes=43,no=44,missing=44
									43:leaf=-0.045409549
									44:leaf=0.299767435
								42:leaf=-0.0531561822
							40:leaf=-0.0896638185
						38:leaf=0.0463762097
				32:[T_ALT_REV<2] yes=33,no=34,missing=34
					33:leaf=0.0795042515
					34:[M2_TLOD<463.220001] yes=45,no=46,missing=46
						45:leaf=-0.0158229657
						46:leaf=-0.157444
booster[43]:
0:[SHIFT3<8] yes=1,no=2,missing=1
	1:[nBAM_NM_Diff<-0.0656204969] yes=7,no=8,missing=8
		7:leaf=-0.140033469
		8:[nBAM_ALT_Concordant<5] yes=9,no=10,missing=10
			9:[nBAM_REF_Discordant<26] yes=11,no=12,missing=12
				11:[Strelka_Score<9.18000031] yes=13,no=14,missing=14
					13:[N_REF_FOR<490] yes=15,no=16,missing=16
						15:[T_ALT_FOR<54] yes=17,no=18,missing=18
							17:[VarScan2_Score<136.639999] yes=21,no=22,missing=22
								21:[T_ALT_FOR<5] yes=23,no=24,missing=24
									23:leaf=-0.151435912
									24:[tBAM_REF_Discordant<64] yes=35,no=36,missing=36
										35:leaf=0.111300878
										36:leaf=-0.0867146403
								22:leaf=-0.244342133
							18:[T_ALT_REV<86] yes=19,no=20,missing=20
								19:leaf=0.207365856
								20:leaf=-0.185399622
						16:[tBAM_REF_Clipped_Reads<1] yes=37,no=38,missing=38
							37:leaf=-0.0617670007
							38:leaf=0.205765739
					14:[nBAM_REF_NM<0.0627451017] yes=25,no=26,missing=26
						25:[N_REF_REV<489] yes=41,no=42,missing=42
							41:[N_REF_FOR<65] yes=43,no=44,missing=44
								43:leaf=0.157663375
								44:[tBAM_ALT_NM<3.03999996] yes=45,no=46,missing=46
									45:leaf=-0.0973546281
									46:leaf=0.0775813907
							42:leaf=0.111264952
						26:[nBAM_REF_NM<0.0727273002] yes=27,no=28,missing=28
							27:[T_REF_REV<251] yes=29,no=30,missing=30
								29:leaf=-0.0117645236
								30:[Seq_Complexity_Adj<12.6632032] yes=31,no=32,missing=32
									31:leaf=0.00164412742
									32:leaf=0.364034861
							28:[tBAM_REF_InDel_2bp<1] yes=39,no=40,missing=40
								39:leaf=-0.00960061885
								40:leaf=0.129942149
				12:[VarDict_Score<18.9899998] yes=33,no=34,missing=34
					33:leaf=-0.120209605
					34:leaf=1.82292952e-05
			10:leaf=0.127732739
	2:[nBAM_NM_Diff<-0.0792078972] yes=3,no=4,missing=4
		3:leaf=0.0951054916
		4:[tBAM_ALT_NM<4.96154022] yes=5,no=6,missing=6
			5:leaf=-0.222117141
			6:leaf=0.0248943176
booster[44]:
0:[tBAM_NM_Diff<0.212025002] yes=1,no=2,missing=2
	1:[MSI<2] yes=13,no=14,missing=13
		13:[if_VarScan2<1] yes=15,no=16,missing=16
			15:[N_REF_REV<392] yes=17,no=18,missing=18
				17:[M2_TLOD<38.5400009] yes=19,no=20,missing=20
					19:[tBAM_REF_Discordant<66] yes=33,no=34,missing=34
						33:[T_ALT_FOR<23] yes=35,no=36,missing=36
							35:leaf=0.0997929648
							36:leaf=-0.220610648
						34:leaf=0.205553785
					20:[N_REF_FOR<176] yes=23,no=24,missing=24
						23:[VarScan2_Score<167.470001] yes=27,no=28,missing=28
							27:leaf=-0.159805894
							28:leaf=0.188085392
						24:leaf=-0.281307459
				18:[N_REF_FOR<388] yes=21,no=22,missing=22
					21:leaf=0.213080004
					22:[tBAM_ALT_Discordant<10] yes=25,no=26,missing=26
						25:leaf=-0.113068111
						26:leaf=0.168040544
			16:[nBAM_REF_NM<0.0660457015] yes=29,no=30,missing=30
				29:[tBAM_REF_NM<0.0468354002] yes=31,no=32,missing=32
					31:leaf=-0.100387476
					32:leaf=0.190237343
				30:[T_REF_REV<352] yes=37,no=38,missing=38
					37:leaf=0.110698454
					38:leaf=-0.126162246
		14:[N_REF_REV<301] yes=39,no=40,missing=40
			39:leaf=0.0369797386
			40:[N_REF_REV<332] yes=41,no=42,missing=42
				41:leaf=-0.193640947
				42:[nBAM_REF_BQ<29.8878994] yes=43,no=44,missing=44
					43:leaf=-0.0945166349
					44:[tBAM_p_MannWhitneyU_BQ<0.575456023] yes=45,no=46,missing=46
						45:leaf=-0.0920329094
						46:leaf=0.0733492225
	2:[if_VarDict<1] yes=3,no=4,missing=4
		3:[tBAM_Concordance_FET<0.00999999978] yes=5,no=6,missing=6
			5:leaf=0.0447884127
			6:leaf=-0.19844006
		4:[tBAM_REF_NM<0.146645993] yes=7,no=8,missing=8
			7:[Seq_Complexity_Adj<12.790946] yes=9,no=10,missing=10
				9:leaf=-0.0963030457
				10:leaf=0.125487506
			8:[M2_TLOD<153.759995] yes=11,no=12,missing=12
				11:leaf=0.0525756516
				12:leaf=-0.155245632
booster[45]:
0:[if_MuTect<1] yes=1,no=2,missing=2
	1:[Seq_Complexity_Span<10.8398008] yes=13,no=14,missing=14
		13:leaf=-0.104662098
		14:[tBAM_p_MannWhitneyU_EndPos<0.966717005] yes=19,no=20,missing=20
			19:[nBAM_REF_Clipped_Reads<2] yes=35,no=36,missing=36
				35:[tBAM_ALT_Concordant<2] yes=37,no=38,missing=38
					37:leaf=0.139860213
					38:[tBAM_Other_Reads<4] yes=39,no=40,missing=40
						39:[Seq_Complexity_Span<15.6110134] yes=41,no=42,missing=42
							41:[Seq_Complexity_Span<14.9238558] yes=43,no=44,missing=44
								43:leaf=-0.0399267487
								44:[nBAM_REF_Concordant<971] yes=45,no=46,missing=46
									45:leaf=0.115780652
									46:leaf=-0.112847425
							42:leaf=-0.128242806
						40:leaf=0.069232583
				36:leaf=0.0629326329
			20:[MSILEN<3] yes=21,no=22,missing=22
				21:[T_REF_REV<393] yes=25,no=26,missing=26
					25:[N_REF_FOR<309] yes=27,no=28,missing=28
						27:leaf=-0.103405483
						28:[nBAM_REF_Discordant<36] yes=29,no=30,missing=30
							29:leaf=0.137733787
							30:leaf=-0.0736224502
					26:leaf=-0.16432932
				22:[tBAM_REF_BQ<29.8213997] yes=23,no=24,missing=24
					23:leaf=-0.112995893
					24:[tBAM_ALT_NM<6] yes=31,no=32,missing=32
						31:[tBAM_REF_InDel_2bp<1] yes=33,no=34,missing=34
							33:leaf=0.225597948
							34:leaf=0.0341243446
						32:leaf=-0.0670221224
	2:[tBAM_Concordance_FET<0.170000002] yes=3,no=4,missing=4
		3:[InDel_Length<1] yes=7,no=8,missing=8
			7:leaf=0.175020635
			8:leaf=-0.0254583173
		4:[M2_TLOD<98.0699997] yes=5,no=6,missing=6
			5:[M2_TLOD<8.52000046] yes=9,no=10,missing=10
				9:[tBAM_REF_Discordant<64] yes=11,no=12,missing=12
					11:leaf=0.0992776081
					12:leaf=-0.168708131
				10:[MSI<6] yes=15,no=16,missing=16
					15:leaf=0.176414907
					16:leaf=-0.017804943
			6:[tBAM_REF_Discordant<43] yes=17,no=18,missing=18
				17:leaf=-0.216160774
				18:leaf=-0.0200586636
booster[46]:
0:[VarScan2_Score<8.14000034] yes=1,no=2,missing=2
	1:[tBAM_REF_InDel_2bp<19] yes=3,no=4,missing=4
		3:[tBAM_StrandBias_FET<0.50999999] yes=5,no=6,missing=6
			5:[tBAM_p_MannWhitneyU_BQ<0.642105997] yes=9,no=10,missing=10
				9:[InDel_Length<-2] yes=15,no=16,missing=16
					15:leaf=0.000857558509
					16:leaf=-0.251055628
				10:leaf=0.0795975775
			6:[tBAM_REF_Clipped_Reads<1] yes=7,no=8,missing=8
				7:[MSI<4] yes=13,no=14,missing=14
					13:leaf=-0.0704571083
					14:leaf=0.203489065
				8:[MSI<3] yes=11,no=12,missing=12
					11:leaf=0.074793905
					12:leaf=-0.167447507
		4:leaf=0.152612224
	2:[if_VarScan2<1] yes=17,no=18,missing=18
		17:[N_REF_FOR<176] yes=19,no=20,missing=20
			19:[N_DP<302] yes=21,no=22,missing=22
				21:leaf=-0.0792724863
				22:leaf=0.151770592
			20:[tBAM_Other_Reads<11] yes=45,no=46,missing=46
				45:leaf=-0.0880184174
				46:leaf=0.0524939783
		18:[tBAM_Concordance_FET<0.0199999996] yes=23,no=24,missing=24
			23:[tBAM_NM_Diff<-0.0204399005] yes=33,no=34,missing=34
				33:[T_ALT_FOR<29] yes=37,no=38,missing=38
					37:leaf=-0.0850679055
					38:leaf=0.195021078
				34:leaf=-0.0223023649
			24:[T_ALT_REV<23] yes=25,no=26,missing=26
				25:[tBAM_StrandBias_FET<0.75999999] yes=35,no=36,missing=36
					35:[InDel_Length<1] yes=39,no=40,missing=40
						39:[nBAM_REF_Clipped_Reads<1] yes=41,no=42,missing=42
							41:leaf=-0.0649398044
							42:leaf=0.106246762
						40:[tBAM_REF_NM<0.392567009] yes=43,no=44,missing=44
							43:leaf=0.203923464
							44:leaf=-0.0324893482
					36:leaf=-0.0701137185
				26:[T_ALT_FOR<53] yes=27,no=28,missing=28
					27:[InDel_Length<-2] yes=29,no=30,missing=30
						29:leaf=0.116566598
						30:leaf=-0.199526414
					28:[T_ALT_REV<91] yes=31,no=32,missing=32
						31:leaf=0.155350834
						32:leaf=-0.098626107
booster[47]:
0:[tBAM_REF_Discordant<197] yes=1,no=2,missing=2
	1:[tBAM_ALT_Concordant<3] yes=5,no=6,missing=6
		5:[Consistent_Mates<1] yes=7,no=8,missing=8
			7:[VarScan2_Score<4.67999983] yes=9,no=10,missing=10
				9:[T_REF_FOR<307] yes=11,no=12,missing=12
					11:leaf=-0.134016916
					12:[T_REF_REV<387] yes=13,no=14,missing=14
						13:leaf=0.188845515
						14:leaf=-0.0699545369
				10:leaf=-0.180971846
			8:leaf=0.138428271
		6:[Consistent_Mates<1] yes=15,no=16,missing=16
			15:[T_ALT_REV<5] yes=17,no=18,missing=18
				17:[tBAM_p_MannWhitneyU_EndPos<0.233576998] yes=21,no=22,missing=22
					21:leaf=-0.0751484036
					22:[tBAM_p_MannWhitneyU_EndPos<0.998176992] yes=23,no=24,missing=24
						23:[nBAM_REF_Discordant<38] yes=37,no=38,missing=38
							37:[tBAM_REF_Discordant<23] yes=39,no=40,missing=40
								39:leaf=-0.0190139655
								40:[tBAM_NM_Diff<0.24628] yes=41,no=42,missing=42
									41:[tBAM_REF_NM<0.103986003] yes=43,no=44,missing=44
										43:[tBAM_ALT_NM<1.23333001] yes=45,no=46,missing=46
											45:leaf=0.0164863206
											46:leaf=0.203379706
										44:leaf=0.280171573
									42:leaf=-0.0179442354
							38:leaf=-0.0265398119
						24:leaf=-0.0789048672
				18:leaf=-0.0510062613
			16:[VarDict_Score<14.2399998] yes=19,no=20,missing=20
				19:leaf=-0.15970552
				20:[tBAM_REF_InDel_2bp<7] yes=25,no=26,missing=26
					25:[M2_TLOD<18.5100002] yes=27,no=28,missing=28
						27:leaf=-0.0930988789
						28:[tBAM_ALT_Discordant<24] yes=35,no=36,missing=36
							35:leaf=0.036967203
							36:leaf=-0.0926683471
					26:[nBAM_REF_NM<0.205263004] yes=29,no=30,missing=30
						29:[tBAM_REF_NM<0.111111] yes=31,no=32,missing=32
							31:leaf=0.0254728198
							32:[tBAM_Other_Reads<8] yes=33,no=34,missing=34
								33:leaf=-0.226755485
								34:leaf=0.0638013706
						30:leaf=0.0773995072
	2:[MSI<3] yes=3,no=4,missing=4
		3:leaf=-0.0486885197
		4:leaf=0.167295605
booster[48]:
0:[if_MuTect<1] yes=1,no=2,missing=2
	1:[nBAM_REF_Clipped_Reads<7] yes=15,no=16,missing=16
		15:[Strelka_Score<5.03999996] yes=19,no=20,missing=19
			19:[N_REF_FOR<509] yes=33,no=34,missing=34
				33:[N_DP<638] yes=35,no=36,missing=36
					35:leaf=-0.0143831605
					36:[Strelka_Score<4.53999996] yes=37,no=38,missing=38
						37:leaf=-0.0486142673
						38:[T_ALT_REV<3] yes=39,no=40,missing=40
							39:[N_REF_FOR<485] yes=43,no=44,missing=44
								43:leaf=-0.0722265467
								44:leaf=0.1859999
							40:[N_REF_FOR<391] yes=41,no=42,missing=42
								41:leaf=0.201327786
								42:[tBAM_REF_BQ<29.8323994] yes=45,no=46,missing=46
									45:leaf=0.149082482
									46:leaf=-0.0500707328
				34:leaf=-0.0366391726
			20:[T_ALT_FOR<51] yes=21,no=22,missing=22
				21:[Strelka_Score<7.73999977] yes=27,no=28,missing=28
					27:leaf=-0.214195877
					28:leaf=0.0361657515
				22:[T_ALT_REV<93] yes=23,no=24,missing=24
					23:[Seq_Complexity_Adj<14.1497335] yes=25,no=26,missing=26
						25:leaf=0.216984555
						26:leaf=-0.0324213803
					24:[Strelka_Score<7.3499999] yes=29,no=30,missing=30
						29:leaf=-0.210509837
						30:[tBAM_REF_Concordant<422] yes=31,no=32,missing=32
							31:leaf=-0.121043466
							32:leaf=0.114431635
		16:leaf=-0.102339357
	2:[M2_ECNT<2] yes=3,no=4,missing=4
		3:[T_REF_FOR<96] yes=5,no=6,missing=6
			5:leaf=-0.0966593251
			6:[Strelka_Score<17.2700005] yes=7,no=8,missing=7
				7:[T_ALT_FOR<15] yes=9,no=10,missing=10
					9:[Strelka_Score<2.6099999] yes=11,no=12,missing=11
						11:[tBAM_REF_Discordant<65] yes=17,no=18,missing=18
							17:leaf=0.180856869
							18:leaf=-0.00383597682
						12:leaf=-0.0476906933
					10:leaf=0.237394214
				8:leaf=-0.0334044471
		4:[tBAM_REF_Clipped_Reads<3] yes=13,no=14,missing=14
			13:leaf=-0.119895466
			14:leaf=0.0454706177
booster[49]:
0:[if_MuTect<1] yes=1,no=2,missing=2
	1:[nBAM_NM_Diff<-0.0488428995] yes=15,no=16,missing=15
		15:[tBAM_NM_Diff<0.212025002] yes=19,no=20,missing=19
			19:[tBAM_NM_Diff<0.131158993] yes=21,no=22,missing=21
				21:[T_ALT_FOR<1] yes=27,no=28,missing=28
					27:[InDel_Length<-1] yes=29,no=30,missing=30
						29:leaf=0.0601249672
						30:leaf=-0.162388265
					28:[if_Scalpel<1] yes=31,no=32,missing=32
						31:[T_ALT_REV<36] yes=35,no=36,missing=36
							35:leaf=0.0109016644
							36:[tBAM_Other_Reads<7] yes=37,no=38,missing=38
								37:leaf=0.202666134
								38:leaf=-0.0560777113
						32:[T_ALT_REV<18] yes=33,no=34,missing=34
							33:leaf=0.101552151
							34:[nBAM_Other_Reads<2] yes=39,no=40,missing=40
								39:[Strelka_Score<17] yes=41,no=42,missing=42
									41:leaf=-0.11464297
									42:[T_REF_FOR<381] yes=43,no=44,missing=44
										43:[T_REF_REV<261] yes=45,no=46,missing=46
											45:leaf=-0.0601597764
											46:leaf=0.16329056
										44:leaf=-0.177201912
								40:leaf=0.0613906123
				22:[nBAM_REF_BQ<29.9344997] yes=23,no=24,missing=24
					23:leaf=-0.0336376056
					24:leaf=0.239421323
			20:[M2_STR<1] yes=25,no=26,missing=25
				25:leaf=-0.079540506
				26:leaf=0.0673606545
		16:leaf=-0.12601763
	2:[tBAM_ALT_NM<1.03839004] yes=3,no=4,missing=3
		3:[nBAM_REF_NM<0.0745097995] yes=5,no=6,missing=6
			5:[tBAM_StrandBias_FET<0.340000004] yes=17,no=18,missing=18
				17:leaf=0.130434394
				18:leaf=-0.0545050986
			6:leaf=-0.167957872
		4:[SHIFT3<4] yes=7,no=8,missing=8
			7:[tBAM_Concordance_FET<0.180000007] yes=9,no=10,missing=10
				9:leaf=0.203988999
				10:[tBAM_p_MannWhitneyU_BQ<0.559279978] yes=13,no=14,missing=14
					13:leaf=-0.084911257
					14:leaf=0.10298916
			8:[Consistent_Mates<4] yes=11,no=12,missing=12
				11:leaf=0.0848208517
				12:leaf=-0.113584377
booster[50]:
0:[MSI<2] yes=1,no=2,missing=2
	1:[N_REF_FOR<241] yes=3,no=4,missing=4
		3:leaf=-0.0876270011
		4:[N_REF_FOR<593] yes=5,no=6,missing=6
			5:leaf=0.170411646
			6:leaf=-0.0413245372
	2:[tBAM_REF_BQ<29.9330997] yes=7,no=8,missing=8
		7:[M2_NLOD<51.9799995] yes=15,no=16,missing=15
			15:[tBAM_REF_NM<0.142857] yes=25,no=26,missing=26
				25:[tBAM_REF_BQ<29.8974991] yes=29,no=30,missing=30
					29:[T_ALT_FOR<2] yes=31,no=32,missing=32
						31:[Seq_Complexity_Span<14.1497335] yes=35,no=36,missing=36
							35:[N_REF_FOR<386] yes=45,no=46,missing=46
								45:leaf=0.246781543
								46:leaf=-0.0232542697
							36:leaf=-0.046612177
						32:[N_REF_FOR<261] yes=33,no=34,missing=34
							33:leaf=-0.192965478
							34:[InDel_Length<1] yes=37,no=38,missing=38
								37:[Seq_Complexity_Adj<14.4241161] yes=39,no=40,missing=40
									39:leaf=-0.106509306
									40:[T_REF_REV<429] yes=41,no=42,missing=42
										41:leaf=-0.0464423299
										42:leaf=0.18556565
								38:leaf=0.142098218
					30:leaf=-0.122127675
				26:[VarDict_Score<6.92999983] yes=27,no=28,missing=28
					27:leaf=0.0691773221
					28:leaf=-0.158399403
			16:[T_ALT_REV<15] yes=17,no=18,missing=18
				17:[M2_TLOD<7.78000021] yes=19,no=20,missing=20
					19:leaf=-0.0951648504
					20:leaf=0.120620094
				18:[tBAM_REF_InDel_3bp<12] yes=21,no=22,missing=22
					21:[InDel_Length<1] yes=23,no=24,missing=24
						23:leaf=0.104826726
						24:leaf=-0.0214833952
					22:[VarScan2_Score<469.380005] yes=43,no=44,missing=44
						43:leaf=-0.205016389
						44:leaf=0.0438470505
		8:[tBAM_Clipping_FET<0.239999995] yes=9,no=10,missing=10
			9:[nBAM_REF_NM<0.044210501] yes=13,no=14,missing=14
				13:leaf=0.11003904
				14:leaf=-0.0881918743
			10:[tBAM_REF_BQ<29.9414005] yes=11,no=12,missing=11
				11:leaf=0.184179947
				12:leaf=0.0283035487
booster[51]:
0:[SHIFT3<8] yes=1,no=2,missing=1
	1:[nBAM_NM_Diff<-0.0562309995] yes=7,no=8,missing=8
		7:leaf=-0.113285162
		8:[if_VarDict<1] yes=9,no=10,missing=10
			9:[tBAM_NM_Diff<0.434951007] yes=11,no=12,missing=12
				11:[MSI<6] yes=15,no=16,missing=16
					15:[Seq_Complexity_Adj<13.2701817] yes=17,no=18,missing=18
						17:[Consistent_Mates<1] yes=19,no=20,missing=20
							19:leaf=-0.0608020425
							20:leaf=0.164634958
						18:[nBAM_REF_BQ<29.9738007] yes=45,no=46,missing=46
							45:leaf=-0.146679968
							46:leaf=0.0542046465
					16:[tBAM_p_MannWhitneyU_EndPos<0.415589988] yes=21,no=22,missing=22
						21:[tBAM_REF_Clipped_Reads<8] yes=23,no=24,missing=24
							23:leaf=-0.144284949
							24:leaf=0.151861131
						22:[if_VarScan2<1] yes=25,no=26,missing=26
							25:[N_REF_REV<392] yes=27,no=28,missing=28
								27:[M2_TLOD<38.5400009] yes=29,no=30,missing=30
									29:[T_ALT_FOR<27] yes=37,no=38,missing=38
										37:leaf=0.165146455
										38:leaf=-0.063651979
									30:[nBAM_REF_Discordant<8] yes=41,no=42,missing=42
										41:leaf=0.0138200233
										42:leaf=-0.219456717
								28:[T_ALT_REV<38] yes=33,no=34,missing=34
									33:leaf=-0.0489365049
									34:[tBAM_ALT_NM<1.09090996] yes=35,no=36,missing=36
										35:leaf=-0.0210318007
										36:leaf=0.19637832
							26:[nBAM_REF_NM<0.0727273002] yes=31,no=32,missing=32
								31:[tBAM_REF_Discordant<71] yes=39,no=40,missing=40
									39:leaf=0.257433951
									40:leaf=0.0329714268
								32:[T_ALT_FOR<27] yes=43,no=44,missing=44
									43:leaf=-0.138708383
									44:leaf=0.0784551799
				12:[tBAM_ALT_NM<1.96819997] yes=13,no=14,missing=14
					13:leaf=0.0372019373
					14:leaf=-0.190614745
			10:leaf=0.0263367947
	2:[nBAM_NM_Diff<-0.0792078972] yes=3,no=4,missing=4
		3:leaf=0.0620458089
		4:[N_REF_FOR<562] yes=5,no=6,missing=6
			5:leaf=-0.199821651
			6:leaf=0.0207787026
booster[52]:
0:[tBAM_ALT_NM<2.33332992] yes=1,no=2,missing=1
	1:[T_ALT_FOR<8] yes=5,no=6,missing=6
		5:[Seq_Complexity_Span<15.6110134] yes=7,no=8,missing=8
			7:[Seq_Complexity_Span<15.2538586] yes=9,no=10,missing=10
				9:[VarDict_Score<9.73999977] yes=11,no=12,missing=11
					11:[tBAM_p_MannWhitneyU_BQ<0.550058007] yes=23,no=24,missing=23
						23:leaf=0.0120051168
						24:leaf=-0.156103909
					12:[N_REF_REV<555] yes=13,no=14,missing=14
						13:[T_REF_REV<306] yes=15,no=16,missing=16
							15:[N_REF_FOR<168] yes=17,no=18,missing=18
								17:leaf=0.0925185978
								18:leaf=-0.115594909
							16:[nBAM_REF_Discordant<26] yes=19,no=20,missing=20
								19:[Seq_Complexity_Adj<13.1277771] yes=21,no=22,missing=22
									21:leaf=-0.0394590497
									22:[tBAM_p_MannWhitneyU_BQ<0.637252986] yes=29,no=30,missing=30
										29:leaf=0.258871973
										30:leaf=-0.00164120982
								20:[VarDict_Score<22.3999996] yes=25,no=26,missing=26
									25:leaf=-0.128961846
									26:leaf=0.0954840854
						14:[tBAM_ALT_NM<1.84615004] yes=27,no=28,missing=28
							27:leaf=-0.173534334
							28:leaf=0.0560729541
				10:leaf=0.122466467
			8:leaf=-0.158639342
		6:[Inconsistent_Mates<15] yes=31,no=32,missing=32
			31:[Strelka_Score<14.5500002] yes=33,no=34,missing=34
				33:[N_REF_REV<300] yes=35,no=36,missing=36
					35:leaf=0.0507966205
					36:[T_REF_FOR<375] yes=37,no=38,missing=38
						37:leaf=-0.188600987
						38:leaf=0.0743648037
				34:[T_ALT_FOR<24] yes=39,no=40,missing=40
					39:leaf=0.178328708
					40:[T_REF_REV<395] yes=41,no=42,missing=42
						41:[SHIFT3<2] yes=43,no=44,missing=44
							43:[tBAM_REF_Concordant<483] yes=45,no=46,missing=46
								45:leaf=0.193197161
								46:leaf=-0.0765329897
							44:leaf=-0.117058061
						42:leaf=0.159271181
			32:leaf=0.123155542
	2:[tBAM_REF_NM<0.0524691008] yes=3,no=4,missing=4
		3:leaf=0.143884763
		4:leaf=0.00714822719
booster[53]:
0:[nBAM_Other_Reads<9] yes=1,no=2,missing=2
	1:[SHIFT3<7] yes=5,no=6,missing=5
		5:[nBAM_REF_Clipped_Reads<2] yes=9,no=10,missing=10
			9:[nBAM_p_MannWhitneyU_MQ<0.533647001] yes=13,no=14,missing=13
				13:[MSI<5] yes=17,no=18,missing=17
					17:[N_REF_REV<389] yes=25,no=26,missing=26
						25:[SHIFT3<1] yes=39,no=40,missing=39
							39:[tBAM_REF_InDel_3bp<1] yes=45,no=46,missing=46
								45:leaf=0.0377441272
								46:leaf=-0.0609706268
							40:[tBAM_REF_Discordant<35] yes=41,no=42,missing=42
								41:leaf=-0.0409129784
								42:[tBAM_REF_Concordant<739] yes=43,no=44,missing=44
									43:leaf=0.165572479
									44:leaf=-0.0361050405
						26:[Seq_Complexity_Adj<14.6171675] yes=27,no=28,missing=28
							27:[nBAM_REF_Discordant<42] yes=29,no=30,missing=30
								29:[M2_TLOD<585.419983] yes=35,no=36,missing=36
									35:[MSI<3] yes=37,no=38,missing=37
										37:leaf=-0.077020213
										38:leaf=0.123486944
									36:leaf=-0.151126027
								30:leaf=0.0709034801
							28:[tBAM_REF_BQ<29.8519993] yes=31,no=32,missing=32
								31:leaf=-0.0449527241
								32:[Strelka_Score<1.57000005] yes=33,no=34,missing=33
